-5.193609809613093375e-01
-1.415822748858310692e-02
5.477315154751911247e-02
-4.635460506909506173e-01
3.118831885805693482e-01
7.261553596104872721e-01
6.941747948829634085e-01
5.741285056536190590e-01
5.263616835025493323e-02
-2.987227545189408695e-01
2.012311103432757042e-01
-2.126122788685516629e-02
1.474013072022246074e-01
5.715144993130114592e-01
2.305193354994807264e-01
4.236331293055602409e-01
-1.999171967384652526e-01
6.203892038125477515e-02
3.480351707479997225e-01
1.520932965169853046e-01
2.563101678081292634e-01
1.380782672544282053e-01
5.517741110888320089e-01
4.087087945826262669e-01
5.160395201279260879e-01
1.793058575137004285e-01
2.993113254300374670e-01
4.210512486410770694e-01
-7.580293392581069489e-02
3.325268225971227953e-01
9.863014851004515970e-02
-1.637855263396830185e-01
-3.323821543254835142e-01
2.860616138933251285e-01
-1.231402151112851451e-01
4.013722187200043368e-01
-1.192972251681562457e-01
-9.501786276021577660e-01
-1.816068944820084519e-01
-4.110996914538707359e-02
1.627629276799240354e-01
-2.024337530489558890e-01
-2.316211714818241230e-01
-1.992022308921247709e-01
1.968024347380915584e-01
-3.254342141624276541e-02
6.423692934545515154e-01
2.959549269854995779e-01
2.343262675968818820e-01
6.397638282455009318e-01
2.353564360876407580e-01
6.155427068399828006e-01
5.289092017541954238e-01
3.569942436541760911e-01
2.532896639237084968e-01
4.019509058010581337e-02
3.233246532681688934e-01
-3.941112598193434735e-01
1.893383413287224870e-01
1.184829174907148404e-02
-2.159866554444891673e-01
5.743531020471904780e-01
-3.084201256850883088e-01
-3.471481605346637411e-01
3.781764348591097613e-02
1.219238724379590882e-01
5.326845367554709776e-02
-2.269460998737178881e-01
5.616536245681579725e-05
2.412255901208169295e-01
4.967153567158130549e-03
-8.116412880413548248e-01
7.818200361448540692e-01
5.898238902351369273e-01
3.445986070538891721e-01
-1.433835980046506975e-01
1.437651248302328766e-01
5.127079446001772123e-01
3.810854024165599152e-01
6.168988451545438512e-01
4.959156412092981525e-01
-3.092540376806383606e-01
-1.451640895118231356e-01
-5.395562450980464497e-01
-1.309072568883495047e-01
-2.391057706857765974e-01
-8.757257215398976946e-01
-2.814479802964749977e-01
-1.498401326454326388e-01
-4.340574501415563335e-01
8.457321961192164339e-02
-3.838736371300537353e-01
1.667708804812418621e-01
1.074187056476025193e+00
8.130447847828761176e-01
-4.411076415587719679e-01
-3.586131144126150083e-01
9.329477875077142601e-02
2.482554810420047053e-01
3.595654212526875892e-01
-3.297032438611048888e-01
1.286237567261154791e-01
-3.364356933740825228e-01
1.246539510260272487e-01
-4.015748186488279220e-02
1.381668841793693980e-01
-2.973822674335253047e-01
4.859856318471144632e-01
2.754870526284940446e-01
-7.439753543961059590e-01
3.076765418045285805e-01
-1.823765699566211040e-01
3.620204117628710860e-01
-6.059184402710202644e-01
-4.283746441841188579e-01
3.766655445194594942e-01
3.348594970277929406e-01
-4.085011707552498317e-01
2.965217941793090728e-01
3.017111569043225416e-01
3.256672602971096842e-01
-1.005740238836047851e-01
5.896116628481732347e-01
-3.826929401122532159e-02
-1.658001843262137120e-01
-8.042139074775800367e-01
-9.313956972508901089e-01
-6.381497968299332246e-01
2.694746573790024469e-02
1.238768283409625720e-01
2.277036100718019818e-01
4.533672464725287399e-01
7.856133912321288104e-01
-5.117566948951995931e-01
3.569587607148514974e-01
1.545481277747400850e-01
-1.545054206789558682e-01
1.544274817208138861e-01
-2.846830728251038556e-01
3.710854819877799637e-01
4.065600892823939549e-01
5.017025001724664257e-01
-3.719216771840769820e-01
6.097366841935323439e-02
3.302992898408204092e-01
-3.923524351527374887e-01
1.402245019701517659e-01
-4.263730108691337478e-02
-5.001236757821730938e-01
-6.392698944178984988e-01
1.410482101029611468e-01
2.414755690018182965e-01
-3.923134545573345872e-02
5.322648939847221018e-03
-7.427897854662384169e-01
-3.931222536571397086e-01
-6.973605778061123806e-01
-1.866132736526038838e-01
-1.000664994311203593e+00
-3.253065422507397386e-01
-2.025572556418168135e-01
-1.431717513036505629e-01
1.747029719026825523e-01
-3.526522164826965122e-01
-2.985336880092254175e-01
-1.363376639010956126e-01
4.310336728159795405e-01
-2.102241547866684490e-01
5.263951358079985154e-02
2.812534069970278328e-01
6.662535471614511318e-01
2.774515048800110795e-01
-2.199474974726531307e-01
1.803665582136496082e-02
5.140123692956261731e-02
-3.590752785599379826e-01
7.821714941428835610e-01
4.526625163575113686e-01
-5.724210993695354466e-01
1.308429398163687141e-01
-7.507528190769006127e-01
-3.611201431229577041e-01
9.600905443805855810e-02
-4.546106938116735718e-01
2.348583471184818028e-01
1.196803160597305765e-01
-7.880248197177029679e-02
2.040302717912085839e-01
-7.252434486779893996e-01
-3.375880433606368025e-01
-1.289758275436367341e-01
-1.718612283059453016e-01
-6.099399635496649541e-01
1.859096718438916496e-01
6.510740488198793474e-02
4.824520118227294818e-02
-2.668267301850591466e-01
7.684402384271185604e-02
-3.203453782300092478e-01
5.927725294063118655e-01
3.492992875997363855e-02
3.786178591187251974e-01
4.304913386230933559e-01
8.464874811353581552e-02
-2.499360781568754353e-01
3.103599258229948754e-01
1.294930726015504352e-03
7.479226556341572740e-01
4.809537001269167944e-01
5.999248483098127416e-01
4.776697316114910108e-01
5.404459565676856814e-01
1.036004846576162652e+00
2.690441980660486232e-01
2.968915261201251488e-01
-1.982714368372181235e-01
6.630591948413012693e-01
-3.661696452669732649e-01
-2.322969780338969004e-01
-1.066851430238008991e+00
-2.850018821945302649e-01
4.251321309886016420e-01
-7.912386209939914483e-01
-1.895373996485507362e-01
5.083669905457621763e-01
-2.209391684242056619e-01
-1.885150415349778064e-01
1.845679843733989967e-01
-3.018796412198763712e-01
-3.318045296390183529e-01
-4.019452912769597153e-01
-6.650782378895101488e-01
1.668145679843555385e-01
-1.574706890051430844e-02
-3.461052597907111616e-01
3.279385251552530134e-01
1.248835759557273550e-01
-2.590347753561458299e-01
4.076750169316719630e-01
7.022056879994541256e-02
1.353834938417400047e-01
-9.754524541069957422e-02
2.680058252080060877e-01
-2.625952031646168194e-01
2.702018462112755204e-01
5.421970210828268577e-01
-9.660046508035080581e-01
2.615924465956658285e-01
1.834436087031613427e-01
-5.377818998247552162e-01
1.732424757745370525e-01
8.561459192741277535e-02
-3.893205905477129664e-02
-6.486822915530245093e-02
-4.180220870481867190e-01
-2.286870498578164324e-01
-5.130969685836226368e-01
1.352228466042509070e-01
1.082429405587809201e-01
-4.853929398272565643e-01
-3.303571920129259598e-01
-2.885978174851049349e-01
-2.695254721718997049e-01
4.954683075760641930e-01
1.934273444479827353e-01
3.265665962991478044e-01
5.053073288173616229e-01
1.004133989187311560e+00
1.270651449113863740e-01
3.677919199747829437e-01
5.295795085763785881e-01
3.631444605512264556e-01
-1.102830149540225402e-01
-4.543289529369008428e-01
-8.001300357439090905e-02
-5.683897367261120381e-01
-5.496434940530136454e-02
1.114476055586772069e-01
-5.763394685116118854e-01
1.202290379969112588e-01
-2.625790063645555561e-02
-7.552199371486967294e-01
4.297723337582615155e-01
-2.300381343930717399e-04
-2.666033492894707979e-02
1.618340154124104646e-01
-1.805829668541015232e-01
-4.914589463932641372e-02
3.412746180010486352e-01
-2.489487874542846424e-02
-6.157757035423608860e-01
1.226348118917210517e+00
-5.166701744054132128e-02
3.619526434929943859e-01
2.123215761825361647e-01
4.144159144836192521e-01
-1.638409236491778775e-01
1.421508345750505387e-01
-2.831941296928976448e-01
-4.440649675472637115e-01
-3.096182480502672751e-01
-1.976845194186795662e-01
-4.838284730128645378e-02
-5.974278073959378155e-01
-6.304876875870646380e-01
4.289361966855171904e-01
2.440873975656566996e-01
1.465266857715257220e-01
-6.346095674197145542e-02
2.884517691382508520e-02
-1.697427591996464868e-01
1.060964122501960732e-01
6.561359400928068464e-01
5.032955396518205005e-01
-3.930066328019607425e-01
-1.434875656275890754e-01
4.602866293007006060e-02
1.793901750654862404e-01
1.596747404597676778e-01
7.895247689944834280e-02
1.661484944525503382e-01
-6.737142554336399414e-01
-6.354473147867052418e-01
5.666256787402323969e-01
9.819416982438690100e-01
4.794770958650257930e-01
6.945552389833125062e-01
2.037302591303988553e-01
-9.372839041628133749e-02
2.807537386661764223e-01
-1.875737903818239793e-01
-4.563952491622041974e-01
-1.500048971312287538e+00
-2.339879692170762360e-01
-7.029888563783043276e-02
-3.765889437174430587e-01
-4.534758337338395395e-01
4.999251767164861748e-01
-2.271570444053331306e-01
-7.724080179246282929e-02
-3.509015699627993090e-02
-5.698257349346735889e-01
-5.994269748170090450e-02
4.220267039991664748e-01
-3.264618449866398264e-01
-2.808214027654954981e-01
1.415370317988253301e+00
3.472044470117700010e-01
-5.622280963778077817e-02
-3.921324133056578454e-01
4.815787933003266019e-01
2.069407751095241055e-01
1.150725228584894566e+00
1.339922202645918548e+00
7.083771907872351559e-01
5.707435750536020702e-01
2.360628056286691034e-01
-5.410656312725101724e-01
3.270349697095797370e-01
2.556918030215045157e-01
-3.732018944516344305e-01
-1.340086673799462946e-01
5.807050909491644486e-01
-2.147743691479511163e-01
3.438009289725229567e-01
3.697911702736743078e-01
1.889205710016949313e-01
2.826388076726969456e-01
8.131106758059362116e-01
6.278680956216274867e-01
6.831478122108839424e-01
5.245534742143811435e-01
8.381343826680446307e-01
1.018570884872099791e+00
8.258975507712900122e-01
-2.738067399401251101e-01
-1.121009145257966022e+00
-7.712266847482253107e-01
-1.602608947934362482e-01
-9.123977459464861772e-02
1.621388345892829375e-01
2.003388038620323108e+00
-4.285726625337619999e-02
7.457225282966740698e-01
6.095547691904255050e-01
-1.392313843409003771e-01
1.071076406426021560e-01
-1.095105033428780440e-02
5.798942457162730157e-01
-1.825892921742662545e-01
2.142452210280683389e-02
5.351656204657193050e-02
9.891419819529852220e-02
-6.341243537228729021e-01
4.993352857611272344e-01
2.283174475173214701e-01
3.482886213922973262e-01
6.627407707043104779e-01
1.089597560741690341e+00
7.969073558364870857e-01
2.649765853088257295e-01
3.084249163509600322e-01
-6.768227518718274160e-02
2.494516640126905396e-02
-7.541244738487959953e-01
-4.431847394823677511e-01
-8.154118309415937516e-01
7.268658161817341812e-01
6.270615875797773686e-01
7.819125369091267652e-01
7.466216679105444065e-01
9.186112291932224672e-01
5.030750839819682074e-01
4.991530360472411498e-01
8.146455515550565796e-01
3.429275615861156479e-01
2.839882673499677934e-01
4.780269853709651767e-03
4.587709721615240710e-01
-2.274627011254225506e-01
1.688569406234499970e-01
1.147373750028074929e-01
5.145697455142892451e-01
1.109600875671881703e-02
3.546885916554011198e-01
3.584698158673070290e-01
6.098340229305079241e-01
6.070919705746518069e-01
9.127679692627719277e-01
3.629638591729998365e-01
3.958708979947144213e-01
-2.423686457466132649e-01
-7.856780277933336221e-01
-1.311475110007110034e+00
-8.723142375722691133e-01
3.586172353549069158e-01
8.820050752882476752e-01
8.716731727625086634e-01
2.382912480220555629e-01
2.983285278132468132e-01
1.002992365155741528e-01
1.573709243936960656e+00
7.323438036578709953e-01
3.532380966514560572e-01
-2.855714004147691942e-01
2.844724406734561173e-01
4.932616766595114277e-01
6.286911755351943798e-01
-2.107716565569206502e-01
-2.439680588372375447e-01
1.621875064913679831e-01
2.619974007987135867e-01
-4.383807259580459470e-01
2.372815969252682899e-01
8.480060856117295487e-02
8.883747857303215811e-01
-2.923186199199130642e-02
-1.412676618749935387e-01
-3.238610060749638753e-01
-4.796646107677494664e-01
-8.864437672921170464e-01
-1.018768947549012482e+00
-4.254967686867072163e-01
1.815981337350378588e-01
5.093722621970998322e-03
8.150393126037333014e-01
1.723356326864482480e-01
1.973725738178173650e-01
6.141000718216217402e-01
6.041189277348208986e-01
2.957781639777920524e-01
-1.353505117658935497e-01
-1.350846833857426710e-01
5.997437312873582504e-01
4.304398216790986664e-01
3.311096285743934664e-01
-1.969971691483265452e-01
4.031154396047530869e-02
-1.497312095700497822e-02
-1.168630112074425659e-01
3.460605918782006518e-01
-1.686869194890192603e-01
8.524209813393496260e-02
-8.581454925644119158e-02
-6.834857255800265152e-01
4.447276898445443605e-01
-7.245630551232613570e-01
-7.138947619744360207e-01
-8.218738773065247250e-01
-1.148028296776241852e+00
-2.011440664265085609e-01
6.817847551590530131e-01
1.028407535669582984e+00
6.892275475359772863e-02
-2.547635322727888618e-01
5.828871443588397039e-01
4.760265723022963358e-01
3.392987638146722218e-01
-1.451601547507720136e-01
-3.710407630069152418e-01
6.273781122143409078e-03
1.328284499867347750e-02
5.643658759841028300e-02
2.544330217414011303e-02
-1.993929524633911710e-01
-8.841901766033789523e-01
1.195542742381961315e-01
-4.179451277272251408e-01
2.845618615064549051e-01
-1.339510647912078578e-01
2.045694262906378735e-01
-5.097025312064432656e-01
4.338655893003863229e-01
-7.518226512661764227e-01
-1.054954516410397725e+00
-8.228296621181980797e-01
-1.425866259099939082e-01
-7.976921779752412789e-01
7.278178505475469962e-01
-5.077930507022886120e-02
-3.803384919118391050e-01
5.966510988225418588e-01
-1.169539574369812956e-01
-4.560252663759937208e-01
6.850014408632782992e-01
-6.947751925804061812e-02
-3.220732008416311853e-02
-4.190642386316252299e-01
-4.215962219046548443e-01
-1.213527446858784220e-01
-1.853255584059885774e-01
-1.283468682274341473e-02
1.753315836957228813e-01
3.102957158305038043e-01
-1.313396996663191048e-02
-5.169764688469994374e-01
-1.965228186105567598e-01
-1.266090562778524053e-01
-3.227823353225680036e-01
-7.077471579184504424e-01
-4.421842234973842323e-01
-1.200842131134266078e+00
4.197726449161231360e-02
-7.825503955784127719e-01
-1.487403930524799245e+00
-3.534571988852179825e-01
1.601113883449157838e-01
-1.377521635577340087e-01
1.033592527047601656e-01
-1.056779037587635584e+00
1.165273432055562511e-02
-9.920416225582448511e-02
-4.318168145589189044e-01
3.877147469917664735e-02
-3.067025027847838925e-01
-5.025168109272958317e-01
6.257440013360873743e-02
2.378072789457977981e-02
2.440570854800077072e-01
3.625687573570531286e-01
-2.170192137161824630e-01
1.122583729190510665e-01
-3.908322411598261215e-01
-1.344086971950026188e-01
1.145524092909992603e-01
-5.342977537692379375e-01
-6.327242652377306209e-01
-6.590997885123119904e-01
-1.237582217687659192e+00
-1.224197537194178897e+00
-7.162695584986751296e-01
-5.915678756791389326e-01
-8.368313544447902874e-01
-1.145982530948572942e+00
-2.939710963498475826e-01
-3.998326283036794382e-01
4.116774440526611567e-01
-5.183526338309512038e-01
-2.271075445612579513e-01
-5.728846353805563257e-02
-1.651862272996980630e-01
-9.674961357007936247e-01
-7.987358808023797829e-02
-1.930315160645197647e-01
2.468824128015269584e-02
3.793017071093564008e-01
1.230539756160822507e-01
5.432770700430102906e-01
-1.780950342968327105e-01
-4.150272599137657115e-01
2.779395329910285817e-01
-9.173231342384655096e-02
-5.964934619899252277e-02
-7.997483034144233782e-01
-6.696919655544030237e-01
-2.047076534595267949e-01
-8.799300414632271750e-01
-3.304045850114024213e-02
-7.163361345585045337e-01
3.326225778251281490e-02
-8.289022061020172583e-01
-1.805053404838736497e-01
-1.007481335323357374e+00
-3.837159295818728943e-01
5.930756864678819046e-02
-5.581598761748382542e-02
-3.439095823772134186e-01
-2.551439408409316156e-01
-1.557131039236655079e+00
-8.453395567459017768e-01
1.561104150919761513e-01
1.969842037125083684e-02
9.256014227545715511e-02
8.311728223112633263e-01
2.600618162844777204e-01
-7.060867295722160486e-02
-4.554592501056535792e-01
-1.032945857270637785e-01
-1.344792927645984126e-01
5.430336088958094276e-01
3.475584730443233572e-01
-3.825280219140863025e-01
1.507613301954689455e-01
-5.757874272045596653e-01
-4.184150569824126031e-01
-6.370142370939205767e-01
-8.398903728595906726e-01
-4.845203266195401981e-01
-6.411738285578703067e-01
-7.756605366395886714e-01
-9.126650312657110797e-01
-1.116045828436262655e+00
-2.924610166351286900e-01
-6.918964303997758858e-01
-6.585250739524256547e-01
-1.145101802131250013e+00
-5.250527505044141341e-01
2.320243758075996726e-02
-4.741949781359960925e-01
-5.083910231035224658e-01
-3.331242142669809114e-01
1.319961399681572056e-01
3.999802606593308441e-01
-3.509953693423666365e-01
4.542661358874841571e-01
-5.303666654093232014e-01
7.990953957836571808e-01
-6.924805986515799594e-01
-1.418609077195105150e-01
-2.411445442689799934e-01
2.500912216209947858e-01
3.275707548502246325e-01
-3.556183171612091742e-01
-2.134511821558969513e-01
-1.234682824203524321e-01
-8.654034812281147238e-01
-1.197604217345603628e+00
-1.482334485998956231e+00
-3.970005467524198584e-01
-6.476575126700877538e-01
-9.074928000302908693e-01
-5.973428722196063578e-01
-4.592900117688134554e-01
-9.916236990404003748e-01
-9.101584470307024777e-01
-5.498072315723131131e-04
-4.575883824690213375e-01
5.238173273140716013e-01
-6.223835948420638337e-02
-3.419933850722944868e-01
5.377892762477720634e-01
-6.687896408076868249e-02
1.357471566910991578e-01
-1.963243002963588058e-01
9.092613475026145586e-02
2.566125774843188156e-01
2.895046811785558782e-01
8.401246031892558586e-01
-1.600672634576809361e-01
1.873419212110932208e-01
5.840173023904319249e-01
-2.004873009554296315e-01
6.972566665390598217e-01
4.450898281596292194e-01
-3.950398487002427794e-01
-3.999088306750586685e-01
-4.515149837617783990e-01
-1.033010275643807985e+00
-3.897220765173662893e-01
1.439105408756619908e-01
3.882614882529326628e-01
-1.416366488206456942e-01
2.689874239740672190e-01
2.796648968655160994e-01
-5.552105863417231696e-02
-7.527161840822484962e-01
2.487610769776343045e-01
-9.239026494053215188e-02
1.283827567045985052e-01
5.482737076430701517e-01
8.506702106481214276e-01
5.592008564439421292e-01
-5.973551173838202027e-02
4.597496707307494601e-01
2.133349311004858681e-02
8.707759409620461355e-01
7.033357831574517105e-01
3.949403782810976815e-01
-3.654344716535793541e-02
-1.624878290608071929e-01
3.795798041966744196e-01
1.819450752662177817e-01
8.895375096491536793e-01
-2.371170496133001571e-01
2.114663520087076143e-01
9.663074391173985533e-02
-1.897982000010288994e-01
5.192622077872649511e-02
-1.599690777386938989e-01
-2.096842877933949856e-01
6.575292916362071027e-01
2.298493538559638616e-01
6.895518467392564022e-01
1.346207427435243964e-01
-2.110688755806275907e-01
-1.004950912256141471e-01
9.177688995663679794e-02
5.164621706632870762e-02
4.449638344014714142e-01
-4.894156209055349205e-01
4.209957874545010026e-01
5.435243616633853025e-02
7.440308303633286213e-01
-4.103530037570378708e-01
3.343739927397080258e-01
-3.412455279065628178e-01
3.652821824482863633e-01
-9.005922514645410548e-02
9.250233097363350088e-02
4.126633771534258255e-01
-8.604474087173769048e-02
1.892071067065622947e-01
-1.168368225660066095e-01
2.420269237544453722e-01
1.090504070317962898e-01
-1.287374062217127302e-01
1.744172262594721190e-01
2.191826316402904207e-01
7.251492554609246799e-01
3.884688440208195481e-01
-2.614438210427221243e-01
-5.703476512828835610e-01
-2.061759736175349314e-02
1.708745512108325870e-01
1.826939690697085630e-02
7.751379124621700090e-01
2.458991871209054159e-01
3.876633720329663024e-01
-6.007059385846252875e-02
-4.560677123182745041e-02
-3.420713458183157196e-01
1.510713372612258187e-01
-4.719895986794845483e-02
-2.327069308178241203e-01
1.871487723154770244e-01
6.590943630925637509e-01
-8.334758680974259093e-01
1.956675893279093970e-01
8.550050398270039875e-02
-4.648028245769220690e-01
-1.017124581702802816e-01
-1.993583497322314567e-03
-5.860736175780648649e-01
1.816947305970029458e-01
9.055478459834898075e-02
-1.617042688305237938e-02
1.091994425186789269e-01
5.698191208805968300e-01
-2.985636611495107173e-01
3.719332558734606553e-01
-4.184885620485428309e-02
2.094358403403883961e-01
1.499523109781902286e-01
7.784552403422813072e-01
2.985403192047674903e+00
