-2.682568260637578552e-03
4.098370386747888366e-02
-1.374170465864814035e-03
-6.375207673171054412e-03
2.224058724584541263e-02
6.342646549979882864e-02
2.205831153626076555e-02
-5.845809748779707063e-03
6.528449441450549263e-03
7.870612887549757741e-02
3.048330606931392434e-02
-7.526418514290293509e-04
-1.850858885311994911e-02
-1.051477382199655745e-02
2.119682763554106217e-02
6.476646714422823470e-02
1.757932607173239362e-02
3.655236510755451029e-03
3.469997274307258517e-02
2.290842919778842898e-02
1.709057213442530601e-02
2.087979858537880769e-03
3.267175157403066910e-02
3.846572520418467533e-02
4.297969320865553319e-03
1.493996651479892988e-02
3.242187416084110069e-02
3.707820727834298252e-02
3.037487572570427702e-02
2.306714260685152965e-02
-2.515267017905040148e-02
6.637975315597019824e-03
3.326334665984617689e-02
6.169231181083909693e-02
3.653909069237402246e-02
-1.412019047515622287e-02
1.600900853452185161e-03
4.574676860269136919e-03
2.094358876310444505e-03
4.891250806492345587e-02
1.813717506150171535e-02
3.623583442191798121e-02
8.178656074530171391e-03
4.843254876069507525e-02
-4.748801716348732480e-03
3.043958045571036955e-02
6.009576145142964121e-02
4.953580224615270616e-02
2.701510734976899156e-02
4.930883765313203576e-02
3.138333273487678432e-02
7.440386158216737156e-02
3.042826373502144702e-02
-1.309950258453088622e-02
-1.385295568092591995e-02
1.306307384746108061e-03
2.784047528602700064e-02
1.201419899829696877e-03
-1.898287393328831549e-02
2.281386268652218705e-02
5.251210459605468867e-02
4.035551450766831916e-02
1.107885426197162577e-02
6.082355353132219873e-03
3.266909674637457489e-02
4.362381276448291934e-02
2.169987273951493045e-02
-1.516331114876351763e-02
-1.676853589149680454e-02
6.410071729249776362e-02
-5.204294210848673524e-03
2.305844732877300463e-02
8.520074183140788349e-02
6.657341506134334397e-02
6.504059885133917085e-02
4.085267601531163812e-04
4.825574471449016467e-02
3.228128151910272803e-02
2.599623531787111433e-02
-7.972055606278572945e-03
4.291662759008860184e-02
1.779632622816565077e-02
3.118597370305143876e-02
2.619037157428812795e-02
-1.579295496177260177e-04
2.802146021865242059e-02
-1.273903341721480814e-02
3.057602240838662097e-02
-4.158385093144108952e-02
-1.907756881938372714e-02
-1.317170211573577554e-02
1.232473231328078123e-02
1.309028309395834921e-02
5.196820984807616617e-02
7.047032987660646619e-02
5.300720405047563283e-02
-2.019565389831485397e-02
2.364462301025541113e-02
3.057423234670541418e-02
2.375862224932683356e-02
2.777078651350071981e-02
2.817745367772436088e-02
4.594454441671432269e-04
1.438845250713707315e-02
3.216947752598867810e-02
2.200161552435024245e-02
1.524298504829226138e-02
-1.441905123806981950e-02
2.286976457433970850e-02
6.967857578543304453e-02
2.217909172904588763e-02
3.025800932262487711e-02
1.964706576394335824e-02
-1.254076379908840126e-02
-1.216200699403382525e-02
9.536439793897493605e-03
4.297134039688688817e-02
1.538592274082663941e-02
6.467354588656946783e-03
7.657962990929889635e-02
2.867377711912036040e-02
-9.732678458363749549e-03
7.298633360962338001e-02
1.425628445221790996e-02
3.011518326027294926e-03
-6.017281576030864693e-02
-2.247440834536661852e-02
-9.372853239301655315e-02
-7.571953349966664693e-02
-3.757049829795042206e-02
-1.186661622349602027e-02
-4.957464901422150433e-02
-2.084675820012713010e-02
-2.772323778458428770e-02
3.468093985658284722e-02
3.196431371828557105e-02
-3.717764110960061069e-02
-1.290917079768515684e-02
1.598821627722399677e-02
6.379472061818716733e-02
3.364766005811053312e-02
2.171394546614033305e-02
-2.444298894373187966e-02
4.215569619322791922e-02
4.572718697809436024e-03
-3.792156051630120317e-02
1.734666723320770279e-02
-1.689156171352016247e-02
-1.571964123793996235e-02
-3.740982092938909681e-02
-1.331687470056934497e-02
-3.485819348833455594e-02
-7.188315108912100848e-02
-1.578693594445433612e-01
-1.922028708278894493e-01
-2.371858823957874729e-01
-2.151192975743741187e-01
-1.962900548296694914e-01
-1.670147573945795494e-01
-1.630840808834214950e-01
-1.790542953173769047e-01
-4.218145648022868233e-02
-7.964424787997392841e-02
-8.417544174587489325e-03
2.816216300071433878e-02
6.667772429118221100e-02
5.298739209015206411e-03
-3.651568024851075539e-02
2.281095844893179722e-02
4.942427276320025126e-02
-1.717886160538437427e-03
1.155227594220984040e-02
5.362987077179218881e-02
5.266690005850824946e-02
-5.093387086902359875e-03
-3.606511204653151809e-02
2.351003931722802157e-02
-4.121953542138376281e-02
-9.412727207095540616e-02
-8.724076929755933407e-02
-1.037504913626196013e-01
-1.249064963526872463e-01
-5.515562749378741247e-02
-6.678017277682141151e-02
-2.061873656548620683e-03
-2.112923515799662935e-02
-5.328287849072355781e-02
-1.079872160188840996e-01
-1.238170377168360814e-01
-5.971791070884031882e-02
-1.145849746011088910e-01
-5.628942103226660526e-02
-6.089224731817424047e-02
3.786714053096418287e-02
6.481148589117531611e-02
7.459319094349889726e-03
5.862935736559836408e-02
-6.965340075188625711e-03
1.975247346455804784e-02
3.062353701201632125e-02
4.842884578308155261e-03
3.984818983618292759e-02
-4.739559854930128907e-02
-8.904679702008747033e-02
-7.034297391481918182e-02
-9.605554032137372800e-02
-4.942507322969177247e-02
-3.865235672788774890e-02
-1.932942899681411655e-02
4.697142598870568397e-02
1.193891275789491224e-01
1.865422162247251381e-01
2.287590152271058996e-01
1.569988497157623619e-01
4.602959767789109591e-02
-6.519350419642543082e-02
-6.159186675112950093e-02
-1.186016419944577599e-01
-1.398620958752702925e-01
-1.425984617053959180e-01
-8.413061875825234015e-02
2.278780204020444330e-02
-1.178048147896632210e-02
3.709118412995098153e-03
2.618869859725029073e-02
4.693696551257063587e-02
4.915404191838848580e-02
3.522965516073781446e-04
3.861976840368738090e-02
-2.318365513009124079e-02
-7.967531636125937955e-02
-1.144896064831865956e-01
-4.649751170483134438e-02
-7.041480024677231053e-02
-4.926865431503298781e-02
2.169712818970530310e-02
3.154941334170014572e-02
6.948826163191729188e-02
1.097756379344783650e-01
1.467739443730960158e-01
1.300733774919886065e-01
8.978942544270276938e-02
2.083471456790656970e-02
-7.642542570169991514e-03
-2.166407569069523503e-02
-4.061637424464904084e-02
-1.640445574705425846e-01
-5.694585972492950676e-02
-7.043750909426353679e-02
-8.816244370693655796e-02
-1.076179662604786688e-02
8.729463816230758136e-03
-2.108539349207624522e-02
5.455088312824629346e-03
9.271895486846608650e-03
3.607469082443062053e-02
-8.246620469909041878e-03
8.167428276972159631e-03
-5.051132671827516379e-02
-7.598250254732658027e-02
-6.483958747501043784e-02
-4.876378372111420112e-02
2.916740751547021362e-03
5.061560549074476528e-02
5.474804620818582435e-02
8.325119870200554939e-02
6.897832326667001357e-02
9.733140185869509908e-02
7.623978184324774199e-02
1.142530547362498317e-01
5.741324580929460519e-02
1.219770324415803305e-02
-8.065693199076190423e-02
-9.757171186317419032e-02
-1.652151725604846799e-01
-1.665074468009487274e-01
-9.491833424771893568e-02
-6.250245602115085675e-02
-1.702472533896588628e-03
-3.379512855441062918e-02
-1.888054141144416762e-02
-1.646659289813831237e-02
2.866871731678218016e-02
2.546961280962979288e-02
-5.106073976888093197e-02
9.385302002143408595e-03
-3.125681635874216074e-02
-2.138881448854319453e-02
-2.834777528541566546e-02
-1.046263957985833770e-02
7.166699801243725521e-02
1.188406720597393607e-01
7.957015574448057793e-02
4.430402115097027693e-02
6.811654701392591896e-03
4.184890027188030437e-02
1.127005611705770988e-01
9.131629166736045244e-02
4.294943293899429471e-02
-1.968294339679024481e-04
-3.402542142452560925e-02
-1.086878269820073795e-01
-7.257109245036182099e-02
-7.467368954212520726e-02
-3.411400714695202868e-02
-4.297278949519951242e-03
3.223988773156005738e-02
2.257864097199393030e-02
3.075063572415525498e-02
4.170569808338724788e-02
-2.023364888746350884e-02
2.668903024712607555e-02
3.038501397105392715e-02
-1.149490357408258778e-02
6.690761294584715926e-03
1.885468664648437542e-02
2.875363572080997729e-02
8.562058347529960534e-02
1.126131804219205473e-01
1.169237957866769984e-01
-5.455323311783327224e-03
-1.179137845169484083e-01
-5.876405421005720386e-02
6.404091137538681089e-02
1.673211232428949147e-01
1.753356024218095111e-01
1.357020335137762435e-01
9.750310179245574860e-02
4.238475964588580419e-02
8.843106652104840495e-04
-9.230045253576707465e-02
-7.367344275986521807e-02
-1.153731673766124066e-01
-1.327498789115188517e-02
2.542462113450802766e-02
3.286859320077949176e-02
2.254604145302575163e-02
5.101669169002769760e-02
1.317403475637757629e-02
3.884614828626015235e-03
5.942730448554684602e-02
3.482250616231620521e-02
7.092759076230345516e-02
9.784707042190822490e-02
1.045978763093749903e-01
1.432751745917263952e-01
1.614735132689893160e-01
6.264919260053676379e-03
-1.050624724792526971e-01
-1.483096880251443817e-01
-4.823754308247144018e-02
1.984557704134841394e-02
2.184596693621309038e-01
2.488206389702543042e-01
1.508042093844552123e-01
1.322254097401545647e-01
8.433643894994241608e-02
-2.888055126783961590e-02
-4.946766282346418825e-02
3.928917919491706212e-02
-2.610172967617719816e-02
-9.389309206819962395e-03
4.015398440065214708e-02
1.407040649093524269e-02
4.092104105912941665e-03
3.109799286716969507e-02
3.005490915775390140e-02
6.073360536852152880e-03
7.759598570621853431e-02
9.263834605708934355e-02
1.648793607342897427e-01
1.630471063531766240e-01
2.048791608886252891e-01
2.213763537489466526e-01
1.557866940914026388e-01
-4.362899200492689755e-02
-1.980849469312558064e-01
-1.796511136317298918e-01
-6.464795341696198683e-02
7.235815997976553782e-02
2.236011667227418842e-01
3.380040413701757007e-01
2.300362927525956003e-01
1.940214356642604165e-01
1.149866789888920882e-01
2.681030475670395999e-02
4.356361843353336732e-02
2.888461854854557781e-02
2.621922197576770364e-02
-2.237879793923533076e-02
5.498548056428177733e-02
1.827894990430633387e-02
1.013366334286809611e-02
1.666481621261996920e-02
6.343100578078043894e-02
5.189557311486130836e-02
5.690163380564861040e-02
1.224754757712697983e-01
2.092665111963573077e-01
1.417016753581041011e-01
1.754692516714362049e-01
2.095771907904918907e-01
1.063810893727590995e-01
-5.467025912552969658e-02
-1.540387816163534540e-01
-1.766405319824527476e-01
-1.434306699525103312e-01
3.003127869643414452e-02
2.814738363994591652e-01
3.162258149541390950e-01
2.060328311959392367e-01
2.101012586291583217e-01
1.668275504750726113e-01
6.958648537558112523e-02
7.876923011720313172e-02
-5.792548263806051451e-03
2.824078361833487483e-03
1.160246827464879275e-02
4.039650202454034278e-02
2.998966814986712623e-02
2.655715217817979784e-02
-1.997531933323889661e-02
1.712051703348795723e-02
4.077478298842704407e-02
3.959620022468694073e-02
1.056101731087335099e-01
2.149798307283389553e-01
2.157743158339182066e-01
1.783649622296301362e-01
1.476475199622278300e-01
1.170629385825430746e-01
-7.429750935834043835e-02
-1.974357196218987087e-01
-2.852585220324693194e-01
-2.188379712031842672e-01
8.429310746915305574e-02
2.966673476526600628e-01
3.315567711453334399e-01
2.396112009216462557e-01
1.769606288401521788e-01
1.496916478879368462e-01
6.794262082959391658e-02
7.143532348468469018e-02
2.237997718151572488e-02
-1.085493254571258739e-02
4.039031734479514579e-02
9.491262271681438073e-03
5.421672200276556053e-02
-9.433689924738562077e-03
-7.567496735809653603e-03
-3.958688279885991257e-03
9.916680698113976983e-03
4.193720981080819449e-02
1.523197707118239264e-01
1.227185420289460677e-01
1.327220287151338884e-01
8.365350387501231666e-02
3.922005560380690398e-02
-5.410228434866354297e-02
-1.238256681681178945e-01
-2.378383039944104993e-01
-3.029760728801829117e-01
-1.418689399065045931e-01
1.414537733578282719e-01
2.271904728191415090e-01
2.027859009560308290e-01
1.613477594577849006e-01
1.201433531667259191e-01
1.005950873255256894e-01
3.395190324062070941e-02
1.311374610475300392e-02
-2.296551782407641254e-03
-3.396912489499265275e-02
8.409296228749894159e-03
-5.105100569102022888e-03
8.315033042145630882e-02
3.081616291009433781e-02
-7.266607425812927033e-03
4.702763808680581609e-02
9.545296167669338255e-04
2.876512083984098661e-02
5.982913988909064479e-02
7.650526185318183570e-02
4.725637667628160635e-03
-8.489790963606538843e-03
-3.849754602359652805e-02
-1.053956077036007216e-01
-2.200044980777277059e-01
-2.774001573754336647e-01
-2.499335484578801281e-01
-1.716304237693481310e-02
2.065948718372808968e-01
1.590440262268816296e-01
1.202304321814740284e-01
1.014112492564304829e-01
7.115595839363227093e-02
4.157103873205085509e-02
1.427448081497378202e-02
3.446333349890488146e-02
8.820920639964697010e-03
-5.766230661307474026e-02
-5.906364753518111507e-04
1.952884798801190688e-02
2.041087425248877193e-02
1.288877251697865579e-02
-4.299688612283366490e-02
3.528390234392040498e-02
4.123353344863388975e-02
8.290009955872869318e-02
8.577960623532167664e-03
-4.540784042842272578e-02
-6.686235754656896790e-02
-9.042287053987103917e-02
-1.754492082933607200e-01
-2.226398045314386120e-01
-3.042135444068142514e-01
-2.547678149666826042e-01
-1.882240666546899088e-01
7.333869465874330584e-02
1.157112129666199585e-01
8.395537000038667819e-02
6.630917469269670406e-02
5.791442781602466720e-03
9.382814054547376770e-03
-2.068278945445688102e-03
-4.590035330866681917e-02
-5.206871491793466783e-02
-8.824774585785574721e-02
9.673452514066276445e-03
2.022103613802565467e-02
-2.916124602649499895e-02
5.500781495033554153e-02
7.433510455838103319e-03
1.155712596675144074e-02
4.864568390611104937e-02
2.050432510401546671e-02
2.084567547606933774e-02
9.381992778291488137e-04
-9.030403150474242135e-02
-1.615391610383242471e-01
-2.151587893287585096e-01
-2.821335115791371861e-01
-2.522057999687801755e-01
-2.521388869046340964e-01
-2.200780259158970631e-01
-4.461392835060968426e-02
6.643065219322147330e-02
2.269111375393269986e-02
-8.358116289074329214e-03
-6.526190771483707243e-02
-5.757221953728295510e-02
-3.827534822008602650e-02
-3.077249115234455268e-02
-1.002198304857900429e-01
-7.710073965055726231e-02
-2.575496623722067779e-02
4.625630602869832547e-02
2.276821124011941047e-02
2.881293477204609904e-02
-3.185913431653268624e-02
9.562256395128448938e-03
1.565472093317869795e-02
-9.563204176263318673e-03
1.184620421362921408e-02
2.344520893774701409e-02
-3.304572396554317920e-02
-1.146865642179657058e-01
-1.717881187278306743e-01
-2.220011250587667906e-01
-3.042316731158569709e-01
-2.513272134637772326e-01
-2.176517550144304869e-01
-2.281092190791401686e-01
-9.945912170511859995e-02
-4.684229003524841700e-02
-2.206013690859036716e-02
-3.667548575970902558e-02
-1.320437105577507708e-01
-7.237158282915730212e-02
-9.982248401847600150e-02
-1.250494108490460970e-02
-1.087608859288453356e-01
-4.390312123886189882e-02
1.932780694100611971e-02
5.389194540159072955e-02
5.178048530893646084e-02
1.767255209867548164e-03
1.504221365803301222e-02
2.377484652046299787e-02
7.189285357670467669e-02
-2.134742735922099538e-02
3.665741453414992496e-02
3.986072385903430271e-02
-6.666148590889556247e-02
-6.154355528921701818e-02
-2.077348552875847021e-01
-1.812377454669022447e-01
-2.308594730472000589e-01
-2.143479687898111052e-01
-2.185678294135123823e-01
-1.455792763186493921e-01
-1.235793023730131224e-01
-1.315544077085731567e-01
-1.645600133371640517e-01
-8.799533517355215273e-02
-1.054281447159309271e-01
-1.353908260302701394e-01
-1.000681739276362003e-01
-1.001724906879973565e-01
-9.860681226655639009e-02
-3.839843883228043209e-02
-5.521977248195347916e-03
7.369920571383588304e-02
2.841830511983526805e-02
4.354790478516484820e-02
-1.020841801996305066e-02
1.280236508694842026e-02
-8.245973982146220446e-03
3.068089495173393147e-02
1.732514812560985787e-02
6.110099868368826410e-03
-5.323893444315373064e-02
-2.545614558862620280e-02
-1.458831494767058312e-01
-7.989260608350172432e-02
-1.347393153538989918e-01
-1.780853429581657765e-01
-1.519252836819556252e-01
-2.365234205326376404e-01
-1.889411459705604701e-01
-2.109009260191037904e-01
-2.190806531731319118e-01
-1.820473462804419740e-01
-1.598102597739274877e-01
-1.264670800152822572e-01
-1.522862481112572386e-01
-6.440630413483498795e-02
-6.013578602449953792e-02
1.345935479711918336e-03
-3.168728109317384134e-02
5.141792555373995294e-02
1.798935704065707936e-02
2.893342620160943568e-02
-4.299304337315588108e-03
3.269887391116724218e-02
-3.024288640247791565e-02
3.856346143078327737e-02
-5.966933858447510258e-02
6.885883135755953982e-03
5.747086624498604079e-02
7.746048699697230533e-02
-1.553800388337449843e-02
-4.150036866449228513e-03
-5.367683185836643472e-02
-5.653247278296892608e-02
-2.178435514890602054e-01
-1.913003604333918251e-01
-3.049106065058146964e-01
-2.262329288110006831e-01
-1.632594534290469357e-01
-1.813377302477706399e-01
-1.372026326016634046e-01
-1.073180576525095686e-01
-8.784837602182721250e-02
-2.457063351758571879e-02
3.689390615830752135e-03
2.158576594141885154e-03
4.290842156663070978e-02
5.105084442660146049e-02
-1.142900894657251573e-02
4.077037137197274397e-02
1.360994051181333223e-02
4.299921870331724176e-03
3.264508361555593791e-02
3.166750047088719155e-02
3.933304719955300205e-02
6.196379229078908396e-02
2.157384936632506314e-02
7.095511951863799072e-02
7.886572989072972162e-02
1.520675709737461800e-01
9.231097097964389986e-02
7.898031349210274388e-02
1.622734035618763476e-02
-6.262368673401730312e-02
-1.153338985378196402e-01
-1.719646815169278142e-01
-1.221620540384542319e-01
-7.565200560998287804e-02
1.175010191884946417e-02
2.648843875965462349e-02
-6.618339776095563676e-03
4.496280077126033753e-02
1.672563833220358856e-02
2.052288697477180554e-02
1.478385092855206626e-02
2.551787584741807210e-02
-2.135263595013522572e-02
5.425950617640387663e-02
4.851762093363824746e-02
9.385810570836346581e-03
7.641962838417801218e-02
-2.042023507670710433e-02
5.803008785177921763e-02
1.140995979422749877e-02
6.172454496787403710e-02
9.369318889664692007e-02
5.932051264671685253e-02
6.799275940836932430e-02
1.203857390575728548e-01
1.331662430156033139e-01
7.334355650195326093e-02
1.491517402254657898e-01
8.543418559643031762e-02
8.416168718422618877e-02
1.100106890561429879e-01
1.272452819025314819e-01
7.354344606532108031e-02
7.220060178608096735e-02
4.962134790761817127e-02
5.389997204147010251e-02
1.229086995365595916e-02
6.127651017123127153e-02
4.157147748573786217e-02
1.424874300879951268e-02
2.615401054149164590e-03
4.541641863221742431e-02
-1.545821924431948005e-02
9.888739365309862778e-03
-3.969227526843466941e-02
4.085415019217023165e-03
3.585801587437621729e-02
1.141755849818250762e-01
-4.060257934761836440e-02
2.562663422036060012e-02
5.744907685232160388e-02
3.259192935461582841e-02
-1.460349570273757405e-02
2.242122325378677339e-02
3.686697046622985918e-02
1.044198226722936433e-02
2.199839299892780708e-02
2.197361839415475429e-02
5.751072472143629183e-02
-1.630813770487287741e-03
2.707422800299344456e-02
6.751137848522972829e-02
4.591462083580919243e-03
6.856133710666001413e-02
3.147841472598118112e-02
1.240123346833328644e-02
9.173663200922999028e-03
3.842520015660507056e-03
5.685476461007198112e-02
6.149367656582416936e-02
3.348151518113242492e-02
3.935996829289170607e-02
4.652442100890403359e-02
2.831503164482509702e-02
2.615092089258969424e-02
2.939527957078837475e-02
7.091940684842738818e-02
-3.415441064582839387e-02
-2.958012017923174544e-03
8.287701837348176656e-03
-1.075096782053381814e-02
2.616622240308653577e-02
4.275070688584153150e-02
2.366915812766893709e-02
-1.693756483843203084e-02
3.982421152716035528e-02
-4.720809361277016752e-02
5.770560884914705674e-02
1.253679009440715648e-02
2.882035733843887892e-02
6.238949935561565602e-02
-8.327195471321176008e-04
3.775427861204914970e-02
-1.839479535486374800e-02
3.323117333428491499e-02
-2.933586213920738508e-03
9.362007356199518113e-03
4.452705942926282745e-02
2.204709111773375720e-03
2.685673859903278116e-01
