1.402911614973999521e-01
7.526218686230154997e-01
1.267031168828417043e+00
-1.935365250159281139e-02
6.122863354953191894e-01
1.941240434678607629e+00
1.260759730210032625e+00
-1.327060395340344368e+00
1.768435200300864318e+00
4.204950994888107668e-02
8.437615790544231720e-01
-1.124685863936736974e+00
-3.452956533307660614e-01
-5.559346451170469328e-01
1.360715616192896604e+00
8.218325410226344774e-01
-6.265609916051340100e-01
-9.163983827219653877e-01
1.283478350170098814e+00
1.309621232221825471e+00
2.056872182811568250e-01
-7.276804050776057575e-02
1.149192611314081125e+00
-3.105991710460955235e-01
-1.604284824623749772e+00
2.372416520903192494e-01
5.986532899936858332e-01
1.876068153773706504e+00
8.321958759748455670e-01
1.348588799115756909e-01
-2.645044355140975245e+00
-2.891083511730915490e+00
-5.163165437012882109e-01
2.655127588368567243e-02
1.584028790800391162e+00
-1.249484364859878349e+00
5.436318817167302697e-01
-1.462977058042780998e+00
8.941256202080397619e-01
2.450639232473110329e+00
4.387357185090816521e-03
1.340924418759153802e+00
7.837204616663709933e-01
3.337865336598860644e+00
-1.344453733620596836e+00
1.432139751921631676e+00
1.119699332635856415e+00
9.490857018579774707e-01
6.429237394121256610e-01
2.157469444363045774e+00
1.223073134878911672e+00
2.479734813631663926e+00
1.726188784170540613e-01
-9.193119881141418315e-01
-3.437609461147103640e-01
1.011508530649844584e+00
3.286016078516847405e-01
1.837446729651670552e+00
-1.498725154284967109e+00
1.410223513033844300e+00
1.723164983911759762e+00
-9.979838212193026248e-02
8.723830839395742276e-02
-2.267537260839880719e+00
4.923570305414589066e-01
1.728766126275381509e+00
2.181008796490339352e-01
-1.133587603944256950e+00
-9.972831559656707423e-01
1.904032598111886410e+00
7.480874054902136860e-01
5.308427817858195619e-01
2.772326584789318371e+00
1.593426890046190092e+00
2.465182693494199384e+00
-4.869974517031198102e-01
2.558910499097360347e+00
1.497255947365104145e+00
1.802448824144021966e+00
-2.489981454096670710e+00
1.100988202925970327e+00
-8.900940933553116441e-01
2.412585997415522598e+00
-6.779348950607104740e-01
1.013642512947024343e+00
7.164225741550322990e-01
-1.974268229395092611e+00
1.145727431217643533e+00
-4.795560020398201395e+00
3.519602681583619552e-02
-5.392246332125918418e-01
1.905061842613233469e-01
4.063893948184451044e-01
1.464066634205412720e+00
2.076573380092244125e+00
1.349868330621493584e+00
-4.788400185741250037e-01
-6.913777766373323530e-01
2.802201116416745297e+00
-5.427455205011142425e-01
1.699971552611036496e-01
4.312106968020457676e-01
-5.269721149290289980e-02
-6.071731965594591163e-01
6.608030804653594048e-01
-1.289136488253959989e+00
-2.029039849844558763e+00
1.427674400134609112e+00
5.716914113909918882e-01
1.521917102210237571e+00
8.188255330150597811e-01
-4.566142041382001415e-02
-8.149910515131117972e-01
-7.762352209229248512e-01
-8.718946849486119977e-01
-1.836714630951777449e+00
2.027197003525201602e+00
2.348318052352274810e-01
5.115799695770369970e-01
2.926284725820381016e+00
2.497505627839688991e+00
-1.243336814267850254e+00
5.103396043385348690e+00
-5.772918960273299982e-01
-1.479146051563350606e-01
-1.471237938352091268e+00
1.728193992080898911e-01
-2.810908338880648838e+00
-9.684005423659300948e-01
1.990699192670403406e+00
2.945133752055788090e+00
-1.183361464543821517e+00
2.461472716933413643e-02
-7.645284470717844671e-01
-3.106187508614457471e-01
-7.062198596431031733e-03
-1.241582011017968945e+00
-3.316189875164529788e+00
9.552695429103790214e-01
6.493386495169556349e-01
1.592612425606234616e-01
7.149833846710574869e-01
-1.125481303005564149e+00
-2.596063347995811732e-01
7.205303821182381663e-01
-3.930967579981280213e+00
7.033293375250809776e-01
-7.994402523168727681e-01
-8.159131181099101848e-01
-1.066345349688660793e+00
3.391406031662723419e-02
1.386626415922068922e+00
9.400334186131907854e-01
-2.852753047732140779e+00
-2.348591484023151654e+00
1.979399369031241696e-01
-2.570137746007735924e+00
-1.066800563052202611e+00
-1.723558079915548547e+00
-2.161021217190250088e+00
-3.539024351852286365e+00
1.286439938942972372e+00
-1.284328584442183896e+00
1.136602744679415578e+00
8.339303769293563429e-01
2.681878185198330655e+00
6.004352438409570336e-01
-1.586659844284479703e+00
6.638287604042962808e-01
-1.231955663128133371e-01
-2.834073054074784381e-01
1.134516641268960235e+00
1.964001938607741193e-01
2.148129162546712045e+00
4.532859310347324699e-01
-1.858233816105623326e+00
1.744685796547055467e+00
-1.013651584599461586e+00
7.303145835730869839e-01
1.318604860110699883e+00
-2.240137770972392417e+00
-7.023979852244667255e-01
1.453744837833102155e+00
-1.052558889057914726e+00
1.359103444883153822e+00
8.493082164764621522e-01
8.383440103008537037e-01
5.450067282894548865e-02
-1.928872144230302066e+00
1.472927500562977166e-01
-9.033870272518562672e-01
-1.485909314705945672e+00
-1.141978796333176893e+00
1.631260034465170428e+00
2.537075987000804833e+00
1.356469172977304849e+00
1.579162183467772707e+00
-7.678698813621408492e-01
7.296481335218166775e-01
7.546442324613569230e-01
1.450189231204644935e+00
8.574236620871535930e-01
-6.582045464947878788e-01
-4.043349158406440158e-01
-3.590617491099428182e-01
-2.398951136146221685e+00
-1.857547981567306550e-01
1.467460374821002000e+00
1.920491905501773566e-01
-1.343217855459805321e+00
2.181030221939487479e+00
1.011766697735202003e+00
4.453509603626828017e+00
6.596279373252282863e-01
1.747298164199525994e+00
-1.735855715084146267e+00
-8.603616078595403838e-02
1.733416679685016726e-01
-3.193951968677409159e+00
-3.717835627959900080e+00
-5.105062819722550049e-01
1.450305289610701820e+00
-9.497711537710681329e-01
7.793351638665361181e-01
6.824634493286916292e-01
1.149917092898254500e+00
1.221667441641441643e-01
-5.456157862435808692e-01
1.448907167990286515e-01
-7.426648653095121455e-01
-1.841119895479999213e+00
-3.529142853331861396e+00
-2.758632929163686298e-01
-1.054077880686574042e+00
1.198821519285340684e-02
-6.880185001469946160e-01
2.181841816538766299e+00
-1.909461605450369248e+00
1.359755974840351822e+00
1.383158111859501993e+00
5.046975983257435683e-01
-1.569641346141215921e-01
-5.455359327896062982e-02
-5.222407323877833463e-01
1.755047612519109901e+00
1.786677798083918578e+00
-3.109898663686390563e+00
1.251916681137686504e+00
-2.459966772008393698e-01
-2.487487401233985373e+00
-1.843089463307006071e+00
-1.744545258668994681e+00
-2.022532073168312294e+00
-1.407996130870891927e+00
2.251360916585104857e-02
4.262851867851089604e-01
9.779636773006183947e-01
6.026608716114939535e-01
-1.204657742425600642e+00
2.738427548944744605e-01
1.038302978036753421e+00
-4.184500975095603259e+00
-4.149081701945528389e-02
-2.395724918132317027e-01
-1.281893431889967294e+00
1.953214974798596071e+00
-3.776789683876002335e-01
3.170237350668698717e+00
-4.501559819116761618e-01
2.772993352669447908e+00
-2.558937574612241694e-01
3.966200330406053798e+00
-3.639424478180189659e+00
-6.990305060014968541e-01
-1.869914655613745813e+00
-3.077778905422682953e+00
-2.368714684449329866e+00
-7.383326750560135210e-01
-6.798485807815581872e-01
-4.034086814092719409e-01
-2.359036650934430934e+00
-2.924262411967962105e+00
1.584486256318362152e+00
1.113545802686039865e+00
-9.829060157498656913e-01
2.036769258845389619e+00
-1.605370011631668259e+00
-1.291789224853739926e+00
-7.289203741986151064e-01
-1.281983877138316963e+00
9.084453204474196575e-02
1.591482696028129196e+00
-1.728418177368734598e+00
1.571216770994933620e+00
-1.198854472142780875e-01
-2.688168997206675376e-02
2.355280572799024252e+00
-1.757427177016789577e-01
-2.059883359357298716e+00
-1.932369629250160870e+00
2.993825364533167499e-01
-8.750358106638400635e-01
-1.368715004266215951e+00
7.134867529504491657e-01
3.744728858037844055e-01
1.644073722349777888e+00
1.695371877468856425e-01
-4.310448488367505937e-01
-2.752492847016245192e-01
1.536440194105741730e+00
-1.900219456548555064e+00
2.398170233354277869e-01
1.333877380403947654e+00
-4.271721603208577522e-01
-1.997149713325914178e+00
-8.799071362527668416e-01
-3.858013131056574063e-01
2.074291834597094208e+00
-1.850070999206077371e-01
2.690390161164676108e+00
2.007261458508779572e+00
-2.137313725391017272e+00
1.964141608563099162e+00
1.546237228039831768e+00
4.115344542311190956e+00
5.403152127074558608e-01
5.228540702040064936e+00
1.878871475804670066e+00
2.081807401820539916e+00
-1.072106560503356398e+00
1.068652348004686947e-01
-9.324531226914779536e-01
-4.062890225922152432e+00
-7.022019526748974894e-01
8.248493436541964874e-01
-1.179352505655274080e-01
-5.200544795392170183e-01
9.226679932831071129e-01
-3.190647994256173153e-02
-1.535141439326475954e+00
9.096419639596093898e-01
-8.805582433377322493e-01
9.133726049492577603e-01
4.145455250077593412e+00
2.002720955092032185e+00
2.237804106091983769e+00
3.074524736081708287e+00
1.320598482544627916e-01
8.593876250421204066e-01
-3.681502062633725370e+00
1.774783257683988813e+00
-2.092006302184830968e+00
4.745038582888218670e+00
7.550602299232598291e-01
-2.462643152345777020e-01
1.375176306014722183e+00
2.030429198843867411e+00
5.260904792820365605e-01
-1.107457725374487278e+00
4.252770535687027120e+00
-3.087909268623345582e-03
-1.811069794786259957e+00
2.732721339392313986e+00
-6.134528781681169995e-01
1.863158080988120080e+00
-3.769222700603361842e-01
-5.519614615032139016e-01
-6.100238515673478412e-01
6.052151332408440831e-01
1.223579166185900347e+00
3.421597556395521433e+00
1.913960216275341519e+00
2.158000931121082822e+00
2.107890234739805191e+00
3.207483556566534943e+00
6.875274991390935009e-01
-2.381939804458157450e+00
-2.702843071451762835e+00
7.500702984653818683e-01
1.584475429755297204e+00
2.070103826171570738e+00
6.078538264123928947e+00
1.252836945722438422e+00
2.988323148747468405e+00
5.949435231564569743e-02
-1.482664474752606321e+00
2.062778536641438620e+00
3.224608104899470695e-02
-2.780915348255354469e-01
-3.090929550122062386e-01
3.664831897939917926e+00
-1.884543481000252818e+00
-8.620016198211121194e-01
2.975309234710568629e-01
2.264023430219955113e+00
4.681750231310958799e-01
7.903917467235421768e-01
2.328855069777969522e+00
4.415376173210893818e+00
5.820941885713312169e-01
5.719464422846598506e-01
1.847828862056692056e+00
-5.652533435642615595e-02
-1.837620180570286754e+00
-3.414369268724930961e+00
-1.150210322821327846e+00
-3.866328364359781222e+00
1.337760300840709737e+00
4.978495800671336013e+00
1.305158744780043456e+00
1.649496257242922592e+00
2.045575756877060503e+00
4.046150045810101403e+00
2.671787802599871586e+00
2.711779057675028248e+00
2.727914505709125303e-01
-1.027649736343313469e+00
-5.245532540506372410e-01
1.472725346678817271e+00
2.147585727922210808e+00
6.840370127341228734e-01
5.185241518969162522e-01
2.527427229147026999e+00
2.507023098582769061e-01
6.408269553668999308e-01
1.239595166679394067e+00
3.751429427562419594e+00
2.324796215619719941e+00
3.118511480507970113e+00
3.043277354410698909e-01
2.746956360272770681e+00
-2.117692596855290432e+00
8.191141879823937710e-01
-3.665737336369475408e+00
-2.934331270618632193e+00
7.824893369022209999e-01
2.132521680014182852e+00
5.840723069839699910e+00
6.316174815136790244e-01
1.341019725541229057e+00
2.330212829722433820e+00
2.274281340884280578e+00
1.185587389443033324e+00
1.518279748109446325e+00
-2.435036959144648794e+00
-3.995492739708315089e-01
-7.406162663447549699e-01
2.216439883051161797e+00
-1.873193909821390113e-01
-7.089966088677931433e-01
-4.263629221870220420e-01
-9.820782618093539806e-01
9.867726418904095020e-02
2.700996469689171509e+00
2.095163514876030586e+00
2.371402523236478821e+00
-6.090765156840600714e-01
-9.240744902914310721e-01
-3.348018342279913018e+00
-1.118557048873524362e+00
-2.408002949964172412e+00
-2.348458634724635452e+00
-2.530520959395466285e+00
3.119289266066544108e+00
2.211866304553522511e-01
2.087703776791249410e+00
2.230944704705883463e+00
1.447291299556392463e+00
1.032441020203741955e+00
-2.452939140509316773e-01
8.055167061051958788e-01
1.532458574123556627e-01
-1.342038324089451562e+00
-4.902354204139666716e-01
-2.139992845984025338e-01
1.565177165615913024e+00
-9.192550788117719307e-01
1.028962803701269690e+00
4.315872628925492283e-01
-8.741635762561181244e-02
-1.953945479069655322e-01
-1.156614220078719946e+00
1.116286183650256225e+00
-2.845663027614524498e+00
3.784834248728677908e-01
-5.024762680633771961e-01
-6.426029252821224835e-01
-2.439422231016516562e+00
-4.099223154664739965e+00
-6.044921254528699883e+00
2.293552905364596717e-01
4.663175757028490409e+00
2.028053275111543652e+00
-1.550749582938967919e+00
8.296466151390813337e-01
2.324771028521364968e+00
2.702198652955701608e+00
2.012826846495705091e+00
1.817009439574595264e+00
2.485334269539261898e-01
-7.982819623290468014e-01
-1.732931449258660050e+00
1.666707169984602999e+00
2.134214022009886871e-02
-1.665270176371140831e-01
-1.731061524847056443e+00
8.677457169431078698e-01
9.112442899662767104e-01
1.506661112907461408e+00
1.798788037370310441e-02
-1.692624933409100807e+00
-2.501843435978684749e+00
6.223782431858041475e-01
-1.413099613080973649e+00
-1.125961940185569610e+00
-4.989269121522378114e+00
-1.018311091021762538e+00
-2.919272897720987192e+00
4.506190828119042702e-01
-2.112584714619085258e+00
1.856555516732574018e+00
3.456532701908685112e+00
-3.002813503777878590e-01
3.541548802648578631e-01
-2.351932100315615171e-01
-1.455463354514441532e+00
-6.461943459834714742e-01
-4.145634370580505212e+00
4.194026161703597322e-01
5.949275351060517858e-01
-8.537061834356561851e-01
8.851715113474178942e-02
9.520126788972000931e-01
-8.398126664129714758e-01
1.430654671868164529e+00
9.113835776855529203e-02
6.934234383944528624e-01
-2.602406882263898560e-02
9.351614543190400752e-02
-4.503167388234593282e+00
-1.389393961281222056e+00
-3.208892575596289376e+00
-1.493819975525376931e+00
-2.020528221215355913e+00
-2.963731817319585016e+00
2.991807061134005297e-01
3.169370731628404214e-01
-3.419992029839243664e+00
-1.588958667634476907e-01
-1.004435548037691417e+00
-9.571109185315038737e-01
-3.532587172230667316e-01
5.435386969554881764e-01
-2.588557932221412727e+00
-1.943882524497356323e+00
-2.066248228720572566e+00
1.033323495677751280e+00
-2.356477935422547354e-01
9.933116272443768269e-01
-1.714454859073715642e+00
-9.528273198504858543e-01
1.485397488244694086e+00
-8.351688753231674145e-01
7.930682866520999408e-01
3.968695140669240007e-02
-2.721579189099694873e-01
-2.182810020695169495e+00
-2.061221874987148261e+00
-3.076518581941187769e+00
-5.895260455966150559e+00
-1.414584198898791279e+00
-1.466103948026706849e+00
-5.589173538530000762e+00
-3.236527684940103455e+00
-5.784451007677680057e-01
1.004909269734493238e+00
-7.931585822388127482e-01
-3.277311316767302252e+00
-2.590255996285224516e-01
-2.434540790994840442e+00
8.472159262994467532e-01
-1.601825420612085438e+00
3.722093312114720387e-01
2.184428821450689728e+00
-3.843804416373889921e-01
1.355636410102029066e+00
1.414203565302626142e+00
-7.303040387874828454e-01
-1.452625216779181327e+00
2.663027227165281730e+00
-8.321315865924270305e-01
8.164950213031534343e-01
5.949009848082624785e-01
-1.874254007884126993e+00
1.597172857436701232e+00
-4.030328349288667233e+00
-2.114303724344659408e+00
-3.106817070436204808e+00
-1.704621291668777072e+00
-3.005651782597703825e+00
-8.005148513174052960e-01
-8.254159788406978393e-01
-3.492430736873093799e+00
-4.091761717616736682e+00
-2.520001178737095171e-01
-1.943868685278534958e+00
-1.122591761395948851e+00
9.878459209040683087e-01
-3.991880046084915978e+00
-2.007322069586930269e+00
-1.265612819368869824e+00
-9.860097793422049062e-01
-1.710731273540591624e-01
2.226744876823157429e-02
1.734669110113448598e+00
3.317417529539244403e-01
-9.565045747625577910e-01
-9.847640492368572307e-01
1.226141615278702135e+00
1.381267286055600785e+00
-2.206131661540706446e-01
-2.605896082849181283e+00
-7.045166693462763252e-01
-3.369137304256231147e+00
1.208400190787082940e+00
-1.930913615882895895e+00
-2.768874011868726726e+00
-3.261155166438872710e-01
-3.542377506182954328e+00
-1.151377670118022500e+00
-4.054409093847758383e-01
-4.091354796910804836e+00
-2.366817773089468613e+00
-1.774455109771714723e+00
-1.611905708317710406e+00
-3.638554735080635982e+00
-6.281778950535529260e-01
-1.680889626373077261e+00
-6.018638944286008874e-01
-2.221813294930699900e+00
9.115506760149736376e-01
1.849646091174067086e+00
-3.923574411593552802e-01
-4.385009132923026742e-01
1.399270225699323467e+00
-7.758208499389698254e-01
1.584632405803343191e+00
-3.276978904533644155e+00
-9.408074198952729450e-01
1.013636132600450601e+00
3.906887527761313983e+00
1.710992750170031163e-01
-1.086405610174287772e-01
-2.163843665207159983e+00
9.553294096585708273e-01
-2.983386881114821865e+00
-2.197512887904677026e+00
-5.037446320676996159e+00
-2.514559670335971386e+00
-7.136543985380257027e-01
-2.086057963659440961e+00
-4.137943553846760381e+00
-1.650643398281883778e+00
-3.807397665010595400e+00
-2.788065045184846102e+00
3.934333771997889362e-01
-1.265920735192895386e+00
-7.067977183515898876e-01
2.009861464417503463e+00
-1.734780689446029145e+00
1.782047255985041323e+00
-2.733790783571528937e+00
1.583606291209984085e-01
-7.836586123017890149e-01
-6.965144020567357597e-01
2.100872781126743860e-01
1.147141599671029244e+00
-1.199513891840277569e-01
5.153934699560418498e-01
-2.447404276200332573e-01
4.339951224513927563e+00
-8.080143187683322403e-02
1.801335666979765993e+00
5.774319805494430025e-01
-7.772218371649758373e-01
-1.472717052308032626e+00
-2.987739123634517657e+00
-2.316200289589975370e+00
-7.381052985388141252e-01
5.109184498899870253e-01
-1.968400680393569968e-01
3.779231701863423609e-01
2.379045011387191710e+00
-7.309760353724101822e-01
-6.493665919655675633e-01
-3.233396357476226446e-01
6.371645471533046168e-01
-5.537632117916392316e-01
1.778973089249655803e+00
1.752380880631156490e+00
1.649887161850918327e+00
1.697635639872518309e+00
-7.137602005738141742e-01
2.849964655603493213e+00
-4.791242689914008146e-01
2.446555721536328443e-01
1.529282667369384230e+00
9.197860615547777119e-01
-3.312530440450251135e+00
1.147322747861395209e+00
8.189477404863342302e-01
-2.670678843596947516e-01
1.455236521794732063e+00
-2.413537918224545886e-01
1.059455000665918245e+00
1.406562315084009418e+00
1.320067207931772790e+00
3.362261202195666182e-02
-3.691618421453539134e-01
-1.024718546527374929e+00
3.704502563150550709e-01
-7.968497916769289313e-01
1.500836028202204631e+00
2.523505059497626046e+00
-9.427745314108815222e-01
-7.756788367725507838e-01
9.307236914935016481e-01
-3.562379669802259397e+00
-1.444521259939238744e+00
-1.685007483537182660e+00
-6.036085156418481423e-01
-1.137276901727626521e+00
6.445827625172606545e+00
-2.200180800368185530e+00
4.729034283919007070e-02
7.162500709378432084e-01
1.603992385666112019e+00
-1.281927827943806442e+00
-2.719163899990400535e-01
1.143005361026885325e+00
-6.963854108837035373e-01
3.160961159315874847e-01
-4.452589311611092060e-01
-5.547878845938460923e-01
-3.782333820844639705e-02
-1.874654831236527430e+00
1.269512965961087536e+00
-1.773215274966316368e+00
2.324259085257891488e+00
-4.040925840470680486e-01
-3.258003588702522157e-01
-2.932767140889463442e-01
1.371110916725249318e+00
1.357765300070676862e+00
1.766372137509250928e+00
1.971191407264529571e+00
4.441769498249032444e-01
2.135038423936421736e+00
1.256818340617233520e+00
1.093919150258923834e+00
3.391608158836914022e-01
8.839023721276012546e-01
-2.097673746851417054e+00
2.993643334159102887e-01
7.855143425945289026e-01
-8.888094417778698020e-01
1.275705782204175520e+00
4.897564436407726984e-01
3.482483713887559729e-01
-1.255708305587711404e+00
8.347236044657038168e-01
-3.079045569082711875e+00
-4.206395380953584784e-01
1.525099218067210050e+00
2.440251461573496594e-01
-6.920371012765059726e-01
-4.416786694506064648e-01
-9.202993164936286163e-01
-9.836326533754030654e-01
2.246602824848713986e+00
-2.343899000151932199e+00
-8.640038323070123871e-01
1.076004193678375076e+00
-1.242233894965276253e+00
1.070910978133402836e+01
