-2.051900343610977076e-02
1.364001956063223484e-02
4.718442721631865844e-02
-5.462963590059320695e-02
7.009547625388998053e-03
6.596523426679953839e-02
6.839465783488869743e-02
1.838764652425042140e-02
-4.094664302116102217e-02
2.001075678961191685e-03
2.796885011739018434e-02
-1.351132689317798702e-02
3.288202420641728185e-02
7.213768797082200333e-03
1.337617645034379701e-02
2.958168878427766199e-02
-4.168820292195152787e-03
-3.975918411656080695e-04
5.220397355714471305e-02
4.900956697989181793e-02
-2.929015193580057630e-02
-1.839364207481525640e-02
6.270549836242532427e-02
1.477512099116650053e-02
5.562628714116395201e-02
-1.752864284492560397e-03
7.443616130813890397e-02
2.585353584700108773e-02
2.852996690046841893e-02
3.889308732011467762e-02
2.858404616719205718e-02
1.577272171094552117e-02
2.642645825417560754e-02
-1.428733050039720717e-02
2.988827270434066610e-02
3.514493018190825019e-02
1.994446371851926747e-02
3.012120812669047756e-02
3.808225132314271844e-02
4.725422555421804859e-03
1.378974579859099797e-02
3.305621876362665936e-03
1.003776461089211404e-02
-3.589930307202379017e-02
-1.881009298068197014e-02
4.032802470102086340e-02
4.221471940133269402e-02
2.006337875734643880e-02
5.440915487841089387e-02
3.373559411153173506e-03
3.898738015556190567e-02
5.168091828340443811e-02
4.159309851466724828e-02
3.083340393285047623e-02
-6.165815697350982352e-03
-9.225272756328117829e-03
4.329274556620673481e-02
1.013437347087531477e-02
5.896124529618032573e-03
1.963892663149124571e-02
5.419513708112228684e-02
5.628015576148091836e-02
2.889971556016953866e-02
1.226343992935396456e-02
2.798848323662983528e-02
3.906282072281334200e-02
5.118440735130974466e-03
-1.179005611105685136e-02
-7.675649134756796534e-03
5.164198861619927888e-02
-1.349006287127377593e-02
-2.094377203025028431e-02
5.466843844402968777e-02
3.100091668221123184e-02
8.359121325215093656e-02
2.488960239211969808e-02
3.534231464408434109e-02
9.211531943537969169e-02
1.790552750677224100e-03
7.089088724569858613e-02
2.348125695282820072e-02
3.240907969506474223e-02
5.615891784037815859e-02
1.103438855046911735e-02
1.040482071429060275e-03
1.590897031837058134e-02
-5.108065168306502590e-03
1.298043621787099873e-02
2.890663914917211696e-02
1.683624683144163692e-02
1.296104819313069999e-02
-2.960466955407368289e-02
9.909364019452032366e-04
4.592798367466571080e-02
4.789213077322691803e-02
4.049908190087091187e-02
2.802600667174421321e-03
-2.072520922866873810e-02
4.448894443950286715e-02
1.950983517007088067e-02
-4.940658022812317689e-03
1.190972446427834494e-02
5.392529927498565870e-03
3.892037521521378440e-02
8.057881635349618821e-02
6.084567109929478468e-02
3.051143460569018598e-02
3.641563305116816279e-02
3.289805754097499535e-02
8.080037132084599838e-02
5.163056995798966098e-02
6.361465115424200234e-02
3.959505830026373990e-02
3.027652440038081788e-02
-6.904563590962596586e-02
3.375031923453861160e-02
3.367938150980700346e-02
7.344327224964705171e-03
5.662225942940302993e-03
5.083358099486179338e-02
5.479352260568377819e-02
-1.593053271082956845e-04
4.216399391678840591e-02
1.515620547698902192e-02
-1.083357531540502135e-02
-7.416205017430156643e-02
-7.945127776015292742e-02
-4.768706744296419969e-02
-7.734175191691508577e-02
-7.949820743945135160e-02
-3.089291812724030348e-02
-5.617142461266141917e-03
2.331494579080024832e-02
-1.868549799995856270e-02
9.864878332582318124e-03
1.087594330662968942e-02
-2.076670002206145588e-02
5.699513206166888050e-03
3.085968562490977452e-02
6.054111390451529656e-02
3.065114773416625221e-02
1.183627561158746323e-02
1.432473606944240259e-02
2.266400391722089847e-02
3.861591581823517472e-03
-6.116245838790296263e-02
3.391556825951906606e-02
5.061935813980825843e-02
2.969294550048681442e-03
-7.291052188436934756e-02
-2.081860828424840493e-02
-6.828039862191817577e-02
-9.724241227380479857e-02
-1.237995863598136265e-01
-2.016003838288829841e-01
-1.891126374222459605e-01
-2.382146021574779726e-01
-2.030133623170360113e-01
-1.776429929138349795e-01
-1.542268474400533274e-01
-1.236958952631498077e-01
-2.057196720378262275e-02
-1.705486309109863902e-02
1.294203825863417430e-02
-8.902638613244215002e-03
2.074694111823961046e-02
5.051354228529927881e-02
1.338837000888470560e-02
1.253458461010088093e-02
2.936184416080129048e-02
1.191727333112742489e-02
3.533176533899656867e-05
5.859544178819810038e-03
2.146306571349718487e-02
-8.480582180549343235e-03
-4.688561338272425466e-02
5.052283416780439448e-03
-2.003241015885443357e-02
-4.646441374283578202e-02
-8.915244988682041738e-02
-6.213636435974080607e-02
-1.066798880929557963e-01
-9.366438012482165842e-02
-5.841763477354345452e-02
-3.766438485540853087e-02
-6.513199506817290985e-02
-8.961327733307482279e-02
-6.716614954694667683e-02
-1.509255691294203450e-01
-8.911703594899299252e-02
-1.154471683983532837e-01
-5.886315503283255646e-02
-4.722387822126496160e-02
4.774570461610329331e-02
3.424972866790435000e-02
3.509843603171657750e-02
3.750881101708640475e-02
3.213400613692603269e-02
2.965137753527476508e-02
2.832013706161944089e-02
-2.523132849345890646e-02
2.287303133700180693e-02
8.817071314413253355e-03
-5.291788832352826294e-02
-6.729889863443613840e-02
-6.181142945100440156e-02
-9.156615491330162560e-02
-3.102539353139532538e-02
3.127494906533007709e-03
9.584695279218503894e-02
1.443564924317932152e-01
1.804291421338802270e-01
2.241358072468227769e-01
1.672818685225533064e-01
5.544142891259713768e-02
-5.050603443331808801e-02
-1.001279643132104991e-01
-1.061013411897080982e-01
-1.166115641692420796e-01
-1.472991649823558458e-01
-5.543033284062608840e-02
2.031998677727489891e-02
-3.867059354644012022e-03
1.581783389192701131e-02
2.004896331018802408e-02
-2.497721750426293297e-02
1.043009801610682991e-02
3.187901268825634599e-02
-1.194651462545088562e-02
-6.304522211279417910e-04
-5.309375600860508776e-02
-9.581321492165933984e-02
-5.026445217259184473e-02
-9.398673882522812217e-02
-6.722280754507646561e-02
1.275249971315124166e-02
3.337865151375978695e-02
6.101129899017222746e-02
1.014949667334019562e-01
1.182866617180058366e-01
1.204819500042073194e-01
7.123730606269593202e-02
3.542233524810488310e-02
3.129672105442161630e-04
-3.739346418128172006e-02
-4.882731276960323302e-02
-1.100390478562102425e-01
-7.451779627327098643e-02
-6.365896525339263812e-02
-4.850697591415956827e-02
2.382927650941379927e-02
3.325120547957831352e-02
2.503835684624965488e-02
-5.448212801615095503e-03
1.672751899869831527e-02
-8.743046403257910548e-03
1.614501211866726377e-02
1.536596982804144633e-02
-7.280932317903082707e-02
-3.563663594601194917e-02
-2.581981692753582830e-02
-4.674134649618923859e-02
4.486181477218951531e-03
7.214905347308903094e-02
6.308087700694074706e-02
7.244143894496322955e-02
6.337058442214241194e-02
9.185759804796383987e-02
1.129710039441965685e-01
1.312854447270941916e-01
4.361841146745860237e-02
-3.883348923675899317e-02
-5.327685253892855410e-02
-1.014496207924365234e-01
-1.429705079924421529e-01
-1.332604277215057309e-01
-8.783681473345013313e-02
-4.281122460706350552e-02
-1.695574652366524035e-02
1.287939888287486026e-02
-2.357177827498005418e-02
-2.389600796388574241e-02
2.564961946780884919e-02
3.073837401559860807e-02
-3.221768868357632182e-02
4.404410895001056002e-03
-3.122254198626814303e-03
-3.521257564185837491e-02
-1.546142557189733591e-02
-1.514619558702377800e-02
6.291215421169293887e-02
1.225906821680633335e-01
8.349748328385202256e-02
1.404971757425840621e-02
-8.570715775178976148e-03
1.192443218048285999e-02
9.906243932820292530e-02
1.483497918574049057e-01
1.937624506562236892e-02
-1.636616334806741124e-02
-5.322049283397050322e-03
-7.913474402456043000e-02
-7.327503045337485643e-02
-1.207547858266853347e-01
-4.916014574233278089e-02
-7.730212655667125822e-03
3.373732871315009152e-02
9.560462892063168600e-03
7.324787104701389884e-02
1.744053092309753167e-02
1.411859500191386604e-02
5.537916473275951434e-02
4.958909081617319387e-02
9.275735072713307827e-03
-7.616774944159801324e-03
-4.514343162173547249e-04
3.237736315841222706e-02
5.103436821558290926e-02
1.235227266542830576e-01
1.287768401735912560e-01
-1.494466999421097640e-02
-8.007119165545503736e-02
-7.331095297641777864e-02
3.829148312688538530e-02
1.877110348205499324e-01
2.050652128515588479e-01
1.532367869950708450e-01
4.972721216266483280e-02
2.488793807552675333e-02
-1.560111416389748859e-02
-7.493029987900520772e-02
-8.813822445806246408e-02
-8.454265536323711527e-02
1.306102859997736176e-02
3.024030302570240164e-03
2.367497801099343810e-02
1.374131735374859928e-02
5.397779252342569528e-02
3.449857696095703224e-02
3.007751545734876214e-02
7.571926165180939416e-02
6.244101169852514163e-03
4.675244527243462012e-02
8.563499955511069683e-02
5.375161281449199885e-02
8.770622855036666610e-02
1.664983657895250102e-01
3.535181667829211116e-02
-1.322121490570443703e-01
-1.633693308812520506e-01
-5.076113324465336002e-02
6.702502233058085790e-02
2.360062045983996049e-01
2.515446530954411619e-01
1.554884818280680425e-01
1.315096686394716663e-01
7.591146368838135039e-02
-3.685017640684656870e-02
1.163681574540164146e-02
2.969144236019649521e-03
-2.656208062598159475e-02
1.552722797572577210e-02
9.617770769895604829e-05
7.181636831155747448e-03
2.461228427651397654e-02
6.643637302328647687e-02
3.154218185440643002e-02
-4.873134072023379421e-02
8.530089986411626413e-02
1.085059317081275287e-01
1.203049637478625644e-01
1.653083383233344417e-01
1.777661349841438976e-01
1.776837748847058529e-01
1.205301408731396517e-01
-5.361058969758101395e-02
-2.234898237889326733e-01
-2.420643150466400273e-01
-6.716903928922184075e-02
4.647273638036654442e-02
2.205372769864960003e-01
3.046776236429919460e-01
2.001129476124246798e-01
1.531276927626510631e-01
1.236553502651682179e-01
5.212716974026026379e-02
2.789724920770463024e-02
4.682150326820894506e-03
1.802489646169849399e-02
-1.737904245846819823e-02
3.490019468276647080e-02
8.263407242531092822e-02
-2.528441384990578675e-03
1.136767976133982831e-02
8.258884653292536404e-02
6.198910050524548271e-02
4.497149570905852739e-02
1.229258745313987627e-01
1.846304983039592507e-01
1.536595332504895051e-01
2.330020944080786194e-01
2.434734102952558765e-01
9.998695955065754759e-02
-3.535449738924605068e-02
-1.492056517702635698e-01
-1.924672402318963194e-01
-1.375904864784718573e-01
3.654454745410693622e-02
2.295537151490329719e-01
3.139345700905128989e-01
2.187273016661484826e-01
1.927585045978421618e-01
1.049586410214804477e-01
7.135672525240729924e-02
7.707357343947160433e-02
-7.000536622750766665e-03
3.693222597028159720e-02
2.062681188166071156e-02
6.884925569972535908e-02
1.596651760622082306e-02
-2.850380812593603791e-02
-2.612271724031125369e-02
2.924624058397210305e-02
-1.087814528804888908e-02
4.450893108268073189e-02
1.205133339484512345e-01
2.066704666062881279e-01
1.741333129602432861e-01
2.050968497187304063e-01
1.730272199611670725e-01
1.023225494866278756e-01
-8.261791212512933913e-02
-1.974283061155837071e-01
-3.014061774707794683e-01
-2.119847452029502421e-01
7.771081190786442716e-02
2.841302349875541866e-01
3.314251915560256223e-01
2.283316191794103056e-01
1.382578138771384524e-01
1.005757268884919231e-01
5.185179100794676255e-02
5.906539353833167166e-02
3.845365008663009549e-05
-1.202361101715153022e-02
1.821292302238337879e-02
-1.184592662271776592e-02
6.558195494789274826e-02
1.420131484633396259e-02
-2.587308913019551859e-04
8.774230705278897129e-05
-7.528566938027619546e-03
3.741947568021707776e-02
1.066646313060866241e-01
8.526152916496342049e-02
1.625711358810715546e-01
1.613228346309345251e-01
9.417911247168248012e-02
-1.336736589992989881e-02
-8.453585919919620606e-02
-2.828770247485978828e-01
-3.471651503395183913e-01
-1.281592518234888345e-01
1.264857223884755522e-01
2.269343925066791834e-01
2.116357528939530885e-01
1.197255183985072302e-01
8.612281908964367072e-02
6.723109708477349733e-02
2.148404997765970131e-02
2.273513832191687706e-02
-1.684466780985904117e-03
-1.177832155625162941e-02
4.380613376023344968e-02
-1.280587260291709065e-02
-6.049261345737819671e-03
-7.814010915307820562e-03
-2.154568489136389747e-03
4.287313415578280357e-02
-1.564648534967801388e-02
2.438871459046884627e-02
1.232989060441670587e-01
4.945606266503985854e-02
-1.370836716329795930e-02
-2.447749004327863954e-03
-2.564221258026093755e-02
-1.207030614203484370e-01
-2.095713178614603545e-01
-2.597436426434617807e-01
-2.690359448978147383e-01
-5.127036763241257095e-02
1.773264961642403714e-01
1.360387351389687471e-01
1.315253087542173072e-01
8.873623819677456392e-02
4.065726669486296324e-02
3.511013563687353373e-02
-3.191287218725213232e-02
-5.872700053624149708e-02
3.538652539762553433e-03
-7.753642174302546181e-03
-1.864707037164631612e-02
9.810159899135882655e-03
5.277215638154046651e-02
8.259671115860950721e-03
6.411082819844233539e-03
3.094469429877095418e-02
1.994395494818183845e-02
6.506646125749278309e-02
-1.364033877062627124e-02
-2.102041545684554466e-02
-8.638297621470038268e-02
-1.376146495523765667e-01
-1.821094750734700840e-01
-2.409467747147820416e-01
-2.697008783342520477e-01
-2.268092105803160841e-01
-1.141257433149174411e-01
9.311949977895017661e-02
1.451430611428724260e-01
9.546377284730464541e-02
5.418164838458039423e-02
1.101979947691671471e-02
-3.593329226405116844e-02
-1.899780605620419310e-02
-3.463033457292141043e-02
-2.652101847655795319e-02
-2.919304905193762997e-02
4.320455837811448818e-02
4.580969621198854869e-02
8.682973523652257053e-03
5.379293647387754784e-02
5.850465837413870024e-02
-1.956722016818953497e-03
5.663794893505472855e-02
7.256372093683462546e-03
6.723736959213040543e-02
2.990851812626321021e-02
-8.567315965191936444e-02
-1.361582686185737190e-01
-1.709690201779402174e-01
-2.921520013553674522e-01
-2.632882389210851604e-01
-2.588493847825716343e-01
-2.090854810400507302e-01
-6.981221251098886083e-02
8.925619475029186733e-02
3.691310788354746492e-02
-2.334798527750466327e-02
-6.451658156815885670e-02
-7.909197398869936835e-02
-3.064708278670148084e-02
-6.490730714041369198e-02
-9.975728394885059747e-02
-8.088782612614726919e-02
-5.139084379349688481e-02
6.907109446495460214e-02
-3.212923907352694623e-03
1.312832575042686099e-02
-1.990474453652387593e-02
-3.401756231945264781e-03
2.457355689813167307e-02
-2.523961455301737197e-02
2.984224314598850347e-02
1.539795832273829941e-02
-6.988818214835831877e-02
-8.132596221678205228e-02
-1.864365346904148235e-01
-2.338792102717181798e-01
-2.951243366940415336e-01
-2.861057912946100568e-01
-2.668091977749862398e-01
-1.835600133661403066e-01
-9.020731897444622671e-02
2.391992951096212974e-02
9.017423101011549924e-03
-1.431008691105836728e-02
-3.342037310018919349e-02
-7.522345462528189086e-02
-8.196413351129831770e-02
-7.032534685644332983e-02
-7.615616891184731618e-02
-9.393118273470807411e-02
1.373537423310697021e-03
7.808835209782790179e-03
7.164017793934639167e-02
5.074315837762868875e-02
1.387585727947150509e-02
-1.825611004805043416e-02
1.337429963219210344e-02
-1.043233375216215571e-02
1.435961527989733366e-02
-1.370084614279487578e-02
-4.776252254580932999e-02
-6.780953210591424141e-02
-1.864900594813043155e-01
-1.953904807252404008e-01
-2.491119248857354695e-01
-2.367463541162903307e-01
-1.485673451120565758e-01
-1.978079765494044906e-01
-1.424951534938948272e-01
-1.288955015587159025e-01
-1.310302162538595216e-01
-7.583513345046806464e-02
-1.074952583259608102e-01
-1.198520957743587911e-01
-1.092037602597453333e-01
-1.362811130928183179e-01
-4.698874691584006835e-02
-5.135077884627282235e-02
1.665040226971443646e-02
1.488784252627515375e-02
5.441595090302586701e-02
1.386698371105409174e-02
1.890561949397742572e-04
1.230121371408844470e-02
2.307344899475654784e-02
5.111152242287603925e-02
2.050964397091578281e-02
1.480955793742614809e-02
-6.190388235014506607e-02
-3.844354820430431752e-02
-1.301837568063777539e-01
-1.718680815315792587e-01
-1.485006385169927723e-01
-1.705679751716146220e-01
-1.585183323845620607e-01
-2.382021471488716957e-01
-2.279051540786493912e-01
-2.229947803500049175e-01
-2.008180261041823955e-01
-1.493787286891624655e-01
-1.718263195433305246e-01
-1.489657871362353725e-01
-1.626770844753382128e-01
-6.794897309951880571e-02
9.764058203760113755e-03
5.752378184405730968e-03
8.147992808243277162e-04
4.215781893997112839e-02
4.149159155010806455e-02
4.311653787675820415e-02
-2.413612410480177328e-02
2.533727251948544174e-02
-2.331512327697410868e-03
5.166874728257523502e-02
-6.081952801460109581e-02
1.071475129311074900e-02
2.515585083087504628e-02
8.797807775214992396e-03
1.159393391435812638e-02
-2.204881012244883434e-02
-3.197682036924475585e-02
-6.578763550501402768e-02
-1.710573567117145977e-01
-1.639921835080525858e-01
-2.918765284095420354e-01
-2.575175110851248284e-01
-2.102402878305666689e-01
-2.064680890001786562e-01
-1.541757871444695838e-01
-9.633729045244730782e-02
-4.577355193028877223e-02
-1.651683107647662282e-02
1.488107999372711293e-02
2.164114479526347071e-02
3.803777057664491784e-02
1.082782813769615944e-02
5.448502248129222930e-02
-2.589808040635496744e-02
2.954109724831827447e-02
1.339382890581798831e-02
2.651270105754958625e-02
3.581833063358154379e-02
4.831079091237495265e-02
7.296513483727043448e-02
4.990288781131617564e-03
4.170366234872788930e-02
5.377041838532733292e-02
1.101632896739325046e-01
8.586261318731348846e-02
6.930690200558997649e-02
2.469478802217518754e-02
-3.898910464158057004e-02
-6.346914367444050908e-02
-1.299098334239117691e-01
-1.147201907332395660e-01
-5.914399279146168031e-02
5.267687306192846142e-02
5.668696910221154850e-02
1.426223672028861800e-02
4.608912574809705814e-02
4.296883466848051836e-02
-4.083963729106169019e-03
1.383330061387492114e-02
3.035054441961863858e-02
-5.426875769681430844e-03
1.134898076538657513e-02
6.928374683509801180e-02
1.327100846048627318e-03
-1.061680644150693248e-03
5.445079874439964253e-03
-2.085384946210000565e-03
2.886417206464609252e-04
4.588396921407014023e-02
7.533230114814128131e-02
8.862852622831017546e-02
8.540232911228526347e-02
1.281906012259519390e-01
1.224742423688435361e-01
1.326909410482869645e-01
1.677840426874666613e-01
1.188280047493525254e-01
1.147575328474627482e-01
8.845755270497093758e-02
1.196130427834440485e-01
8.820764388307457404e-02
1.046095731909979371e-01
3.129414958823883292e-02
9.362500972917270348e-02
2.844101981605227578e-02
8.498722851870518791e-02
2.266303914011589052e-02
1.280644960482213435e-02
1.609064317045226511e-02
3.604045120678180114e-02
-1.121845177492495488e-02
-2.610135556057436093e-02
8.067252223708790875e-04
-2.205527712975276569e-02
1.919967748512504263e-02
1.179245582395190978e-01
1.091970446874520120e-02
3.990331537082600355e-02
3.235485724017340275e-02
1.868212797807230346e-02
2.310303533079782062e-02
3.538904360263127324e-02
6.252632669359342588e-02
4.387604992679689647e-02
5.604673416414927833e-02
1.315926397333507317e-02
6.025391827010516399e-02
3.183391133714778831e-02
3.406343415039344430e-02
5.001333166850128326e-02
3.732001390383541881e-03
-7.238007395283904861e-03
5.061294248415258018e-02
-3.999633969718954275e-03
-1.121232611850576412e-02
-1.895553027486178823e-03
5.571185377300495734e-02
8.639844873320186303e-02
3.917627341021064080e-02
6.408303644908455721e-02
6.659354731687140705e-02
2.740494873954709906e-02
2.224256292262792502e-03
8.797356807321054725e-03
3.983468601958734673e-02
3.582013799555198302e-02
-4.785243304006738668e-02
1.950397482158813117e-02
2.087383514590934047e-02
4.532528228637161538e-02
3.825424936053107433e-02
4.257901484739705367e-02
5.399859558102067074e-03
4.802134296797932328e-02
1.477645762798330750e-02
9.196600999368503837e-02
-2.520095610053868507e-03
-2.432108000697639355e-02
1.640730759709101150e-02
2.414353342268251573e-02
2.647065150008588372e-02
3.262320115277751731e-02
2.020265660561770468e-02
1.832165479528863328e-02
1.056061620492156766e-02
3.350228935176505912e-02
4.066557524640495441e-02
2.892762466743790672e-01
