-3.986219717154723674e-01
-1.121575009869705576e-02
5.791776615762097569e-01
-5.736174250709760170e-01
1.160211868050484707e-01
5.181858070298036578e-01
3.246852243463996812e-01
3.456479710588132304e-01
-7.544563670589489179e-01
-2.243731257729179029e-01
1.801266196790683727e-02
-2.643975551648250488e-01
1.558677681393405012e-01
-3.918772079786649737e-02
2.541466556511611241e-01
1.651356549658699047e-01
-9.315423437706772669e-02
-3.086076594966121189e-01
6.190918145740568201e-01
7.926433487674418021e-01
-7.036513017855074992e-01
1.566968647239454782e-01
4.006914974782741501e-01
2.630908156310757806e-01
-1.798028385317950242e-02
2.532313519754233466e-01
7.848672660014984759e-01
2.274882035469560915e-01
-1.972636902379830970e-01
2.030712989467599316e-01
7.799430105908373989e-02
-3.779083664369343731e-01
2.041626369996665524e-01
-3.145867201654368728e-01
3.208180991441542118e-01
4.347867741606734615e-01
1.293014084226508931e-01
8.539429731825144698e-02
1.585633405872801660e-01
7.103415236635868268e-02
-7.368915713890379637e-02
1.565834520940533325e-01
2.745202025070806462e-01
-5.107194332887862176e-01
-2.022076576489172939e-01
1.103136310623563515e-01
3.571669806722820861e-01
-2.786478663812387846e-01
7.499072760601235288e-01
-1.268503474240053885e-01
3.278405965992376436e-01
1.212077726445898174e-01
5.531658140022157610e-01
1.781800173361521300e-01
-1.526378871881371169e-01
-1.409711865000202180e-01
1.733147814631690875e-01
-1.668484358806546219e-01
1.794146707712571676e-01
-1.152301202764178384e-01
5.179980702837969631e-01
7.073926676503803357e-01
2.536505898161008077e-02
-2.040996255956679939e-01
-8.746465904808783942e-02
3.922672064453102125e-01
-2.609119949881374412e-01
-3.906341247486590507e-01
-6.398739416911025657e-02
6.089148947144380486e-01
-4.931699977149865688e-02
-6.250732825538974913e-01
4.551156682878428894e-01
1.715971618725722347e-01
8.606034002521980586e-01
1.401225576164277439e-02
4.866854651711904345e-01
9.807397885464963494e-01
-4.488282695229117020e-02
8.295088301672145503e-01
5.228412772789353680e-01
5.887442816820976851e-03
7.431716264912127112e-01
-3.487351441259101681e-01
-1.083701837990955902e-02
2.963841197942073367e-04
-4.829010091168428609e-01
4.194557041076583670e-01
4.538321960724378545e-02
1.662030743136745370e-01
1.923854794509241573e-02
-5.053095842830813700e-01
-9.574382669535710932e-02
8.524000758404359779e-01
3.078081235992408682e-01
4.280385112966672012e-01
8.963056136016904485e-02
-3.391589896153453521e-01
8.331308061566681245e-01
1.525884329814782558e-01
7.923064121057837861e-02
-4.946454805741654637e-01
-4.605319220982753148e-01
-3.983329669487278846e-02
4.908334015046129650e-01
6.405649794580597911e-02
7.159656198164789098e-02
7.433383161970579245e-01
2.180616976631248316e-01
1.984397994777333252e-01
5.363383164256089186e-01
1.182270557541846984e-01
2.890738574546442563e-01
4.590688609886352523e-01
-1.135248769100428268e+00
7.202451195105072923e-01
3.201833878595479743e-01
-8.500726117294203632e-02
3.375647153750369750e-02
2.598002051589310968e-01
6.932106217797394665e-01
-2.812017919740369964e-01
4.294612049944988574e-01
8.408508919551258010e-02
2.100193185445955457e-01
-3.222976888829923725e-01
-3.681629909278089641e-01
5.301441653047554714e-02
-5.378626363428480328e-01
-6.535861282459711763e-01
-2.087404591373397678e-01
3.279090328662788156e-01
8.261413786444818941e-01
-5.710995745050848615e-01
-1.712024482627548874e-02
-1.229334768486663454e-01
-1.604631155090023298e-01
-6.657806042870073604e-01
2.580503814103273230e-01
7.234161184620366836e-01
1.127860496648070282e-01
-3.576656206051072595e-01
2.344296064832084303e-01
-7.853658941922156411e-02
-3.780153595992256088e-01
-9.374891665675485486e-01
-2.219909259766945919e-02
6.498568308923178272e-01
2.700280722410874357e-01
-8.761604829876633582e-01
-1.151708500944220587e-01
1.770037438614013581e-01
5.316114219640657307e-02
1.178918974323409086e-01
-6.783906283790237524e-01
-1.405359436613920487e-01
-1.034971149004519475e+00
-3.630227852811840350e-01
-4.282878770151760106e-01
-7.104355610073496141e-01
-6.303308792751612932e-01
5.188892492653068844e-01
2.700953959582675368e-01
8.133290165023507878e-01
-4.529967170318722758e-01
-1.800559010814622718e-01
4.656828882719716844e-01
2.463672102397429856e-02
3.275646943662845201e-02
3.069934512388645675e-01
1.072164416448320168e-01
-6.192938871009050217e-02
-8.776315891559693938e-03
2.608418058361041680e-01
-2.503900084851316543e-01
-5.634554648905463203e-01
1.474708963113648408e-01
-2.234481743652586352e-02
1.677345268948444434e-01
3.422355863376091434e-01
-1.968919652292089040e-01
-3.139426964727455305e-01
-3.112325804790140871e-01
-2.690018673639314739e-02
8.185955053930503433e-02
1.334732432752716302e-01
-3.792966383691987464e-01
4.361724511893032563e-01
-8.928053396773463213e-01
-2.993430521838408298e-01
-7.960012088807625341e-01
-5.139121942933388976e-01
-1.829154655140122210e-01
2.473943026327597439e-01
-1.882204983098856865e-01
3.348581801221457710e-02
3.184782575015027151e-01
1.210424145222664671e-01
3.422468383678926029e-01
3.321399818188977560e-01
-3.195774235738479407e-01
1.922418529314071922e-01
7.254362608565315118e-02
-4.906109479487070768e-01
-1.734309464016316193e-01
3.245002643954797983e-01
-1.424187836494196224e-01
2.445580007907445230e-01
1.177942493859116535e-01
9.586234868825156408e-01
1.109563094174430997e+00
5.900206326988596262e-01
1.004802581465922051e+00
7.548280372966622576e-01
1.531784300145151434e-01
-1.454209845764916631e-01
-1.730031954774520486e-01
1.327981488611586491e-01
-3.302703446200104254e-01
-8.866373677892844807e-01
-1.064508739483700644e-01
2.820434735746800148e-01
-5.874357729466801736e-02
3.109372315453773003e-02
-1.225587630241612852e-01
-8.202093310590721220e-01
-2.216791937952760916e-01
3.002255670118728625e-01
-7.393757645052469185e-02
-2.661037196011942219e-01
-1.847997652403595981e-01
-3.380811853203686268e-01
2.692858490667526805e-01
-3.961704080944263295e-01
-6.116212748433654811e-01
4.008181233686293754e-01
-2.302320579246328047e-01
-3.478659614973058090e-01
-4.803679078947276082e-02
1.730175393500017408e-02
2.272423342371618360e-02
-3.885638840867266519e-01
3.434574049448052002e-01
5.282367817925331943e-01
5.682589262446620104e-01
1.680684886533476141e-01
-2.072218724818252478e-01
-2.616010238210554339e-01
-1.105349714513993165e-01
-8.372975845549517349e-01
3.498606011765799662e-01
-3.300640964685044310e-01
4.483052225559847059e-01
-8.331062168997727113e-01
-9.124885341728124211e-02
-2.452137096545032868e-01
6.027091759722248004e-02
9.508202795519485329e-02
-3.419061375616648246e-01
-2.584660715258235708e-01
6.403128216033927844e-02
-5.546372197852103003e-01
2.348679453252356386e-01
5.245105679598531523e-02
-1.089810902075808718e-01
3.678543148239975524e-01
6.236490983474559657e-01
4.662868556767740258e-01
5.612309293019738243e-01
1.196742045006768285e+00
3.175079744716993169e-01
-4.677671029124492730e-01
-1.513586120312902517e-01
-4.075929967938085596e-01
-8.784322713509358227e-01
-6.439691161781810891e-01
-4.378703972197272032e-01
-5.377252322712321453e-01
-5.121625505461655514e-01
4.846926188709733269e-02
-2.093871785316960832e-01
-8.545211636301043301e-01
1.088404335398994033e-01
5.227472373322883392e-01
-3.551686106782511176e-01
5.715898446304301661e-02
4.009901090145336355e-01
-4.975758823544851883e-01
-3.324995559493742481e-01
-1.990755720009936836e-01
5.938140996003581779e-02
1.871590229173856201e-01
3.707287332185005835e-01
-1.651133001867925720e-02
1.199629843211621194e-01
-1.296461777571497609e-02
2.686205298408421704e-01
5.233319009196882865e-01
-5.367537242947919562e-01
-1.707652531655858286e-01
2.077537296130985700e-01
-2.478612342795213086e-01
-1.326491063014500760e-01
-5.665552845006864846e-01
1.981825979343220523e-01
-2.543446596246553074e-02
6.804808901485123185e-01
-2.714405291585222368e-01
3.009664288334075455e-02
4.200108973835888215e-01
-2.619649697400114885e-01
2.176335230081556937e-01
2.316299978979566021e-01
3.748401363855466406e-01
-4.885004026188295989e-01
-1.800040391307071441e-01
4.254061293564678214e-01
3.114346125402774335e-01
4.301188189044994337e-01
6.770207601054907265e-01
9.898819267821253043e-02
1.736791119987334264e-01
-4.175317581835357172e-01
-3.077992408644402919e-03
1.145675427997590257e+00
4.906381186599764743e-01
1.131603999075453171e+00
-5.582802647688142605e-02
6.474061661047623151e-01
-6.363952075782054740e-02
1.595206950724824546e-01
-7.531894123359587079e-01
-4.671413225075868314e-01
6.144478135542788544e-02
8.089027971847098653e-02
-3.942035516505368320e-01
-2.652266665159768722e-01
-2.701351932061516956e-02
2.056670266239258582e-01
-4.295984742663645078e-02
3.164913719033642381e-01
-4.930633322388743023e-02
6.081520330665778074e-02
7.099091801390789991e-01
7.289898255837166940e-02
-3.332309292433777853e-02
1.138007372954271457e+00
5.575610216337085756e-01
8.158617034113334332e-02
-8.057293989146344648e-01
2.713759117118034192e-01
4.926188285827240443e-01
9.662265402255588720e-01
5.789328602327068474e-01
1.277707249692330016e-01
3.099407211998975176e-01
4.022598415217650825e-01
-5.989857747877199712e-01
3.548122165645911097e-01
1.453685741415849664e-01
1.335551549755445155e-01
-1.377539854598892055e-01
1.968244818910840077e-01
-3.020447756869353295e-01
2.607080066380200734e-01
5.558269784305355232e-01
-5.504347798099672451e-01
-6.450162078787051723e-01
3.922883627025613440e-01
4.286769180418432690e-01
6.322829585844960132e-01
6.095591213602761238e-01
4.014438748937552148e-01
1.076692628528368667e+00
2.934234481078585866e-01
-3.287557917780879052e-02
-1.540499809726220137e+00
-1.319686309949864356e+00
-3.197099557612420595e-01
-1.667890776961648558e-01
9.316512954808221503e-01
1.384717941896810967e+00
3.908787186836870098e-01
1.740995996548446445e-01
6.606896279754244095e-01
-7.336477306799638054e-02
2.789072496887038399e-01
-2.585653595321583675e-01
4.374091149734860018e-02
-2.819165285545766064e-01
2.087943366586841321e-01
5.595447769168012675e-01
-3.943273318077217815e-01
1.365347101490603232e-01
9.794017948437133692e-01
4.810354492748340482e-01
3.160183217976104131e-01
4.499220537124356545e-01
8.087401997436824974e-01
4.166139650313152587e-01
8.914645935583179748e-01
6.562720214221618997e-01
3.689863509792400825e-02
5.570570457078775906e-02
-1.417556150223019396e-01
-3.444924907765533617e-01
-7.957656218308774010e-01
-1.342515511463065851e-02
6.671280269527859463e-01
6.107883112346079724e-01
8.621009381798387938e-01
8.209814753512434393e-01
3.554591656806446731e-01
8.049460916261969023e-01
7.582953365474001117e-01
1.802152767448194637e-01
1.351682336443058852e-01
-2.297486027942287068e-01
5.080358417903764190e-01
-4.863839016632585666e-01
-1.971495513485925499e-01
-1.081642616641500104e-01
3.758799578740524283e-01
-1.876749404793557063e-01
5.233731941204621263e-01
5.405694174332830171e-01
9.027648458776842411e-01
2.552340453630138062e-01
5.723010056590596140e-01
2.633442263014016960e-01
6.967336582587553562e-02
-7.140027205281169742e-01
-4.644551734697616174e-01
-1.041338872816452321e+00
-8.381320388426116708e-01
5.929917470038782445e-01
1.002540924719648618e+00
1.318912636352865375e+00
5.682302613891841991e-01
4.206018728500358073e-01
3.905104148389597629e-01
3.323628022695980233e-01
5.736554632958794642e-01
-1.376075292243927328e-01
-5.098786228733552806e-01
6.365354339991861066e-01
-2.078381273628852888e-01
9.614681387509567134e-01
-1.587052158150646375e-01
-1.870613282183140325e-01
2.573804443738770265e-01
-6.960929976325643809e-01
1.404787403821774472e-01
4.517159312538313043e-01
-1.390314792416258716e-01
8.074920437737277412e-01
4.329650695455762865e-01
4.118738341039267503e-01
-9.318816791584025316e-02
2.942440493596010231e-02
-1.007189030373198513e+00
-1.589914706855637183e+00
-5.494086696473986509e-01
4.679553335931125879e-01
1.369804389866539907e-01
7.762516093167962650e-01
-2.918655313803626417e-01
3.580678060750971253e-02
5.608631612472576577e-01
4.729078181405516612e-01
1.251433127731453321e-01
1.930246228922148088e-01
-1.597428885683659650e-01
6.089411035113467818e-01
-2.865205229393607556e-01
-2.538375046150710412e-01
-2.184998172037750097e-01
8.913777431740636803e-02
1.626938773567117580e-01
-2.431427016884959991e-01
7.477073870418364521e-02
1.182949564104835760e+00
1.405756823551724544e-01
-5.564403628245988553e-01
-3.676612961886030484e-01
1.519615696976067964e-01
-6.875298531225563226e-01
-6.708924950100263462e-01
-7.910879498767409146e-01
-1.485002358632284025e+00
-5.840858489293934142e-01
5.305808606798837479e-01
2.937192656945916691e-01
2.272700311430280173e-01
2.242115098135022966e-01
6.634658364612588954e-02
5.126645936953211358e-01
6.859222003762495412e-03
-3.287201302371853817e-01
-2.548409100376602954e-01
-4.305706493304110039e-01
-5.444204631055576948e-01
-4.109514803958927431e-01
7.566928966968287928e-02
1.498915566117074716e-01
-2.009386192284248474e-01
2.737960826842642525e-01
-1.299961840395644774e-01
1.717289355230920689e-01
-3.070975733083427528e-01
1.065516464214249191e-02
-6.060140037960487502e-01
-3.248593383860072237e-01
-6.342671042552983085e-01
-7.843403078072328505e-01
-9.200816586933582286e-01
1.736220179049389328e-02
-4.072197996476430437e-01
3.275262897156052122e-01
3.389122178244522443e-01
1.338352417207687162e-01
3.858873561667591767e-01
-2.725843973659794819e-02
-4.812783292038385619e-01
3.153311921559997510e-01
-2.899308299646982112e-01
-2.837148387894816715e-01
-1.298586354273206789e-01
4.933883957141197985e-01
2.204580435583706755e-01
-1.184435955680154806e-01
-7.478864502982403295e-02
5.213630230261191434e-01
-4.827739665731419633e-02
5.988206856501535613e-01
1.511464871792096987e-01
2.946477132258205622e-01
4.485708729816651474e-01
-6.031809050428073027e-01
-9.995614603269229459e-01
-2.485287166686489246e-01
-1.016163413034491647e+00
-3.811771322829151654e-01
-8.925441060783185776e-01
-1.027599996445210939e+00
-3.767382590434585898e-01
4.430205826355915200e-02
-8.565317013232739418e-01
-5.465728263104375761e-01
-9.849217570787182074e-01
-5.054135702348139247e-01
2.243239332448876966e-01
7.494080076157594306e-02
-3.927551284035725176e-01
-5.976580024816802172e-01
-5.164889573859822169e-01
3.745113463692680278e-01
-1.505739682596183293e-01
1.347952117900091951e-01
-4.371808827847471490e-01
-1.592921858371844912e-01
2.766608677922633985e-01
-2.636145218624141306e-01
2.775082898992731195e-01
1.483598954105749823e-01
-2.881904783736781162e-01
-3.835988693326501386e-01
-8.338806103256884983e-01
-1.217366406033398629e+00
-8.646637823974882009e-01
-1.057716609443574152e+00
-8.684951859515395167e-01
-9.795533389952718606e-01
-6.066160262827219318e-01
1.971080224522987756e-01
5.903579721156928528e-01
6.862243960129933429e-01
-1.698921118312576028e-01
-3.427118418265328037e-01
-2.092808279967130480e-01
1.836787645195730664e-02
-4.307343670941640723e-01
-7.314802040001960881e-01
1.526700519532163403e-01
-1.474402265679697621e-01
7.268756094852338867e-01
5.490088522279278349e-01
-1.442580548554746322e-01
-6.552740263093240758e-01
-1.714587842096975956e-01
-2.456466840166807719e-01
-1.453212094881506655e-01
-4.084043312939871773e-01
-7.155309925653696723e-01
3.213635057928811989e-01
-8.617707206660891739e-01
-7.690867114338878485e-01
-1.039197082901163860e+00
-8.684706977407185002e-01
-1.306984124585952867e-01
-1.214938398674709763e+00
-5.770701024541715629e-01
-9.003239418971207275e-01
-1.000595218983881152e+00
-4.899413825074883655e-01
-3.259481520902020590e-01
-1.739546018726013110e-01
-4.032362720630773278e-01
-1.524982125418444134e+00
-3.568401047103025858e-01
-5.292755071212261742e-01
-2.287508409581700264e-01
5.521590232937124976e-02
5.431537043069533111e-01
2.096826646114875736e-01
-2.397292972346613815e-01
-1.880369778964365857e-01
3.722521475098451993e-01
8.562205897378882824e-01
3.680927666528214792e-01
4.334371530772434533e-01
-6.389994934825239392e-01
6.487381415414551766e-02
-5.743021707582548485e-01
-4.750340567963837746e-01
-1.869244657521240971e-01
-8.303567836062279994e-01
2.462174641751594673e-01
-7.234243708280314600e-01
-8.206264633510149675e-01
-4.188269153046576543e-01
-7.080435031200044138e-01
1.206934379462564020e-03
-7.764308000146141753e-01
-9.703321486236694549e-01
-9.951578539864277539e-01
-2.811216528943639714e-01
3.829396345365347343e-01
1.776734364390209486e-01
-2.792199782414226394e-01
-5.879562673157745327e-03
2.353737070288079991e-01
1.031659340383290074e-01
-1.830605398931483274e-01
1.535697666001680228e-01
-4.783727399728260332e-02
5.823749625519015760e-01
-4.750808062215350902e-01
2.334997945812912201e-01
-9.172435476232619622e-02
2.345078418713868185e-01
2.508606264460411794e-01
2.141161750440893630e-01
-3.877187110462738118e-01
-2.558428345340177205e-03
-7.777924317591156100e-01
-3.307889643720208217e-01
-9.067076038042535258e-01
-5.905364356415622185e-01
-8.985285948438127557e-01
-1.058873234245786499e+00
-7.139790228917047843e-01
-5.687755061567549841e-01
-5.874286667042523113e-01
-8.749840825541326250e-01
2.825738296791248105e-01
-1.852282214130597793e-01
-2.065182097385315219e-02
3.897540381707047530e-01
3.215415586059776620e-01
-1.049168851877313458e-01
3.731494924112722100e-01
5.138489860946474086e-02
1.790858707453375498e-01
-2.431327366393532807e-01
-2.739813848404581420e-01
3.774956979363098819e-01
-8.662953226618440306e-02
2.739121922524114239e-01
-1.547095441209909647e-02
6.448961530841388345e-01
3.724931824079357190e-01
2.978166474076853198e-01
2.085085951964907036e-01
-4.610146954131062458e-01
-4.865414799081568820e-01
-4.714442929479548128e-01
-8.911038909470915259e-01
-3.074835947727879715e-01
4.558504181651026332e-01
1.656313849005802696e-01
-1.548567895489721402e-01
2.157196607589750847e-02
-2.867632105739160164e-01
-5.382982148206756357e-01
-1.933767685830580126e-03
-1.219188017271853781e-02
-6.840659182674550809e-02
1.626310366118357553e-01
2.897620222271920509e-01
-5.342705487989358737e-01
-2.097764085135861711e-01
-2.774253760914176525e-01
-8.472827586700772129e-02
6.889982779118398494e-03
6.302985595434522637e-01
4.648590567198528922e-01
1.618011897210170080e-01
5.060070349139049461e-02
2.735950573242595940e-01
-2.542989547277319518e-01
3.958912480422970281e-01
6.004350365452388871e-01
7.234266449953516117e-04
3.085690862615312335e-01
9.896599621311556738e-02
4.242573211571247227e-01
-4.098521894814401989e-01
2.214784379173952711e-01
-2.337770440887039225e-01
4.426730759107105340e-01
1.165053769742104700e-01
4.613555849666906017e-01
-3.099055023971961087e-01
5.799438365177515819e-02
3.413022819205562275e-01
4.199175207619167821e-02
-4.002870254801329519e-01
-4.488163313102657148e-01
-3.896422044255701267e-01
8.238069277989480688e-02
-4.067404597232633923e-01
1.101892760190763987e+00
9.514713497402521591e-02
3.323206885886681450e-01
-5.232603288183719503e-02
1.595440523169313896e-01
-1.946857772117596974e-01
-2.249995764706528567e-01
2.581673655612639617e-01
1.969576647321349960e-01
2.044703643668812076e-01
-2.994207145703616235e-01
-1.775016842604673281e-02
4.065423976839861453e-01
2.237739635970652785e-01
6.422779944540099595e-02
-6.595297969073035116e-01
-1.987156158427798025e-01
5.628595843144665878e-01
-2.107007188133298292e-01
-7.855172974533838337e-01
-6.192106881002204521e-02
4.215292688758762174e-01
2.839414430918212884e-01
4.580308535913812373e-01
7.384103502688704745e-01
1.587343208668844652e-01
5.183971276856830235e-01
-5.154123969239920305e-02
-1.479657594280807398e-01
1.847998175296420575e-01
5.861514661073249227e-02
-2.805659256906127830e-01
4.147242372873615607e-02
1.875565071042198662e-01
5.421898717197218831e-01
1.570436274047024294e-01
2.937612999910099165e-01
-6.860685315449015220e-02
2.451583236052453860e-02
1.191421634843319727e-01
4.558364990974096975e-01
1.780111693727382538e-01
-3.164491096772853451e-01
-2.232851790277880499e-01
-8.739827925596520275e-02
-1.537880020414902904e-01
-8.703348803595006844e-02
3.382890814963907533e-01
2.854739942811662656e-01
-6.870786889299713984e-02
-3.902511409197727266e-02
2.174845647766856238e-01
3.209357351775818934e+00
