-1.949679094912369015e+00
-3.311060102114128934e-01
3.452073177233763723e-01
-1.747231317015697671e+00
1.109226848801739829e+00
2.150981112126503447e+00
2.826582616842267193e+00
2.343290184496069628e+00
5.202164823904888991e-01
-1.391743476406558599e+00
1.108374096388905272e+00
7.302676178732997458e-02
9.258631629190754442e-01
1.689571777557116183e+00
8.199604502016305529e-01
1.258476401005896417e+00
-1.018781788959471912e+00
1.067004673511089269e-01
9.007964085506185992e-01
4.336209423101015092e-01
9.469066300431394634e-01
3.928502224216764982e-01
2.116470589787828871e+00
1.350767558018138637e+00
1.485122333817080031e+00
7.919981712295512954e-01
5.611054986471104566e-01
1.561473839607995906e+00
-3.932702366422757279e-01
1.324633751253907699e+00
2.639390610069117793e-01
-5.766796283797610556e-01
-1.096770564870490627e+00
9.845571522281122423e-01
-1.027335231731824505e+00
1.338934706128926067e+00
-1.216561211591477232e+00
-3.502496883899427704e+00
-8.584136476270860516e-01
3.678925118408337552e-02
7.511266816519537315e-01
-3.041043364096930879e-01
-3.927020198864414335e-01
-6.260530947233418075e-01
8.777806487897514831e-01
-4.821383916672467712e-02
2.208770609343653657e+00
2.055726763738112695e-01
1.078029653438708158e+00
2.721927225804316119e+00
3.551351278220271634e-01
1.927131535366481740e+00
1.989690351329517215e+00
1.329491104346552044e+00
1.081086518104375838e+00
-8.908124578590394249e-02
1.025060076676443721e+00
-1.510289176627627628e+00
6.371864695237337006e-01
-1.046231820858603973e-01
-8.519967379841226762e-01
2.117642931357526237e+00
-1.117141394865815096e+00
-1.035892417151847322e+00
-7.149486258167203623e-02
4.509763233099314816e-01
-2.368305929368323404e-01
-4.157846662093269141e-01
-5.303173267562476950e-02
3.934906168442714458e-01
3.543339333790352513e-02
-3.139362755392973270e+00
2.915416508121646988e+00
1.763198467679438108e+00
1.155269506170394811e+00
-6.806829357337912390e-01
7.159587245938707767e-01
1.416132003870559597e+00
1.002278298376384491e+00
2.365084001697107752e+00
1.286913847268309485e+00
-1.037623651842746852e+00
-6.145309618717386124e-01
-1.908952739637811202e+00
-9.045878133791972198e-02
-8.903173056040810662e-01
-3.748230810332929153e+00
-8.567125751629958152e-01
-7.209521697325874667e-01
-1.782817195560279622e+00
6.405426414724615936e-02
-1.599503207401646421e+00
6.407690923706642616e-01
3.110467193122830487e+00
2.618539987764194166e+00
-1.746130834507659380e+00
-1.488715820961036052e+00
3.221746694693644608e-01
2.916474809894535336e-01
1.590199948522097229e+00
-1.437578640955232689e+00
5.489847184577922867e-01
-1.579756634546218175e+00
5.147650425790880613e-01
7.282301276234022513e-02
4.955721132124940587e-01
-1.191792374649490061e+00
1.428391690526842117e+00
1.174799333834393167e+00
-3.056064128808718916e+00
1.258648910706466673e+00
-1.271095609170882490e+00
1.366745660067028911e+00
-1.894209518736962083e+00
-1.718868358340488678e+00
1.555662919135371469e+00
1.229396087494566192e+00
-1.738817365980191099e+00
9.162297258975551362e-01
1.293615649918661736e+00
1.087928244265873978e+00
-5.081292350504512667e-01
1.444144577791920847e+00
-1.731043401214741317e-01
-5.678189892972633768e-01
-2.487457446352733470e+00
-2.959726958737000313e+00
-2.438181076583494367e+00
1.136301053300024233e-01
4.596738213378179783e-01
1.034082897634785780e+00
2.282675287334781977e+00
2.568530930452101124e+00
-1.717195728920827058e+00
9.840671896661712381e-01
-1.513025755517319049e-01
-5.021530803278180244e-01
9.938757567441259821e-01
-7.650288227800002838e-01
9.611938677451440372e-01
1.499910005530217028e+00
2.087468532099026941e+00
-1.724319106659507161e+00
6.929840195404712855e-01
1.029984311308950851e+00
-2.027987380245527049e+00
5.966723827142595971e-01
-1.195672417573134388e-01
-1.763197934998515182e+00
-2.295932760039884446e+00
5.033156553419357859e-01
1.344542167263436561e+00
-6.247958107442976861e-01
9.384604199666653213e-02
-2.141295467856166646e+00
-5.208152793548936899e-01
-2.635615640682472005e+00
-2.977321533526195441e-01
-3.686755171062762848e+00
-8.875920433364286044e-01
-4.197143958489717441e-01
-8.724931310307247889e-01
1.251022736494011411e+00
-1.881662503352552474e+00
-1.326135682465451326e+00
-5.974411510933679281e-01
8.044386466359134680e-01
8.469901339458843492e-02
-4.948689874948067891e-01
1.213915446686405941e+00
2.632396663479902088e+00
1.293411541969718304e+00
-8.897068710951551163e-01
1.279752831211265762e-01
-1.823713000085392666e-01
-9.621965637462478460e-01
3.070984583041863392e+00
1.582475288938789637e+00
-2.290020850471174541e+00
1.141130136530122297e+00
-2.671201454417585719e+00
-9.391515332102767788e-01
7.372649723169509839e-01
-1.272653052060444878e+00
5.355355576051982203e-01
4.616140926608918171e-01
-3.812759060684574042e-01
9.600448537291959017e-01
-2.434981984244815933e+00
-7.987812637757080170e-01
-4.467843521649351723e-01
-2.012492339585436052e-01
-2.061755703925102434e+00
2.992374340619585737e-01
1.216037953230600654e-01
3.586686694555116794e-01
-9.401427140087702528e-01
7.443556910709460128e-01
-1.477038101422979866e+00
1.698480078667036430e+00
-1.014007999558456663e-01
5.208561479534489225e-01
1.268510425877479086e+00
7.786284957453520894e-01
-7.509274582784505325e-01
1.078433536955044181e+00
2.260398126597975565e-01
2.897850294868485221e+00
1.197287875184842809e+00
1.956554772519174312e+00
1.389037910247705288e+00
9.493296135387538914e-01
3.492104614612123736e+00
2.790916336893362049e-01
1.002157462173776770e+00
-7.405033598174732834e-01
3.066222451078344680e+00
-9.055066020971427321e-01
-1.159460233438425414e+00
-2.884486138590206750e+00
-6.039870460293615961e-01
2.072766753222144764e+00
-2.767517141697974470e+00
-3.682136529714386541e-01
1.497158547643780535e+00
-6.833933241917917734e-01
-5.669505382806782068e-01
8.002287789896439518e-01
-1.049667403208688565e+00
-1.121581045423092116e+00
-1.532673998257921166e+00
-2.229993796605861167e+00
6.031885017555529416e-01
-1.421366307361223158e-01
-1.282776017839841298e+00
9.151535659608536211e-01
7.268132986503569315e-01
-1.358808771695605877e+00
1.383957347291074003e+00
-6.468170010810082582e-01
3.856727798657227924e-01
-4.229887380885268278e-01
1.094823784226681918e+00
-9.311356637855717766e-01
6.012193999620685236e-01
2.618211922024691329e+00
-3.268831343792585997e+00
9.847836759815187246e-01
1.163406175847098822e+00
-1.896528865806836217e+00
8.794475124581887515e-01
1.897019671067883551e-01
1.604159567511901641e-01
-1.402868923777386978e-01
-1.520598698645302838e+00
-6.716087726024365656e-01
-1.827679097450022994e+00
5.280624731457197463e-01
2.202894979835308964e-01
-1.695190308893525399e+00
-8.032096832556789856e-01
-7.001832287038998182e-01
-9.803881991387917161e-01
1.912878165629956273e+00
6.930093230044132024e-01
1.350771030795969274e+00
1.588164980311473462e+00
3.251111989468343122e+00
5.454620771079896624e-01
1.545331052935263516e+00
1.453238540855470218e+00
1.729676981431177651e+00
-3.605450109003065506e-01
-1.268569748572994538e+00
-3.138012302448063839e-01
-1.723277026233974940e+00
6.628444237813445328e-02
6.979697523148659100e-01
-1.863802215185155209e+00
6.298522269465349765e-01
-7.084320172283602168e-02
-2.600298835125820940e+00
1.316300315253096320e+00
-3.328113058411347192e-02
1.495569503339529427e-01
8.298989139468710974e-01
-2.447100906307184409e-01
-4.165216172128492489e-01
9.390105195581837094e-01
-2.478240601377379171e-01
-2.426706507399894797e+00
3.683136620031584485e+00
1.835349567476837751e-01
8.121585854038315677e-01
6.074469701827402979e-01
1.320355019651226369e+00
-1.062053945353177875e+00
1.599845646738860816e-01
-1.046656015936819895e+00
-1.675406111455646219e+00
-1.592661021424643941e+00
-9.468269969567764954e-02
-5.103200210350699040e-01
-2.155053408232533663e+00
-2.251182781334553518e+00
1.567879526398878953e+00
4.119048370995701536e-01
6.923753481345373828e-01
-6.947465791280187375e-01
1.882365719127288561e-01
-7.325834121958203493e-01
3.056243187919810422e-01
1.990045540126404333e+00
1.907375337000154714e+00
-1.488553331197232321e+00
1.008424517582499208e-01
-3.474496014080191535e-03
1.388800175095802336e+00
6.583811268009002182e-01
-3.943406153171732931e-01
5.523703386544640548e-01
-2.379475644955149960e+00
-2.383054198033895066e+00
1.722219494451347588e+00
3.192896653124178474e+00
1.452172426559064755e+00
1.968304329621484827e+00
5.349405454581975805e-01
-1.066947645730590838e-01
1.159595680135459217e+00
-2.620807206632412741e-03
-2.205551805743598326e+00
-5.237879112349986599e+00
-9.002794143386922965e-01
-1.590371616354666062e-01
-1.407946393630489679e+00
-1.855027427139711138e+00
1.445532506630200276e+00
-7.014399494967902271e-01
-1.570097229674240202e-01
-4.859210921573973163e-01
-2.006596968841690032e+00
-4.261243969088592820e-01
1.156251663254008744e+00
-1.359299462238812595e+00
-1.319782661812758606e+00
4.757970520506857426e+00
1.080001550241314057e+00
4.617301822226791419e-01
-8.916670259720674840e-01
1.813376508592016156e+00
6.606874299174126941e-01
3.607303513180816879e+00
4.695766162934621235e+00
2.225385983396610090e+00
2.168479580273184659e+00
7.976878663955238036e-01
-1.908319825457436947e+00
1.073838493642172542e+00
9.738546993866287194e-01
-8.801133999506998151e-01
-4.441927254139138026e-01
2.075983459856171720e+00
-7.959353529158188501e-01
1.383017807245418007e+00
1.729632218270792832e+00
6.935897125467799240e-01
8.180457199433986970e-01
2.481828493370973554e+00
1.863326703118207250e+00
2.820621055805960786e+00
1.116186565559177390e+00
2.755477055839892664e+00
3.561404859832299596e+00
2.123322515155128265e+00
-1.035901661632483206e+00
-3.784593750757723196e+00
-2.333278445112124011e+00
-8.513815083651163906e-01
-3.790674973171725970e-01
-1.747710506393161944e-01
6.635895529313718733e+00
-7.289293422440412673e-01
2.378228685729238734e+00
1.472254067302211533e+00
-3.706411501721022517e-01
9.488089616809922133e-02
-3.758758162320854912e-01
2.006765336939408950e+00
-4.111404555671351879e-01
1.140376672626865484e-01
9.739922408114451424e-02
-1.721717907696848626e-01
-2.352684263150455646e+00
2.003663133151707409e+00
1.008503211539312217e+00
1.137084151143210375e+00
2.310187195203013744e+00
3.830935027455129926e+00
2.323509054609477431e+00
6.821604792241241499e-01
6.288673602192933476e-01
-2.792389050397166561e-01
5.962373190082028707e-01
-2.539221012530567645e+00
-1.182387620570603204e+00
-2.985743636135266055e+00
2.686370327198042585e+00
1.927558487463227443e+00
1.701524280378642784e+00
2.257843379720005483e+00
2.911754588521889620e+00
2.003681189702432253e+00
1.630146588696198329e+00
2.833098947448030813e+00
1.750414699519987405e+00
5.381242060400189819e-01
-1.493491282056654268e-01
2.498225863726488694e+00
-5.584067101429166513e-01
4.952001697923044121e-01
3.873998036320981941e-01
1.671792237751622556e+00
-3.675345730467722838e-01
1.249115928944856790e+00
1.001795280436178048e+00
1.520905160767820341e+00
1.487300077006898036e+00
3.206463336714119094e+00
8.157081855414306526e-01
9.803610504191314634e-01
-8.548792982698592002e-01
-2.069828484339888863e+00
-4.448124151463698439e+00
-2.490600428500715946e+00
5.332015760354686940e-01
3.266143193263849387e+00
2.523486916428803628e+00
5.414901534727830645e-01
7.158861435338578216e-01
-2.680802990262016738e-01
5.296993056421758439e+00
2.445933947970593270e+00
1.315861083826422417e+00
-1.229104142365193830e+00
7.896149404228145485e-01
1.552733142443160741e+00
1.721940360128611847e+00
-5.616896671435896993e-01
-1.100943531881345416e+00
7.031167693838094035e-01
7.065920313112247220e-01
-1.394905916380417388e+00
5.393864182411586272e-01
1.901868574475943374e-01
2.787251178865059575e+00
-2.152411144548852795e-01
-5.721449894390763236e-01
-6.229477061750331446e-01
-8.462408059692264617e-01
-2.982226735755485691e+00
-2.757612295626978405e+00
-1.136207775113851737e+00
8.039006666323975647e-01
-5.247522187240685199e-01
2.465658907033577485e+00
2.818314654672438579e-01
-4.953409024526696236e-02
1.840030554839557908e+00
2.414221160552687984e+00
6.674887087603861291e-01
-7.415611082773710949e-01
-4.974233861854375216e-01
1.568522219946492324e+00
1.584392858305950336e+00
1.109734197111682752e+00
-8.478798613721788557e-01
-2.537890280746695759e-01
-2.616483355484612305e-01
-7.089500570002094104e-01
1.149697755938832611e+00
-3.045532401829448288e-01
5.833393077705502361e-02
-2.615030645135397180e-01
-2.730476748314616398e+00
1.757936854431893403e+00
-2.953390250159746433e+00
-2.492940428965939148e+00
-2.324478959857168014e+00
-3.736222420361932528e+00
-8.382179718886548780e-01
2.272865158769474370e+00
3.341565785335201433e+00
2.470543028219671366e-01
-1.195675397252828676e+00
2.233347560910757146e+00
1.838063665213681919e+00
6.823261536663642879e-01
-9.825452370693061876e-01
-1.411845145828306558e+00
2.880120188134192571e-01
-2.601104841748210217e-01
2.129809168247508988e-01
1.222709710183237514e-01
-7.911042830054851871e-01
-2.878725615722744546e+00
6.112606793385191306e-01
-1.766296173839088324e+00
1.040580438824163290e+00
-7.209703954362670641e-01
1.218799747086835028e+00
-2.010506546852070642e+00
1.542387090733049471e+00
-2.245874531862242396e+00
-3.084568425962080696e+00
-2.330139373169248351e+00
3.275139891519833757e-01
-1.972791281824597842e+00
2.055618143872075976e+00
-3.423123388340857387e-01
-1.469833526866837214e+00
2.238489055931961236e+00
-5.326946901816879132e-01
-1.472663695002500939e+00
2.278970090512654423e+00
1.357610138761095042e-01
-3.632778621766194482e-02
-1.270908415226077226e+00
-1.317286636178762294e+00
-1.046046570536745879e+00
-6.366604218016558292e-01
-5.058932264507313148e-01
5.649334396826783955e-01
1.471704157014938952e+00
-2.474575249094745633e-01
-1.812265647163676885e+00
-7.793555245262939746e-01
-7.461450740912657364e-01
-9.145087344692950371e-01
-2.163176463768926805e+00
-9.959414525544320052e-01
-4.016354145533780340e+00
8.329046420732262312e-01
-2.314971382109630937e+00
-4.662990627844544989e+00
-1.166170819165028849e+00
1.557959749635275115e-01
-2.281362455003577983e-01
7.302756274008766202e-02
-3.548198809724849134e+00
3.486258559773355858e-01
-5.837116908594340847e-01
-2.247838622509231943e+00
5.013365279513972705e-01
-1.552167407356455087e+00
-2.186419165319488211e+00
1.729019807913476925e-01
4.605227283250366010e-01
1.063352140629052922e+00
1.769571036222239435e+00
-6.767405078241731653e-01
3.738658516885093319e-01
-1.589232738132882350e+00
-6.938842363221400245e-01
7.954454294730914921e-01
-1.398485075210111450e+00
-2.281891927673211917e+00
-1.664890881952580726e+00
-3.612992259182182586e+00
-3.619226935014962621e+00
-2.627512341055671108e+00
-1.345474198119028131e+00
-3.247507058363726884e+00
-4.169301316691761627e+00
-5.711168964425069605e-01
-1.801463346580011171e+00
1.632311319448210396e+00
-2.319176647596455254e+00
-3.499129614222453166e-01
1.116069742517496188e-01
-7.978460717965900617e-01
-2.503033834715504558e+00
-2.393716090153823889e-02
-7.920017804150071283e-01
-1.734199879354604568e-01
1.446297652019314928e+00
8.174086098872257455e-01
2.481742239215959156e+00
9.397133369005286618e-02
-1.660497589292003084e+00
1.117237503676778321e+00
-6.523082478808468476e-01
-6.700000687809416489e-01
-2.451311962835077463e+00
-2.201485381973701028e+00
-2.357526626267046066e-01
-2.727181812551461526e+00
5.580880688253146982e-01
-2.294866211577223591e+00
5.301498846209278248e-01
-2.606154559579094698e+00
7.197989345275793149e-02
-2.981208639935283955e+00
-9.118265197217354512e-01
3.550190740284414614e-01
6.150785068984234716e-01
-1.454271770633737360e+00
-3.703339119271783497e-01
-4.678909134180545770e+00
-2.556135739191340406e+00
6.476929921192928763e-01
9.525417054226983579e-03
9.271514393340998805e-02
2.570553099765368721e+00
1.375446776852982556e+00
-7.183153315769826852e-01
-2.132657005845320697e+00
-4.536517903832189003e-01
-7.041501513501048359e-01
1.968888036107633521e+00
1.860859273195108576e+00
-1.333684549602901281e+00
4.437620407636727049e-01
-1.751869304935189442e+00
-1.353435407970454474e+00
-1.901964768542010464e+00
-2.767129280717929518e+00
-1.305491028184898594e+00
-1.706159180943433995e+00
-1.942881032058652924e+00
-3.119427934635885968e+00
-3.272797543148830535e+00
-2.020802113875390937e-01
-2.231785061280800786e+00
-1.897070664399683526e+00
-3.613498270319729144e+00
-1.614563989400645605e+00
4.258106409228941402e-02
-1.236124565421614863e+00
-1.825745902674354326e+00
-1.609094887408432317e+00
6.002145955490375551e-01
9.835104929590745559e-01
-1.638336869148001806e+00
1.088903971211413246e+00
-1.556460290246954203e+00
2.870067405901475244e+00
-2.221155264431344367e+00
-9.306282994640082684e-01
-5.452808831600735040e-01
6.899223415127029302e-01
1.542137939908811539e+00
-1.494558414161403004e+00
-1.162124275574315746e+00
1.680444258068979901e-01
-2.808181038675044316e+00
-4.198101969820324797e+00
-5.219327086069076138e+00
-1.309254315518616041e+00
-1.784156549935289604e+00
-2.822602837646822849e+00
-2.205599033912954532e+00
-1.187737703250775656e+00
-3.170806004398108779e+00
-3.319783857305136809e+00
-8.390724628377498051e-02
-1.654650936078823298e+00
1.457718765861486521e+00
-1.211231250507040502e-01
-1.151521342565165806e+00
2.175275125590264036e+00
-2.902835224566939765e-01
3.830287720751708869e-01
-1.363029720522642707e+00
4.273047447159407652e-01
6.578465060579050672e-01
3.785904917559842486e-01
2.414949671391594332e+00
-8.799565767252671700e-01
8.537639308345686961e-01
1.366141601409425643e+00
-1.307886654310496333e+00
2.395449835960176355e+00
1.764305888006574063e+00
-1.232288421544549317e+00
-9.731710655348173589e-01
-1.101697214022340221e+00
-2.906490796771068474e+00
-1.023910775033476606e+00
5.171778004848036625e-01
1.654980978289271265e+00
-1.135395951632732325e+00
1.182094237697395522e+00
9.554405737841720203e-01
-5.220935289232344623e-01
-2.685341516251061211e+00
6.405469803058010392e-01
-2.229586820776437439e-01
9.709993960333295204e-01
1.691611233442300133e+00
3.614284349120451711e+00
1.904451469340830316e+00
-4.659151292329796190e-01
1.504520819380943841e+00
-3.059142278942285076e-01
3.118396913035951457e+00
2.457869745617937696e+00
1.286062730694323530e+00
-3.367481247453189552e-01
-7.617450663463160021e-01
1.266353821968347004e+00
-1.128655871792640097e-01
3.032752302925117327e+00
-1.140367120400427980e+00
5.038009326024563972e-01
4.540196079797899076e-01
-9.728689418026624791e-01
6.459813142381443107e-01
-1.301054821886830970e+00
-1.040310562769960701e+00
2.225143254933342529e+00
6.464283922764775259e-01
2.438310586910879429e+00
2.860924165290119059e-01
-6.123468400116669486e-01
-4.332331175209869767e-01
5.040367991134935000e-02
-2.295171161543929916e-01
2.002372441607846110e+00
-1.360204749200532692e+00
1.313506963032892383e+00
5.124752548421255410e-02
2.097673974088780202e+00
-1.611030044118449744e+00
1.065683451669803272e+00
-1.766641770634573172e+00
1.395966920860503002e+00
-3.156999688350645705e-01
5.530350156588186294e-01
1.939851949826395083e+00
-1.894062747692911441e-01
2.753643873154738020e-01
-3.689170229948536273e-01
4.803119834359254048e-01
1.502509712753394011e-01
-1.028237030415555031e+00
2.598534520174149431e-01
5.347247991480837959e-01
2.593192102178754954e+00
8.992031578337666975e-01
-9.034925909212182527e-01
-2.138754001846900454e+00
-2.584608067567732981e-01
7.843933543704167954e-01
-1.971128564278812334e-01
3.344697081112911974e+00
5.750924027780055514e-01
8.243160550653856333e-01
1.793017510762665578e-01
-1.789807217615816126e-01
-1.067970362435312293e+00
4.075401016089335582e-01
-2.294716069035378225e-01
-7.321664551491775530e-01
4.030188853378857128e-01
2.315175381618701511e+00
-2.705613916348400316e+00
1.019791164077950896e+00
2.224707328037265341e-01
-1.790127586878030419e+00
-3.340947641726317863e-01
-4.039787454893011276e-01
-2.601254355060747869e+00
6.596844010638118760e-01
7.981560288406508441e-01
-3.246854220239651645e-01
4.524781404491493575e-01
2.123065091162890106e+00
-1.147891830162842242e+00
1.228667909321142782e+00
-1.185603020912920219e-01
5.587115966861773142e-01
8.761522180072564003e-01
2.787456416325339248e+00
1.042224437776321189e+01
