-2.299642079824318230e+00
-4.784524393450211854e-01
1.767763720587337328e+00
-2.048613583392361548e+00
4.184509886446369786e-01
1.318461126698156072e+00
1.354741725671661845e+00
1.690218630111145481e+00
-2.898708681082871053e+00
-4.036503044168066601e-01
-5.831872650109367617e-01
-8.902669374209177811e-01
9.192171479162245529e-01
-3.215424184002428354e-01
1.468494297495438694e+00
7.298017732959273252e-01
-5.473813836893877127e-01
-1.090793396734507370e+00
2.432102643297183509e+00
3.772338747593047881e+00
-2.209693353733299670e+00
1.248724860097023548e+00
1.029471670441024056e+00
1.436667805426857125e+00
-4.958458489195155527e-01
1.434690295927313120e+00
3.470020256848098228e+00
1.031341176624667622e+00
-5.621271744334932485e-01
2.244282383583602880e-01
-5.160063099991842872e-01
-1.323774191160410618e+00
6.406202349471570301e-01
-1.028602544311725930e+00
1.244380645742080294e+00
1.437941559505882427e+00
7.154268125899788666e-01
-1.793030517325189810e-01
4.380158272465783931e-01
2.430842771500709223e-02
-8.076246169124801089e-02
6.799119838171167052e-01
1.332184146481033116e+00
-1.007544597656141683e+00
-3.060431808851321600e-01
-2.959714747905057841e-01
1.293066314330389099e+00
-1.264728625114879490e+00
2.658549228395547193e+00
-5.498571875820302823e-01
7.560230003336232407e-01
4.669510211732542659e-01
1.697567217656305694e+00
6.099089345155199737e-01
-4.829503218964155131e-01
-7.444198177601796251e-01
6.402491074630667356e-01
-1.414691029446879522e+00
7.196838113918101465e-01
-4.664641013304159922e-01
1.832035411101595068e+00
2.483435923603852569e+00
-3.384948434998527045e-01
-1.446256351358294445e+00
-3.321724823730879406e-01
1.288575026813851609e+00
-1.264161835850548865e+00
-1.382366088592468234e+00
-4.704205211885276738e-01
2.185214626158969775e+00
4.985545760838780427e-01
-1.787473450592927726e+00
8.923022333386356753e-01
-3.221812837279655062e-01
3.103118276283567845e+00
-2.420140586919341530e-01
1.671553429889772069e+00
3.266038545266268578e+00
-2.890077328452406776e-03
3.555959075381270207e+00
2.350408353423863783e+00
-3.405259767287869277e-01
2.514877834161009407e+00
-1.007396765445047526e+00
9.074278624787004421e-01
-4.803861501147964064e-01
-1.564387917652939164e+00
2.179619901686453698e+00
7.896413042908197524e-03
5.177663134400671552e-02
-1.328826498653743748e-01
-2.123294896464899661e+00
-2.570796673009757005e-01
3.866385393434797368e+00
8.458718062945503879e-01
1.624100515741430328e+00
9.026248094782132192e-01
-1.204813961621473029e+00
3.299750330035124080e+00
5.931460964424170035e-01
1.561420271321362595e-02
-2.307154948995698174e+00
-1.834406688870898305e+00
-3.694855795528160236e-01
1.362689080285218513e+00
-6.792462317267957683e-01
-3.160161838826451852e-01
2.691978581028426021e+00
7.200479113238192896e-01
3.874244624206265586e-01
2.195154782626772771e+00
3.179391706982543364e-01
1.018102739785538446e+00
2.023568860916116652e+00
-4.175785514951029676e+00
3.090857819967145481e+00
1.153537016694262007e+00
-6.731545525408380026e-01
-2.642545285309104430e-02
4.292183574965308113e-01
2.899125926800803832e+00
-7.309054459014701077e-01
1.100443670135865526e+00
-3.025384100310944402e-01
2.126393526369199094e-01
-4.792442030536998021e-01
-1.392768406261033043e+00
3.645584940170127908e-01
-1.873884373181172958e+00
-2.685380160194420718e+00
-7.644921764677851117e-01
1.107539129015270296e+00
3.707077232505733289e+00
-1.243739528503887470e+00
-1.070951911038265647e-01
-1.421110270000949527e-01
-3.166343637723649240e-01
-2.704540040052678229e+00
1.047221962953777563e+00
3.001674352036731275e+00
7.703059469130073555e-01
-1.460154455528177353e+00
4.782594333122842101e-01
-3.742929908580418519e-01
-1.028367582379724254e+00
-2.961570607318250836e+00
-1.342367867284232352e-01
1.737679569490660159e+00
1.519727127770300168e+00
-2.982536990029465596e+00
-4.169206967200400071e-01
1.097325111763134853e+00
-1.013290955827998024e-01
9.543271601734445442e-01
-2.222621498408571039e+00
-1.663945906243609885e-01
-3.879998016112317760e+00
-9.293269680678005740e-01
-9.175439187436010835e-01
-2.145662992480052988e+00
-2.793407548892595571e+00
1.626859025068111864e+00
1.483884421267904763e+00
2.651714637531529917e+00
-1.924857962422233060e+00
-9.074376859629098568e-01
1.472706857216467435e+00
3.653644236217934438e-01
-4.150757482055978387e-01
3.664231547395201960e-01
4.216681304345186732e-01
-4.730723996864308889e-01
1.671313673182132920e-02
1.097376094090200205e+00
-7.768918871310305230e-01
-2.133153878239669066e+00
6.598271251324313580e-01
-1.665029833408102067e-01
8.127455122718822977e-01
1.386040895272409257e+00
-1.702404476491674590e+00
-7.756858213345613207e-01
-7.773530798068808423e-01
1.191388701758328977e-01
-4.392924487397576461e-01
9.164211032499528509e-01
-9.220051462306477763e-01
1.757900817595811294e+00
-3.165612711829581372e+00
-5.038202795025683578e-01
-2.317502669655266967e+00
-1.679246879236757639e+00
5.888119849703154877e-03
6.526259389658727317e-01
-1.118829459493013490e+00
-4.510205693699860241e-01
1.340691724367775395e+00
7.347380857845126068e-01
9.629289363710038518e-01
1.245201709294173620e+00
-1.152348857680877137e+00
8.472162485514012076e-01
4.275787667000612857e-01
-1.494656098011441836e+00
-3.690502567428161074e-01
1.475229782153048230e+00
-6.389368777680195510e-01
1.287589042919645266e+00
4.630074556447213441e-01
3.402605898613886293e+00
3.599297664410515463e+00
1.752579701789840128e+00
3.243908563319410021e+00
2.660087136141813247e+00
2.295825591952908307e-01
-4.606588278709909390e-01
1.435345673373482345e-01
2.455866670962287279e-01
-1.269408453627445477e+00
-3.366504707341527514e+00
1.506890893720294888e-01
9.881986584121340567e-01
5.703569780651803756e-01
-2.396931430515214772e-03
-8.166099711760443913e-01
-3.979025521875315441e+00
-8.769341706017327320e-01
9.453132447029640728e-01
3.195732132086295252e-01
-1.085275934735366432e+00
-4.837539613250100290e-01
-1.009290702249519445e+00
1.281061548543638295e+00
-1.143858914579358288e+00
-2.484886279095340544e+00
2.062830368707161632e+00
-1.554925823879221181e+00
-1.630529940253975241e+00
-2.860202407977001093e-01
-4.985818567213259195e-02
2.606656534663035971e-02
-1.438146178311995094e+00
1.513741294376452773e+00
1.883580203168726319e+00
2.705004237581032811e+00
8.193274356469157915e-01
-6.109609730905365410e-01
-1.137534636780339170e+00
-4.539508447938720992e-01
-3.104412174255731571e+00
1.380492559686977039e+00
-1.556271838356039661e+00
1.699871252316929260e+00
-3.335210544977047942e+00
5.238030335961486594e-01
-8.207922533071124738e-01
-4.749925136830995820e-01
1.228433738236724970e-01
-1.017988821208186234e+00
-1.475046013581358562e+00
5.817906809717958705e-01
-1.926258829115195415e+00
1.711075210816898284e+00
4.101013654884395898e-02
1.134508526029116560e-01
1.031421357679847439e+00
2.671160758643026600e+00
1.150715689286229804e+00
1.699718357093362942e+00
4.345106036848807918e+00
1.317992001095712906e+00
-2.811326937253551428e+00
8.087409551720167733e-02
-1.723777406632044373e+00
-3.133813079716611050e+00
-2.265222264551986164e+00
-1.176532796207428344e+00
-2.528562528454813663e+00
-1.881925575123104766e+00
2.461558851805653245e-02
-7.713610820145598845e-01
-3.800104135580059772e+00
3.671653147020591534e-01
1.968501146029516313e+00
-1.096373405972305370e+00
1.580382030789551431e-02
2.474096631466236929e+00
-1.888380100401568784e+00
-1.532042745122395022e+00
-9.156269672951697913e-01
-1.595408987020162095e-01
5.661315600810236104e-01
1.218400791614018264e+00
-6.423879475399163486e-01
3.942829398368759009e-01
9.992394678296086241e-02
1.178293108343376971e+00
1.376071161021377387e+00
-2.023100577398362354e+00
-3.613559486801623533e-01
-3.521784289042997340e-01
-3.953842206221809263e-01
-3.490229976584293681e-01
-1.752459230967067239e+00
1.840608237093831256e+00
-4.895604479831462408e-01
3.134210720894051061e+00
-9.689330756342146023e-01
-3.247467353237399323e-01
1.489206414650660060e+00
-9.119940240084924987e-01
4.196890169114962377e-01
4.571512288430977233e-01
1.524639005876230913e+00
-2.386749376794088384e+00
-5.526789523722767106e-01
1.793775299684279512e+00
2.078489318972969624e+00
1.233779753873260665e+00
2.728520029527754076e+00
5.704893383656222533e-02
1.274958956095473273e+00
-2.133913678669041136e+00
-3.659875459074526383e-01
3.977022022337010299e+00
9.134760211020755971e-01
4.273561897354185568e+00
-5.636052897456922395e-01
2.321609115167190041e+00
2.326267433195565448e-01
1.301397269414340085e+00
-2.386483986802902635e+00
-9.869060312323337802e-01
-1.635788285909182682e-01
2.150398854040531660e-01
-2.486653282278934896e+00
-1.273894420129713767e+00
-1.832284571121113315e-01
7.096128760432608429e-01
-1.824261242541004024e-01
6.437822307308889158e-01
-2.773932069307011861e-01
-1.023397421775227023e-01
2.974720433368043704e+00
9.369307472187934915e-03
-8.338983621058601026e-01
3.898761861601613532e+00
1.561389178365964581e+00
4.606765890340886460e-01
-2.397613129373210139e+00
1.324015569711550988e+00
1.883717712776810105e+00
3.162778034086499268e+00
9.886379764941546355e-01
1.024330337373649868e+00
1.287642964345719898e+00
1.192632720642520683e+00
-2.913352570317317980e+00
9.474959322827324337e-01
7.628175935175149913e-01
8.060598512424677065e-01
-2.307043552657303265e-01
4.984898808845372731e-01
-1.180901517641660625e+00
1.295899636542644506e+00
2.007841615676710489e+00
-2.870774595024093045e+00
-2.102104899363851143e+00
1.380423025778381385e+00
1.412637493363436914e+00
2.508957121439632676e+00
1.365891440519886313e+00
1.152790951480148873e+00
3.806634361750001805e+00
7.853434513549412133e-01
1.093195018371250216e-01
-5.578832289719970916e+00
-4.291198808447391322e+00
-1.007904584974472106e+00
-7.212487403090862559e-01
3.799488898891189681e+00
4.599571497219375082e+00
8.786349506219703898e-01
4.485296565629521837e-01
1.937563478044626475e+00
-4.695736958687551921e-01
7.788084649286212136e-01
-8.968415960776161544e-01
-5.914266518050321775e-01
-8.960905205653522110e-01
3.930383546203892742e-01
1.430213578216839254e+00
-9.879986184757878487e-01
8.098554199768649431e-01
3.113073990192547491e+00
1.520043242164405450e+00
1.045031537945052991e+00
1.500734678426697943e+00
2.773578568533181521e+00
1.002995086765970489e+00
2.681036043922375711e+00
2.030522166401328210e+00
-2.861241023302477440e-02
-1.505070950644670225e-01
4.197195654850317120e-02
-8.119247088752289399e-01
-3.488966414456874165e+00
-7.589240253200778552e-01
2.196338129597740885e+00
1.041429011293052431e+00
3.116687899965076003e+00
2.679288589109019902e+00
8.977719172534284198e-01
4.111720231568895656e+00
2.458626860514760981e+00
1.474045987411437553e+00
5.877263475356988565e-01
-1.551616866620758373e+00
2.425689613826713220e+00
-2.287842024709575206e+00
2.102145411020836241e-01
2.871796983461058494e-01
1.622885810903674564e+00
-3.472264191557168367e-01
1.997721226292606067e+00
1.891162010474284783e+00
2.631413353037066472e+00
8.730276326746633231e-01
1.239684471593686332e+00
1.042384220797709204e+00
3.202435218513787624e-02
-2.545019302410943762e+00
-7.573001626602299252e-01
-2.925769102589105941e+00
-2.384229026940464014e+00
2.159149753684111328e+00
3.157503863497022945e+00
4.591409890819248218e+00
1.492758300551009665e+00
1.202911407821652290e+00
1.248905205626613446e+00
7.746634419501243762e-01
2.347325294759143421e+00
-4.191744057719750671e-01
-2.243712025556632739e+00
2.705332094785358521e+00
-8.679321781198685581e-01
3.553431241253159012e+00
-8.004830149713193510e-01
-1.131619329537642438e+00
9.967219405858368519e-01
-2.906586251086912487e+00
3.157639819865771247e-01
1.378626402782123339e+00
-4.188034126871720830e-01
2.350701022381888272e+00
1.187252476521726940e+00
1.621918992756098854e+00
-3.466436980645550281e-01
2.239438722100336732e-01
-3.497484292219232405e+00
-5.354805899648347634e+00
-1.441001536671234984e+00
1.599643714261844707e+00
5.482935249242008174e-02
3.035812915335703632e+00
-1.393157735475622605e+00
2.191336672149577780e-01
2.127026988957521514e+00
2.317912644940104183e+00
4.949617459753304360e-01
9.998902514060704627e-01
-3.505635565288598432e-01
1.617116947812283101e+00
-1.237354852019855178e+00
-5.918666832540765421e-01
-3.038925613220485600e-01
2.412824284704026823e-01
-4.847907269868319789e-03
-8.712603297495882249e-01
-3.090019471720786282e-01
4.346550400886461496e+00
3.771763935192181116e-01
-2.067224962713482217e+00
-1.826406381891489072e+00
1.053821481507125846e+00
-2.514626478535813447e+00
-2.065268953788868433e+00
-2.646441904676816836e+00
-5.213745393585835330e+00
-1.951370549720497172e+00
1.371342638999116126e+00
9.878010927488014570e-01
5.240982073665780838e-01
4.681920325681878103e-01
5.185084136004001198e-01
2.122565659487396950e+00
2.252797424105522084e-01
-1.074101733701575467e+00
-1.577072947209105402e+00
-1.370745527483226089e+00
-1.929144754192140709e+00
-2.353721622271726321e+00
2.667307964193154080e-01
5.375737224262007175e-01
-1.272444305872173720e+00
7.960930998333121122e-01
-7.169413566054917419e-01
2.629207319978266177e-01
-1.291583430044007663e+00
1.368575951489851145e-02
-2.081554727752854994e+00
-7.237316046307487039e-01
-2.462494425394859743e+00
-1.761770730763642989e+00
-3.375346882981455909e+00
1.294518264215332115e+00
-1.676203779677269079e+00
1.532073117485539759e+00
1.217470554381700598e+00
-5.350978530988957926e-01
1.019738194693219135e+00
-6.798595595263214886e-01
-2.047415176806694159e+00
1.206197886411726206e+00
-1.795137134791579214e+00
-7.323892486876614205e-01
5.617648856857964113e-01
2.205322862550885166e+00
6.021106008501074802e-01
-3.942921850160675534e-01
-8.068276907237154072e-01
1.707910688855373671e+00
-2.891961889929430263e-01
1.676094155009638431e+00
9.531474969554685206e-01
5.507462604777542126e-01
1.512863154066881988e+00
-2.199463051387539725e+00
-3.012704559523126324e+00
-4.015459753356478978e-01
-3.022138885898472349e+00
-6.606841957670149812e-01
-3.216175901813835836e+00
-3.444884719210007606e+00
-1.566825664617805147e+00
-4.381666178606831163e-01
-3.488481299572321781e+00
-1.929121062316770496e+00
-3.224084734236083882e+00
-1.879722839810469281e+00
1.029143985686222784e+00
2.243691205030915736e-01
-1.206773978136425063e+00
-1.850261229810377106e+00
-2.050187826775006883e+00
1.011323524033818977e+00
-1.818659188341919808e-01
1.260996660220330190e+00
-9.033805212770451565e-01
-8.416534710707109790e-01
1.053127870820969925e+00
-6.120428301593787701e-01
1.301106602373065746e+00
1.185974511650593755e-01
-6.013052971873569241e-01
-1.500868454133621022e+00
-2.753563441722342020e+00
-3.914145367273057730e+00
-2.303809495999115331e+00
-3.546518905306527358e+00
-2.388134853637770227e+00
-3.395441215185804218e+00
-1.208523207896055718e+00
1.220710243388971161e+00
2.355714852152832162e+00
2.823082457767803088e+00
-9.116152150798375597e-01
-1.047147101762352372e+00
-1.261764870843745001e+00
7.803890135843999376e-02
-1.466541320381119951e+00
-1.774111547869805294e+00
-1.399895031223963859e-01
-1.143340729963647329e+00
2.744582938320266674e+00
2.026168114979168156e+00
-5.002840299035137273e-01
-2.454006006794770656e+00
-4.972823728897063367e-01
-5.943331291917928194e-01
-1.384572478886474112e-02
-1.087191559744497660e+00
-3.274165781799446062e+00
9.672025667777952584e-01
-3.002181944002451530e+00
-2.943608927133087860e+00
-3.665757774584421202e+00
-2.687950773962908269e+00
1.748256037343849378e-01
-4.501215039612362467e+00
-2.050871377077898572e+00
-2.641673673277714407e+00
-3.388538202766150143e+00
-1.119032996612937980e+00
-1.193744811586689547e+00
-5.821155615873572220e-01
-9.600240242816349134e-01
-5.571699192269086609e+00
-1.809655330504865711e+00
-1.799467406114509060e+00
-1.065166177412597781e+00
4.492047435389989185e-01
1.934916055721301209e+00
6.244413240137459686e-01
-1.309286615515325547e+00
-5.269013984088087854e-01
1.652929511010177821e+00
2.920491099497334986e+00
1.203726726809733139e+00
1.838041804275821534e+00
-2.750670766853356763e+00
8.616168124656358174e-01
-2.191131668712120728e+00
-1.159406610872707466e+00
1.251306941439366688e-02
-3.504938467334524965e+00
1.340573706703971801e+00
-2.119721396044002670e+00
-2.715325775996785485e+00
-6.556186048520976639e-01
-2.159552922328709990e+00
2.632655728812725027e-01
-2.806756951741708139e+00
-3.372642693843181938e+00
-3.089858754360219617e+00
-7.395523166836165396e-01
1.735520226649502007e+00
5.915735636008415677e-01
-1.025397886275380310e+00
-5.498055579455284336e-01
9.967256583118344615e-01
3.355360221719005942e-01
-4.974355655783261332e-01
9.850211482864570933e-02
-4.679474177401932722e-01
2.120158605633064131e+00
-1.414084473381601370e+00
6.398951959150422919e-01
7.770349797873343789e-02
9.074931466037685635e-01
8.027325386054069423e-01
1.021341406339965951e+00
-2.029999927027803519e+00
7.413369723969659431e-01
-3.086377711609519903e+00
-5.711143931401057028e-01
-2.800679257025969093e+00
-2.055460181784259266e+00
-3.030063004380168401e+00
-3.360845857256559821e+00
-1.960092740219678165e+00
-1.505198868247590083e+00
-2.249943843659953036e+00
-2.820627934991548624e+00
1.050403337975050588e+00
-8.004602112612301257e-01
-9.123494117076057508e-01
1.605172750464305187e+00
1.437335555333668857e+00
-1.486050658062242347e-01
1.780256101888116005e+00
2.254760509853539763e-01
1.157180237862545535e+00
-1.306301815935661637e+00
-1.712545323960833477e+00
8.220774997043832633e-01
-3.649832246217006304e-01
1.076795684023968303e+00
-3.467758871075399263e-01
1.923761656810593967e+00
1.640968394398139907e+00
5.041829602943388444e-01
9.963819417494318431e-01
-1.581044755178414363e+00
-1.928550120050921413e+00
-7.450385627607385430e-01
-3.589758543444965699e+00
-5.496397316789034537e-01
1.669891341797629325e+00
5.588801182665499578e-02
-3.947234185722041655e-01
-4.329846140737672044e-01
-1.758644949326463758e+00
-2.365270532038900697e+00
9.156861341262270693e-02
-6.437058805487270163e-01
-6.161972452630679400e-03
6.729675964185427572e-01
7.589811255837005666e-01
-2.200347509101376886e+00
2.013348934490409026e-01
-1.590810386470686177e+00
-8.717762400562098501e-02
1.342508660756375760e-01
2.546186231260775035e+00
1.289244860539821458e+00
-1.480744964548461051e-01
-5.659652214713918328e-01
5.016148766748766974e-01
-1.554246141666683290e+00
1.198123658479046005e+00
2.155915539475743437e+00
-1.269705124337055235e-01
1.292199017445181120e-01
-5.064880916996788995e-01
1.633203816609762882e+00
-1.784828494485989570e+00
1.344220995772826388e+00
-1.117823845822165874e+00
1.293329138920801480e+00
5.281573906733519896e-01
7.146201126503606282e-01
-2.090706843081976185e+00
-3.787389431549592882e-03
1.465793232366456866e+00
-2.865981311077439586e-01
-1.802174081265970562e+00
-1.519188638901314281e+00
-1.571153324527876372e+00
1.046327923062074561e+00
-1.995073771027052079e+00
3.624815153742014129e+00
3.266417877740040998e-01
1.073734106123290344e+00
-1.162618961402271722e+00
7.921364394712666901e-02
-5.943077541970391842e-01
-1.393151489466154302e+00
2.698112707616609485e-01
2.604282631888233945e-01
4.499373648059418196e-01
-1.301021859333085562e+00
-1.388353256592726043e-02
1.469467552467537796e+00
1.282022672333956725e+00
-1.153557794371145584e-01
-2.906971492639472743e+00
-4.778068082404658412e-01
2.121736100838383265e+00
-7.289229642474859272e-01
-2.778365311304972884e+00
-9.021433451303574602e-02
7.795458571944126058e-01
-2.317741840074826268e-02
1.463852552875195112e+00
2.593616892693531017e+00
-4.238740605841135878e-01
2.236758608768424583e+00
-1.800416973796200304e-01
-1.669362350264856909e+00
4.914275017420982605e-01
-5.695237317701065671e-02
-2.445856772214564379e-01
-1.919353048383015334e-02
2.495356202918555810e-01
2.149534986085438248e+00
2.012064645755166359e-01
4.461326670682880802e-01
-8.490607422147834482e-01
1.954548427215958006e-01
6.098087495799702218e-01
1.246970708139606643e+00
9.981828478957148754e-01
-1.234954553869825000e+00
-1.381588982955761935e+00
-1.172942846249506454e-01
-6.135744740553074061e-01
-3.703344600121741825e-01
1.537033747717773347e+00
1.521094121246867603e+00
5.775507585888692841e-01
-3.159479277815949727e-01
3.963936037305594295e-01
1.199615289396684936e+01
