7.441122862354528815e-04
2.347496977210252952e-03
1.212414766987193141e-03
1.148997487825999123e-03
2.163670662111088095e-03
1.250161130020307739e-03
2.044075744107441261e-03
2.643292676631504943e-03
1.324563877293681450e-03
2.536831446599588282e-03
6.114175024339192892e-04
1.340073065715037580e-03
1.313297411307474353e-03
1.383424823297503808e-03
5.390596906765880150e-04
2.454609632945919159e-03
9.730276887819504271e-04
1.672595288607512266e-03
1.976014960612276685e-03
1.848553469037454234e-03
2.056668090197282146e-03
2.840024492231837667e-04
3.522046781662824342e-03
1.544249919457934194e-03
2.862391454794908918e-03
-3.246662408894864025e-04
1.295284834148467375e-03
2.166471039516658283e-03
1.688352514712071527e-03
1.726925392614961190e-03
7.577112830551087537e-04
2.411486204910576366e-03
1.774913891722386394e-03
8.274900323727836602e-04
1.225743832128915094e-03
1.134684132272071504e-03
4.356289751941627513e-04
-3.927269810581547789e-04
3.120382615134361737e-05
1.084014090813072888e-03
2.279912235476585971e-03
1.358455237147605322e-03
1.927952370832378831e-03
2.208035988585752875e-03
1.840075944807051216e-03
4.804030917322489819e-05
1.407312625684784338e-03
1.534019151875777543e-03
4.893138345579620260e-04
2.589374195149178040e-04
1.868265853701973509e-03
2.952488089014741832e-03
1.236635703047613217e-03
5.278399406226789211e-04
1.669338699310465900e-03
1.264102210093782832e-04
2.460981481241428324e-03
1.389248708154379799e-03
7.509993381855462145e-04
1.431461627884380097e-03
-2.270276281669339491e-04
1.638973204791198922e-03
1.723255807683358488e-03
8.159877930913352322e-04
7.278454913317534622e-04
1.649722971829330502e-03
1.170266053659837525e-03
1.087647840308276375e-04
2.000528511984132288e-03
9.736501442260431672e-04
1.272856754415342857e-03
-5.970360668517640411e-04
2.124401279390241998e-03
1.894715837031755263e-03
1.719040717220370355e-03
-1.033173588673114747e-05
2.066715859634095896e-03
2.031375384631006926e-03
1.996087258054188816e-03
1.645441250784250012e-03
1.830159739870757581e-03
2.049291260501143620e-03
1.756289482006658615e-03
3.768202722672966401e-04
1.041240270971436612e-03
2.267215765717153254e-03
-6.184534333797801244e-04
1.302797282952630580e-03
1.897886903886905098e-03
-3.821434958657979569e-04
1.324988297849256143e-03
2.779505745474352427e-04
1.686969799340905284e-03
2.565689419597166811e-03
2.856569798336219389e-03
1.664590021813494233e-03
-7.772517007406928640e-04
1.106167027607500401e-03
8.410242372622107497e-04
8.405094333801304196e-04
5.190592719245887000e-05
-5.401571892712540911e-05
1.227667310004799169e-03
2.573902824114437157e-03
3.135259132798055588e-04
1.807674632580339238e-03
8.220219515295484414e-04
3.664732852336054789e-04
1.086442368390195048e-03
2.776666538491997203e-03
3.073847579923895575e-03
2.819223847166180130e-03
2.243531779245117649e-03
2.237628284631329109e-04
7.402642335707654026e-04
2.440654656592212892e-03
3.993018378900442577e-04
1.201331349362262570e-03
2.037645905199686296e-03
1.689385426042738910e-03
1.996691213053678089e-03
9.876123690847453136e-04
-1.204370119738089415e-03
-2.344024414441672006e-04
-3.567799034371998707e-03
-7.003440490239659297e-03
-1.119311967267142341e-02
-1.206713309138883819e-02
-1.162360695407106334e-02
-9.284062736215500933e-03
-6.555457445296238896e-03
-4.868856498385218043e-03
-8.389135959891390586e-04
-1.678701973346647530e-03
6.941101300884654516e-04
1.072159494050355550e-04
-2.008670689521725847e-04
1.800371709506982075e-03
-3.863338182793620641e-04
3.864595103071163332e-03
2.291385475555699804e-03
2.538638359698041063e-03
1.726371890509707189e-03
2.211936085478100143e-03
2.436549316821437234e-03
1.532328112697919041e-03
8.371447948372078311e-04
8.763665078417500213e-05
-1.646673838321165715e-03
-4.354664373753019263e-03
-6.898699856855509613e-03
-1.449768079245596780e-02
-2.243893403639166464e-02
-3.265540971080949789e-02
-4.139935912006053459e-02
-4.692892720290370301e-02
-4.745211086563604769e-02
-4.276602451540775784e-02
-3.672609855798758538e-02
-2.648225985995289813e-02
-1.777477441745627107e-02
-1.091299962902181862e-02
-5.357978998733739159e-03
-1.789535283190468989e-03
-6.067176594563407702e-04
2.043840026759807804e-03
1.494783908027989567e-03
-8.363611698183916459e-04
7.365615294714259560e-04
-4.275373354122220543e-04
6.298045003527226633e-04
4.292857377497500781e-04
6.270701297822544673e-04
1.308892511570033165e-03
-4.333093782288666238e-04
-2.305732824354862157e-03
-4.483591582222229942e-03
-9.592421501753501875e-03
-1.631321989478601991e-02
-2.317537511803359832e-02
-2.764060845987400053e-02
-2.804978013911400489e-02
-2.536874035498697805e-02
-2.395611985433518387e-02
-2.401079885235224420e-02
-2.655473167962981579e-02
-2.795447548505873223e-02
-2.724396602464164083e-02
-2.504961302969098413e-02
-1.855630769999120147e-02
-1.331741826750603742e-02
-6.638441103689749628e-03
-3.707784080297839985e-03
8.756538174639579616e-04
1.094084201216211820e-03
1.496099743050605937e-03
1.885747555790465418e-03
1.042802977783894875e-03
1.187156828709421373e-03
2.720420763650351157e-03
2.000899086098007189e-03
1.317557663492044525e-03
-5.028903995637707194e-04
-4.812145368705631442e-03
-7.724719558059251270e-03
-1.279039434051169356e-02
-1.552145050021853934e-02
-1.190323259349669767e-02
-3.664859390577045878e-03
9.261891266110077944e-03
2.025983175820599697e-02
2.605605002978016865e-02
2.313865850459153120e-02
1.127172852282194715e-02
-3.488420527125583957e-03
-1.446290081365975491e-02
-2.164738691771106449e-02
-2.121588619575675086e-02
-1.659891264161491783e-02
-1.227519246478471146e-02
-4.137585048105776354e-03
-8.534477857005877237e-04
-4.155486572943872261e-04
6.974578704295817787e-04
1.985211561494119176e-03
5.231162613146600864e-06
2.213265784167737105e-03
2.557630403843067467e-03
7.530019127608668849e-04
-4.709977050240091883e-04
-1.456050612387474680e-03
-4.953362230416542833e-03
-6.103672514667964587e-03
-7.223386996003450765e-03
-2.444179449410603666e-03
9.626936072640680797e-03
2.087401965577502863e-02
2.904560501304594144e-02
3.362662008004983771e-02
3.633474506508620888e-02
3.288214260664075461e-02
2.408265164144099066e-02
9.686665582536578556e-03
-5.289212192474174352e-03
-1.506731624223185337e-02
-1.846340773413605515e-02
-2.027886230652863747e-02
-1.079281589353493775e-02
-6.387121463836602751e-03
-2.522293933341222989e-03
1.530453386835823335e-03
2.127101371394346865e-03
1.883686828859528189e-04
1.942353965826242512e-03
-6.918415064942099683e-04
1.365553814402501202e-03
3.136916101759397793e-04
7.632975109717229619e-04
-4.285244204770647931e-04
-1.112915573674938411e-03
-1.066697354670068402e-04
4.400753650342353190e-03
1.320364034011743508e-02
2.122849990231169201e-02
2.189219327778531982e-02
1.820494602843597889e-02
1.660368952451072438e-02
1.854976999666045276e-02
1.962075462427721392e-02
2.056039496901561001e-02
1.313836854343034682e-02
-3.590140939993710059e-04
-1.266665583941843816e-02
-1.860374010327207200e-02
-1.773058463263817164e-02
-1.279058828837320409e-02
-5.911783025012915666e-03
-9.828811328514259430e-04
6.854590164391852159e-04
1.210545642830611595e-03
-1.051783033958856488e-03
1.083988260328403504e-03
7.560837918151725161e-04
1.043613595898333374e-03
-8.877577492824573462e-05
1.767267192667294545e-03
2.067922397874073347e-03
7.325125278923771271e-03
1.004904812143693135e-02
1.751163819283351256e-02
2.077969229908085622e-02
1.646976033203173539e-02
3.212520248437589470e-03
-4.847710466332752662e-03
-3.860177384868586879e-03
1.776079514182062015e-03
9.616259341273645025e-03
1.594147166406765376e-02
1.308928621034387285e-02
2.935157723526753571e-03
-8.602486192511582530e-03
-1.370786574638702474e-02
-1.249647978019595256e-02
-9.328445935128822780e-03
-4.993088837209887915e-03
-1.402671034157498744e-03
2.656322558709902585e-03
1.877636986800964311e-03
-9.292700092326158909e-05
1.669677138852329211e-03
1.108052455844777502e-03
1.729757049404241501e-03
1.200014453596581418e-03
5.600694093934864039e-03
7.027464009138654870e-03
1.440104375929904430e-02
2.176915737212631666e-02
2.419677464060618344e-02
1.808909915352467299e-02
-2.195207649474460558e-03
-2.149584074081205623e-02
-2.371747587712978375e-02
-1.505033422453337481e-02
-3.468761131620405440e-03
7.259149868973104741e-03
1.671023073764114214e-02
1.717295414506341683e-02
9.816173170428385900e-03
-1.506426610588904470e-03
-4.765812797396903194e-03
-7.528841810413682868e-03
-4.868409569866560815e-03
-3.966329215339938798e-03
-4.984445582902467288e-04
1.449926377494015900e-03
1.895703677223357355e-03
1.451784291409895147e-03
1.778819354373708823e-03
1.766599517576176569e-03
2.135697008331934304e-03
3.889058027173324713e-03
6.321483233927259644e-03
1.256025704937019719e-02
2.187029998581462714e-02
2.961974679817553149e-02
3.064923334615075878e-02
1.531741528086895746e-02
-1.621635079697607631e-02
-3.482711909051645210e-02
-3.224801826271604666e-02
-2.036003726292474544e-02
-8.397989466354491284e-03
6.842465667971499126e-03
2.334211415438422130e-02
2.531665242734776333e-02
1.621892117607154002e-02
5.807519544153361829e-03
-1.082133311136223870e-03
-2.067136488412046717e-03
-9.241002784437930525e-04
-7.443571205530555637e-04
7.396053589189860618e-04
-2.513665449032647541e-04
1.748310182189576891e-03
8.573145625782848181e-04
2.927437240695138047e-03
2.823681114055733368e-03
3.106608758656992115e-03
4.058431183570266991e-03
9.692758686264959025e-03
1.683335081314249124e-02
2.850932894961580658e-02
4.035322403649265616e-02
3.652817419257693016e-02
1.490348740612530178e-02
-1.459670267078427321e-02
-3.225607029011361149e-02
-3.211185526568678672e-02
-2.098698120869019537e-02
-8.140006917652289203e-03
1.396411343627556798e-02
3.551371208110795652e-02
3.640493594097773955e-02
2.350019451941075949e-02
1.052063918285198532e-02
2.216219084435079763e-03
3.475797226023976641e-04
1.141937886919665518e-03
1.855468465930325012e-03
-1.440714462200043053e-03
1.944823994332734243e-03
2.848967034077903686e-03
8.700741870719269373e-04
4.436271749248000542e-04
1.067021178626065573e-03
1.577193920524528736e-03
3.742016342667898749e-03
9.831595123102245676e-03
1.998245461172315149e-02
2.953580553969999481e-02
4.185621544620560242e-02
4.049185868629358309e-02
2.338952381888173906e-02
-2.977601361523929575e-03
-2.111714621171062803e-02
-2.664514920117197136e-02
-2.007626653101806866e-02
-3.973293022137441323e-03
2.508774723163470846e-02
4.724672103125839018e-02
3.985013273837276215e-02
2.317114088336402408e-02
8.358222465062722928e-03
3.357879017153837624e-03
2.578353231694784694e-03
7.015957378758862131e-04
1.324950468298738632e-03
6.146549273343140073e-04
1.268483304227443738e-03
1.651003235085738265e-03
1.487384570338967475e-03
-7.224308405161260259e-04
1.909267052082394035e-03
2.634957039864265806e-03
3.055242749962023153e-03
7.036274554170640280e-03
1.760628686133210163e-02
2.565823928835876330e-02
3.665768226273322106e-02
3.731222540094884799e-02
2.526244865986766730e-02
2.412957769409582783e-03
-1.801951931993815356e-02
-2.621124229716874712e-02
-2.067166348834275844e-02
2.612805520951152170e-03
3.489818953502086402e-02
4.976476357082946361e-02
3.576987156904778281e-02
1.659385175551533406e-02
7.070200385764115539e-03
2.755002370000827171e-03
1.924963317350154423e-03
3.816916024048294448e-04
7.627842121081901362e-04
2.014792475118493218e-03
2.381086875146862236e-03
1.442204219118554996e-03
1.670795702953783166e-03
-9.392981166675721735e-05
1.604486842565990264e-05
3.052977106244958699e-03
2.764166618935737490e-03
7.075051899375917226e-03
1.020575734847174731e-02
1.697980490689565691e-02
2.075802234691157683e-02
1.955610675188514808e-02
9.049473604658157463e-03
-9.309959621471481511e-03
-2.456383263923271609e-02
-2.892824923098082437e-02
-1.324039654467012474e-02
1.521697154876091793e-02
3.777399752321000670e-02
3.964998392856199094e-02
2.301126315197809732e-02
8.105775764525832358e-03
3.829562849968335195e-03
4.472443085196184517e-04
4.005430285346495275e-04
4.072879089159699866e-04
2.564021597701044135e-03
1.852256661017671413e-03
1.203867524531204670e-03
2.873484171772583938e-03
1.361391794096181379e-03
1.071737816104666174e-03
8.991090686988562151e-04
-3.369447422312986037e-05
1.113979347236227586e-03
2.412647341073774661e-03
3.851709443155666712e-03
4.272685144933143636e-03
1.510448821681071175e-04
-4.922177507371534345e-03
-2.089200007897666286e-02
-3.276823857566437542e-02
-3.559799734657848741e-02
-2.485232988938541193e-02
-5.858537678171095919e-04
2.444885697713322648e-02
3.235720233850450378e-02
2.393973126515793956e-02
8.400251718018425170e-03
2.193802408073587413e-03
-4.704390457800274840e-06
-3.730040449880142259e-03
-9.499388438657906109e-04
-3.544929181494770542e-04
-3.489706781488229460e-04
1.033662329084332129e-03
9.943731999060572042e-04
1.814285275062299443e-03
1.391484534600897528e-03
4.077884791417342295e-04
1.641979176831116815e-03
2.812185411821235999e-03
4.132453614185519625e-03
2.345564850654439156e-04
-1.506740606456816092e-03
-9.054450524636520337e-03
-1.730753229639432622e-02
-3.034344551045791913e-02
-4.268128857868630499e-02
-4.512645301154780131e-02
-3.332996805213568614e-02
-1.205359043592133493e-02
1.379184558859581668e-02
2.413791968728148593e-02
2.299150039129620876e-02
1.241656309612952473e-02
7.877081078158694330e-04
-3.810523585991090843e-03
-4.165704818686514523e-03
-4.029886362871594636e-03
-9.005950811446652255e-04
-6.217781213802907152e-04
2.272151193586544830e-03
1.614431408748733150e-03
5.495372307508839026e-04
1.023301261596180596e-03
2.285449028368884226e-03
2.459245005406526883e-03
1.018321414649670268e-03
1.110313530480473059e-03
1.142091227467033517e-03
-2.053305999734862664e-03
-8.318845686605298717e-03
-1.559939707915464560e-02
-3.067555447917960296e-02
-4.300859381137868420e-02
-4.531844690210746346e-02
-4.097237195209144089e-02
-2.315777483944368026e-02
3.114406962358778289e-03
2.065190082801942467e-02
2.182813734095238184e-02
9.593551788937011715e-03
3.720565793343550147e-04
-5.770210508851614066e-03
-8.391389233282284948e-03
-4.949298336855715609e-03
-6.112313233859326296e-03
-2.768212131541448236e-03
2.484977890179967475e-04
9.266254014982440879e-04
1.243605161270880605e-03
1.786345787662141837e-03
5.080241594853684203e-04
1.475265600514083899e-03
9.432952554035623676e-04
9.602205486768966873e-04
1.701977727116601438e-03
1.777986579902509539e-03
-2.919582264099410303e-03
-1.009617846923653757e-02
-2.124824493076816340e-02
-3.514355249695794853e-02
-4.650386629081147694e-02
-4.471347964159880228e-02
-3.518818212200044288e-02
-1.258430884236813423e-02
8.001448870929522492e-03
1.458949202716954344e-02
7.964992015646809101e-03
-1.313310975876572681e-04
-6.714717732560002497e-03
-9.703210655389354206e-03
-1.051034318265952304e-02
-6.763860900160032462e-03
-5.085631855054641853e-03
-1.431478641602438630e-03
-2.986079495638174915e-04
3.164824702227066969e-03
5.909821345174055569e-04
1.249585569751744153e-03
1.878420788563632581e-03
-4.863521790359509492e-04
2.669201342148062438e-03
3.984136271453534123e-04
2.077220476496275444e-03
2.899615743073036614e-03
-3.162258748109822177e-03
-1.356401444559688849e-02
-2.235307941779720101e-02
-3.371815494484842884e-02
-4.229439968908193376e-02
-4.346770859440222956e-02
-3.300516805144145666e-02
-1.812208409289007074e-02
-4.667549768928049708e-03
-2.995677969897856015e-03
-8.741027894952452595e-03
-1.148700237966374278e-02
-1.144859743251340836e-02
-1.198202127235046578e-02
-8.562393240251368887e-03
-5.557622045808960701e-03
-4.492026443503155733e-03
2.596607006049786990e-04
1.110308817929004863e-03
1.543067286424521650e-03
3.222395262268020963e-03
1.202913793465761093e-03
8.879258607321673102e-04
2.551426637256793209e-03
5.602851069774169760e-05
9.921656079894644771e-04
1.408964910370257657e-03
1.687128801961053750e-03
-3.616182187607426893e-03
-7.153188349607553405e-03
-1.999048825621426578e-02
-2.886695064071546565e-02
-3.762018499475589667e-02
-4.221783358892002014e-02
-4.003021220979579436e-02
-3.465403026801507080e-02
-2.697977995086917394e-02
-2.653147743052169244e-02
-2.487320279564097028e-02
-1.893706102456996221e-02
-1.448370539482301406e-02
-7.851616479639106708e-03
-6.114638237495812444e-03
-1.746049067047179826e-03
1.302200050885528532e-04
9.082966201928278178e-04
1.370738561404386338e-03
2.831162584078550631e-03
1.293774408318060492e-03
2.376575138832468653e-03
5.003249486822078937e-04
1.581995574684526415e-03
-2.791243842391384514e-04
2.168262215893136929e-03
7.152964801352629590e-04
9.323184787013472389e-04
1.637442046100767105e-03
-3.217636294370743773e-03
-1.161445266429261998e-02
-1.786361479986835893e-02
-2.428234285549885421e-02
-3.114374559384574734e-02
-3.363802719750620673e-02
-3.459010013562729274e-02
-3.520027447111834240e-02
-3.050005651413642549e-02
-2.305581841852328423e-02
-1.403432792034230679e-02
-5.753759152957288112e-03
2.967166667641833993e-04
3.530253328867544432e-03
2.614259904134971172e-03
4.390025807103152197e-03
3.165360317186575491e-03
4.671549631672285326e-03
4.055977989246229635e-04
1.240762281555227121e-03
1.094683278760782410e-03
3.319308728098803885e-03
2.291632859305273249e-03
1.853585153366848776e-03
2.525907579910538405e-03
1.731690107903913808e-03
2.094650167910265103e-03
4.523992982577108336e-03
-9.197075495908195453e-04
-2.211692672999352339e-03
-1.998407766601704647e-03
-2.090046917264192037e-03
-2.327768541521940161e-03
-3.563707023730129132e-03
-5.952298766969855645e-03
-4.872103997073880949e-03
-4.606414046385036085e-03
-1.131438625412428678e-03
7.089225474676777265e-03
1.274978582761762506e-02
1.262892675163248060e-02
1.020286896498168346e-02
6.587429682705281744e-03
5.658422462883466557e-03
3.740720734077947196e-03
2.142080021882107003e-03
1.229753831608117100e-03
1.618105881674339764e-03
9.285022823026124880e-04
1.853778097266121959e-03
1.171222164665757567e-03
2.401354121297738422e-03
1.511867381341235137e-03
2.454118420945960739e-03
2.126219557287222818e-03
1.446711571093954726e-03
4.687735880084078696e-03
3.836424084801350141e-03
8.090658352158644831e-03
1.287980394800106350e-02
1.826811838358682188e-02
2.157526346567678263e-02
2.334499448392021725e-02
2.158681807239664144e-02
2.019370670202379550e-02
1.670202454425299271e-02
1.811639216984864062e-02
1.793357914378354220e-02
1.340988577303636915e-02
8.144214730181282072e-03
7.008079514953266184e-03
3.587995459106202781e-03
3.493912833345119966e-03
1.894800978568193578e-03
9.310022198477772458e-04
2.167487173057053122e-03
1.516930290511364415e-03
1.198356336353053296e-03
1.169996951576447383e-03
-4.935975257874661076e-04
5.026415542427146175e-04
1.176545778344182270e-03
3.503290143534795644e-03
6.964969149346222129e-04
2.435875768588821599e-03
2.091535670941750344e-03
1.656151252492314404e-03
3.477129237093043793e-03
4.348290715917808857e-03
6.986350876308456033e-03
6.535513138561323612e-03
8.416185871747203576e-03
6.512697374573223584e-03
6.387457484643779999e-03
5.467307199873853822e-03
5.766215541744803413e-03
4.163196128719188170e-03
5.218039505571652088e-03
3.265107125981369166e-03
2.012725149286895710e-03
7.031681659240246289e-04
1.730145466042154728e-03
5.894380218022952835e-04
2.575209887886668013e-03
5.882767389885258527e-04
2.473295648370656998e-04
1.838584129522505446e-03
9.409192747777844236e-04
1.369740501720934480e-03
1.254591293925793260e-04
-3.245266500384024486e-04
2.816239693090799492e-03
9.339377666194313742e-04
4.252826817873335921e-04
1.186850871004634447e-03
1.740965491845106660e-03
1.869345347536512819e-04
1.686015454252286520e-03
1.749961804735606025e-03
9.292232472653144150e-04
2.946802405500400721e-03
1.359955890195224974e-03
8.249865890043938613e-04
7.889627357800099846e-04
1.013929209727667093e-03
2.377709693849365102e-03
1.493421376183044118e-03
2.956728553326514863e-03
7.365204943278699269e-04
2.352522701090522562e-03
1.660386634695578453e-03
-5.010239890514222411e-05
1.689384545347207868e-03
2.377213076171615005e-03
1.415289093032352959e-02
