2.676735306224364407e-03
2.161575461427708844e-01
3.219317902211127902e-01
4.973046735607439262e-02
2.281607068959594919e-01
5.508236089957078141e-01
2.931322062714735721e-01
-2.499418541351528800e-01
2.864361856661274408e-01
1.762020303181022762e-01
1.396619123182380739e-01
-2.346688298246534798e-01
-1.973200971327302156e-01
-2.277333709693757369e-01
2.721266074422185599e-01
2.250223014512637010e-01
-1.253790685632950874e-01
-2.984452141306165873e-01
2.775839021688054631e-01
3.088680580942696485e-01
-1.843344299426757547e-04
-7.216882357641489498e-02
2.296880617219718701e-01
-3.467087225934888106e-02
-3.111682786979539928e-01
8.023554248071639028e-02
1.928732213893226688e-01
3.657724638576771437e-01
1.701411102617783055e-01
1.365593560908905449e-02
-5.897168815096436312e-01
-7.064613453085103467e-01
-9.847280571634249580e-02
2.139888141679509859e-01
3.878314167365681797e-01
-2.678723928454180281e-01
6.585173570789336350e-02
-3.426008759889263566e-01
2.417472188522171161e-01
6.249407391341268436e-01
-5.075981469677453423e-03
2.987760557762788594e-01
1.124631599047533626e-01
7.891567406847970201e-01
-2.458627413187486621e-01
3.396331063517893933e-01
3.364249799375400585e-01
3.206687499177616751e-01
1.450744733167285694e-01
5.904200593735737801e-01
4.246895223569183142e-01
6.999574525866268937e-01
8.283586068950440917e-02
-2.339080705812836281e-01
-7.288034975952081829e-02
2.042505492978420045e-01
1.712103828233134672e-01
4.148450533333090662e-01
-2.711354166721270387e-01
3.742153323472701132e-01
4.597741474859954325e-01
8.233854241095418802e-02
7.221327222252638123e-02
-6.321851957404210909e-01
1.377365062085614822e-01
4.442307082655624906e-01
9.518053694476946713e-02
-2.945384969105847017e-01
-2.495962935256584303e-01
5.845434457930369643e-01
1.797157703505555537e-01
2.352852738757955919e-01
8.734458065282406647e-01
3.569642643906671964e-01
5.682346570093181892e-01
-1.012529936275069348e-01
6.317522409274334283e-01
3.333027459526677894e-01
4.505122836899460581e-01
-6.147121660608614313e-01
3.395919446618723692e-01
-2.380173545688528403e-01
5.798684630429036257e-01
-7.774695863424824216e-02
2.068304661221962160e-01
1.969432539634330681e-01
-5.167584617288425441e-01
3.400929358355906373e-01
-1.163833741633243601e+00
-2.367183595981149288e-02
-1.420785291231839165e-01
-3.018457800379441627e-02
7.282542554741550100e-02
5.691802903632624533e-01
5.665440845568198158e-01
3.922261335779821945e-01
-2.103023829007933110e-01
-3.696301785008970775e-02
6.419781210778319203e-01
-2.936193600426481587e-02
1.412753236529341316e-01
1.245621018018415183e-01
-1.297450601952112592e-01
-1.152440091585305720e-01
1.103310285653794215e-01
-1.772256524209538942e-01
-4.585530882077549220e-01
3.168213671746381022e-01
1.229308077699968055e-01
4.784768321337850017e-01
1.101251985411941942e-01
6.276449062242944743e-02
4.235301506263432214e-02
-2.570174925940607036e-01
-1.442810607282017932e-01
-2.695163083163998330e-01
4.408735205593038442e-01
3.298783225911012390e-02
1.626653105210724426e-01
7.152689198307696783e-01
5.929639331655485179e-01
-2.665150972867980639e-01
1.281301255067962108e+00
-1.022572520553825248e-01
8.743021519393603946e-02
-4.292909613337397845e-01
-2.017120094325776034e-02
-7.622605894750162925e-01
-2.720960569225783221e-01
4.674260091472842715e-01
6.437659113467133487e-01
-3.113300819091152083e-01
-1.787280234745297625e-02
-3.635600902620050312e-01
6.871316887666130413e-02
5.041346948569459113e-02
-3.987357739476925511e-01
-7.959310894594064933e-01
1.932191077538630286e-01
2.375675832158810896e-01
1.125154173049129763e-01
7.534470977986250373e-02
-2.515165988394407193e-01
-5.425176222316182434e-02
1.643686159540646285e-01
-9.570986579162510388e-01
1.313085961935261947e-01
-1.953992806031202845e-01
-2.028213307746735417e-01
-4.576399579553456776e-01
-2.709834768580287809e-02
3.390099205526657666e-01
2.635916808131425482e-01
-8.129285246092113892e-01
-5.955814277990543193e-01
-2.405062723881756515e-01
-6.422363517990645754e-01
-4.519425137845626828e-01
-4.104267320164555199e-01
-6.636468824173282766e-01
-1.039223793090483294e+00
2.891680992268589323e-01
-3.914498978969544463e-01
2.595945027792223581e-01
2.322447005762052485e-01
7.702441619189087652e-01
1.525184569398292389e-01
-4.448346739789338922e-01
2.306595651145682269e-01
1.396866196711765706e-01
7.702582180152470334e-04
9.203128950639093142e-02
5.865886575073228637e-02
4.803270206638043383e-01
1.280541118302268300e-02
-5.263482994847951124e-01
4.817954519234778910e-01
-2.761655597794754335e-01
6.274964560134746461e-02
2.404911757735775091e-01
-5.077965771620727153e-01
-3.027498315435430132e-01
3.987426256389896007e-01
-2.918340985335662885e-01
3.771988193388977062e-01
1.623197760155286606e-01
1.735481374186112202e-01
-5.516322075794054952e-02
-4.790322325671257375e-01
-1.096757886199765074e-02
-3.204934492730637796e-01
-4.687427902208813890e-01
-4.129661971635990025e-01
3.837937488011585740e-01
6.227492823086880902e-01
3.385266702267253902e-01
3.982579481475739258e-01
-1.902030743419184933e-01
2.671818658460827778e-01
1.720620764394442392e-01
3.549413421350653408e-01
2.178396956813339891e-01
-2.367181639992606279e-01
-3.293686833623577503e-01
-9.734520730448394110e-02
-6.180508572020118052e-01
1.029520121267571420e-01
2.522940461540216228e-01
4.672032647908981595e-02
-1.888702293489181450e-01
6.208865405200520993e-01
3.264850540045459160e-01
1.247278207452716892e+00
4.012410491272481727e-01
4.112452510664364458e-01
-4.377130099578379618e-01
1.547494502849608433e-02
-8.513236260906970054e-02
-8.268404525870237665e-01
-1.005759648878109092e+00
-2.270609064953853784e-01
4.554484574410621600e-01
-2.520521859727745118e-01
1.593279897286505598e-01
1.611844093124743527e-01
3.708118886925099722e-01
1.320085304536513238e-01
-9.688787377243271437e-02
9.263004633470008076e-02
-2.522826626438698372e-01
-5.470172910785261466e-01
-8.245594298604204120e-01
3.342627482750727772e-03
-1.653850940456480234e-01
-1.156438108154378003e-01
2.246466807433822668e-02
4.106446937254643048e-01
-4.783583754524137754e-01
3.845189653469959778e-01
4.621149376870115066e-01
1.792442853457755503e-01
-4.544613240924887110e-02
-1.263533453302862104e-02
-9.564196096807908720e-02
4.203919639763061822e-01
4.355074173856489095e-01
-8.322615349980660993e-01
2.450831963832093008e-01
-6.143943610765987412e-02
-7.970949880381990038e-01
-4.851695827897631874e-01
-3.856161452043946336e-01
-4.722604350414332797e-01
-4.346996559881354250e-01
-2.079265181376568558e-02
1.619639041427896331e-01
1.739202275391216468e-01
2.359032151073403860e-01
-3.919533372057387166e-01
6.458730385653835282e-02
1.042178417347374014e-01
-1.040703718946705658e+00
-7.337423486102628845e-02
-1.995679227155575108e-02
-2.174722207853969635e-01
4.735299437779711962e-01
-6.200604795896353522e-02
7.611566115087515794e-01
1.795614329105653037e-02
7.048174005781336904e-01
1.416559738579253047e-01
8.626881635717715824e-01
-8.320060454631574842e-01
-1.690633663287775812e-01
-5.568709678074839076e-01
-9.130385052657282730e-01
-6.058244952445175358e-01
-3.746822825320185735e-01
-2.124722911804412251e-01
-2.070210248892035698e-01
-3.892364757105913342e-01
-7.180163845086477981e-01
4.720520214078310350e-01
4.332561346370040201e-01
-3.325802651589513381e-01
5.460913702163650019e-01
-4.260514029037685280e-01
-2.787491738537817287e-01
-2.345883449943750587e-01
-4.090909095831146702e-01
3.610625482095955463e-02
4.069899052596545053e-01
-3.065429063752755923e-01
4.434281222272209999e-01
-6.550627311899290088e-03
1.043191927367262684e-01
5.627780516555485057e-01
1.793404264951445337e-02
-5.192890989709347815e-01
-4.410929344585366452e-01
-5.578505300125063959e-02
-2.319574963189008632e-01
-3.620366285480550728e-01
2.040134795399398682e-01
1.918632238086516104e-02
3.734267580285640653e-01
1.228823625039352496e-01
-1.442202717149326241e-01
6.796028976529604193e-02
3.683440463892637129e-01
-5.329111396650006993e-01
1.121148172857111547e-01
4.425139164427221994e-01
-2.400303948946429511e-01
-4.774812876175422716e-01
-2.503210134757543615e-01
3.047328947670049221e-02
5.557204377112411331e-01
6.209898028264124875e-02
7.484179929420055055e-01
4.410720277114179577e-01
-5.321104872299893263e-01
4.224322957300433168e-01
4.660349248536056477e-01
1.151579952723329026e+00
2.315647746866088819e-01
1.283004648148809101e+00
5.542030454819462104e-01
4.831712292106306039e-01
-1.405625415407423806e-01
-5.790316529378710525e-02
-2.765613649303022004e-01
-9.582056257173872105e-01
-1.867228498433473050e-01
1.947644520083132436e-01
3.445274561607656119e-03
-1.882482887516176429e-01
3.654982606674555545e-01
-3.108902792804469489e-02
-3.664380454094481876e-01
2.786885116561371722e-01
-1.061783881931940149e-01
2.932103812034677071e-01
1.039812690455619082e+00
5.595543456853120379e-01
6.636126846814652813e-01
9.045868490475753587e-01
9.947585914913567584e-02
2.386869684157599258e-01
-8.842756890272516213e-01
3.350937208686875501e-01
-4.503331923438318452e-01
1.364691346119105919e+00
4.281175484734582315e-01
-3.627333210138708464e-02
4.680979760722123739e-01
5.080719057806301064e-01
-5.229029738079703921e-02
-2.721293677034344327e-01
1.070425256638107170e+00
1.193173836541493692e-02
-4.629368144440283439e-01
6.250471599523141908e-01
-1.141343977966665646e-01
4.327910919532202416e-01
-2.986292617887681758e-02
-1.093928794779883973e-01
-1.780555613612257171e-01
2.747978870991363287e-01
3.102774840623185315e-01
9.413836609082210094e-01
5.161881499201884660e-01
6.831823870493674011e-01
6.949808301211501949e-01
8.199032044257343887e-01
7.164773177214774080e-02
-7.682026354751068098e-01
-7.772307424506565976e-01
1.929595592530884418e-01
2.928866942217331903e-01
6.945644522309359914e-01
1.812725193230286580e+00
5.125208408973420671e-01
8.217057678468726589e-01
2.255898623883137166e-01
-2.412917089083966016e-01
4.837763511363170066e-01
1.265972546334812876e-01
-5.713758775875359824e-02
-1.014041267140550623e-01
8.743634561231882207e-01
-4.773320661297972833e-01
-2.151459836417912996e-01
7.454290524913459448e-02
6.321991875317877208e-01
1.553164246888490141e-01
2.641097819443896100e-01
7.009891927106098874e-01
1.154575442225650006e+00
1.848704920498650539e-01
1.918445479157753208e-01
5.783596439414898649e-01
-5.938072062531320888e-02
-5.169212603354842450e-01
-8.034791982823846768e-01
-4.381188701084538506e-01
-1.025259624961530003e+00
3.843574384959704826e-01
1.358140531788032401e+00
5.263024470156135726e-01
4.364098086999519399e-01
6.026215900692352134e-01
1.023324655383133441e+00
6.801200490948889898e-01
7.954271180908536465e-01
-2.256456679645001736e-03
-2.787222486199302240e-01
-2.601071641725011818e-01
4.965218733196141154e-01
5.107337852791385968e-01
2.420248663437730707e-01
7.374636880907847747e-02
6.299209533978854525e-01
1.898396250071322233e-01
1.993251700800150461e-01
3.745789672515414392e-01
1.058918028549348023e+00
7.899892510270610790e-01
7.651795788069191140e-01
1.703019397494191511e-01
7.952251360517584855e-01
-5.063040320039300379e-01
-5.420669063014341149e-02
-1.010419957027551607e+00
-9.039887434231983487e-01
3.642366634407938064e-01
7.284900156410175631e-01
1.610632885650259194e+00
3.074251696315338789e-01
5.427443400293393561e-01
7.509455029581407759e-01
6.517599234730639957e-01
4.930057694107357613e-01
3.714828279304170366e-01
-5.455510700969185001e-01
6.181183751630099123e-03
-9.710753420322401630e-02
6.433117912981155539e-01
-6.307132566640658022e-02
-1.879444505329634085e-01
-8.611811430384347377e-02
-2.540673446075826791e-01
1.197231523588562357e-01
8.112896617578438940e-01
5.222291101418323755e-01
6.090663363215524928e-01
-7.523451216923877916e-02
-2.481736323567933777e-01
-8.344546384759319313e-01
-4.007327149494767649e-01
-6.428245849721999639e-01
-8.781060258407781260e-01
-6.309057124824603013e-01
7.187806568097804272e-01
2.309365722285104394e-01
5.908255889694032925e-01
6.004027949357662042e-01
4.115625766855325884e-01
3.943424227951783378e-01
6.438585118240465477e-02
2.272764645178973475e-01
4.517719655244161608e-02
-4.135252519163003515e-01
-6.771324644726689490e-02
-1.045298216778580702e-01
4.474330006913241342e-01
-1.837759913793728939e-01
1.431725833974082374e-01
2.197703846367793368e-01
-1.280804350632981300e-02
2.606698427409041147e-02
-2.156086301011152784e-01
3.353915125742310543e-01
-6.814393675204648559e-01
1.217040896116199089e-01
-1.422031717419103003e-01
-1.524256254258894994e-01
-7.383026597397209789e-01
-1.016408387125534274e+00
-1.619305078822966149e+00
9.610178782520403112e-03
1.210701927450044568e+00
5.138049408785272387e-01
-1.913753402409408833e-01
3.096268045264133906e-01
6.805281679842057896e-01
6.366509746359627631e-01
4.727885217892365266e-01
5.360717377419823571e-01
7.788540287484735369e-02
-2.806901588762767408e-01
-3.306091508005453150e-01
3.250869506924671803e-01
-2.721307572441977046e-02
-9.549665512016709823e-02
-5.304430398203751063e-01
2.743519830410997007e-01
2.796432463553473191e-01
4.342417850313570193e-01
9.421679949828780376e-03
-5.299810413154050215e-01
-5.845131764916394745e-01
1.403290150814864856e-01
-5.769122069226282346e-01
-5.145178073744020031e-01
-1.437342905975977692e+00
-4.407714462597883687e-01
-9.874835069535653487e-01
2.526244159743213924e-01
-3.230124738702302989e-01
5.118864695574490975e-01
7.400357836801780831e-01
-1.443363814600010508e-01
4.058075762587744217e-02
-3.446354382462621380e-02
-3.315424498440916468e-01
-2.697300814171443850e-01
-1.112296005469300519e+00
1.197062200954058381e-02
1.855364105482221193e-01
-2.887419543034721592e-01
1.023278293871925232e-01
2.355717131659272323e-01
-2.034079428117533672e-01
4.817166054253120833e-01
5.654232829619966483e-02
6.448125820371901351e-02
3.033744853717446673e-03
-9.193371037590607198e-02
-1.261288844132877118e+00
-5.273681877694528231e-01
-1.051102997303048792e+00
-5.051902452510428354e-01
-6.656745153111669477e-01
-8.151655767533733110e-01
1.256945175636339264e-02
3.199494312412586722e-02
-8.964362584707544768e-01
-1.096379152684861906e-02
-3.089645756512310881e-01
-2.954559457374121845e-01
-8.836427537866954618e-02
1.480335979054147634e-02
-6.725804424677237492e-01
-5.282799926692440806e-01
-5.849501261131122565e-01
3.163433624132912514e-01
-1.732439130361692128e-02
1.836377751335578346e-01
-5.053447589868188539e-01
-2.159965034607924661e-01
2.551705094204668733e-01
-1.859554717171196803e-01
1.990076287712639613e-01
-3.485070414108978887e-02
-1.811221320528791368e-01
-5.831816809625076647e-01
-6.150765295345506090e-01
-9.169351741725032534e-01
-1.573210187064003618e+00
-5.575682902356352555e-01
-5.963261625283029499e-01
-1.575012107456170707e+00
-8.527228934735168187e-01
-3.449216008573500747e-01
2.063102494459812253e-01
-1.361991953713316827e-01
-9.647255893260241466e-01
-9.151531108177296536e-02
-6.015229609862949856e-01
2.343993364317615291e-01
-5.505911988885825448e-01
-6.160781887508667842e-02
5.187509996102572796e-01
-1.222303169135336570e-02
3.980522299869172498e-01
2.964805037148057765e-01
-1.469424087451718375e-01
-1.605244868178341833e-01
6.556185677469382744e-01
-2.746114439752562197e-01
2.652629096033077283e-01
1.789976314837729010e-01
-6.084777841928900033e-01
3.045006391625207920e-01
-1.041695407787480709e+00
-6.309350060535627858e-01
-8.806820113153464025e-01
-6.218236799436597240e-01
-8.713103416260541412e-01
-2.919372916756409753e-01
-3.493047857685516733e-01
-9.433927254617451297e-01
-1.153496440212565144e+00
-5.599769923030227525e-02
-6.877572787919091768e-01
-4.187056208520436029e-01
8.285845491290293185e-02
-1.129157461767228421e+00
-6.777167131409618239e-01
-4.409862103390919108e-01
-2.734085697658095726e-01
1.298623801075879380e-01
-3.955884263941055606e-02
5.208729553407204227e-01
-3.963417937454125073e-02
-2.304627384128867806e-01
-1.387637883700196528e-01
3.130716149288135797e-01
4.309425740809338934e-01
-3.893152328507338417e-02
-7.026864975438582572e-01
-8.655568243272150630e-02
-9.053267912207009216e-01
2.916952825131052807e-01
-4.916963249438882078e-01
-7.316603058966179018e-01
-7.783214189990765586e-02
-1.004968981419654295e+00
-3.898976592554924125e-01
-3.435090695670824368e-01
-1.179381307213407393e+00
-6.910753277808533435e-01
-5.095414868462385671e-01
-4.819987219327986350e-01
-1.017857742589500569e+00
-2.525258578377549412e-01
-4.655237519738630314e-01
-1.862550803744556227e-01
-5.684462871184393640e-01
3.327678388120032249e-01
5.762608808289990669e-01
-7.617025073738269147e-02
-5.813566469138170545e-02
2.868886757664879661e-01
-1.472553169162836850e-01
4.540403770808771888e-01
-8.726021447410999832e-01
-2.003087485151155978e-01
3.170935450932295119e-01
1.081429596980433727e+00
-2.390115280538064602e-02
1.536575894063964449e-02
-5.936324122055950392e-01
2.550453158743059001e-01
-9.515446896529254905e-01
-6.185194292320543852e-01
-1.452805031069953179e+00
-5.312834661183341023e-01
-2.725686483967197926e-01
-6.841793972598883000e-01
-1.010412371518560448e+00
-5.274258358726732210e-01
-1.088936502629385572e+00
-7.145603257212499448e-01
4.868632920596834696e-02
-2.788560445733292426e-01
-2.529547343691688349e-02
5.533805732693972690e-01
-4.375731016274849727e-01
4.249960758873359556e-01
-6.104059925678048115e-01
2.101844522712104785e-02
-1.284584521629493492e-01
-1.146374710416535464e-01
1.790560137808395735e-01
2.922271736527155550e-01
-1.761532381703112271e-01
1.276031622403933641e-01
6.948192776105556467e-02
1.133699526401281465e+00
5.314945055458178413e-02
4.791954342921558307e-01
1.396724214371825312e-01
-3.569761148162212128e-01
-4.288508818064384331e-01
-9.307410616870362974e-01
-7.411636250985728092e-01
-3.038352534770016322e-01
3.150045466343179973e-02
-2.851589434734316461e-02
-1.181237588860513908e-02
6.452655993164398973e-01
-2.173110586909492159e-01
-1.613117980504130689e-01
-2.942633389954819878e-02
1.503574927461450716e-01
-1.831689746228184201e-01
4.429152988179679840e-01
4.198475063267891327e-01
2.958443318254139753e-01
4.239378556364014061e-01
-2.744295666576597736e-01
7.453647189194223532e-01
-2.813466728282268403e-02
1.219180621180177143e-01
5.384286680148467896e-01
2.281482002173432500e-01
-7.166198285702245485e-01
2.204833009417561940e-01
2.518073269779059209e-01
-3.635390717386725867e-02
4.745148056950349580e-01
-1.550780947257244906e-02
3.314030244807178449e-01
3.777529608120545612e-01
4.025563261697531758e-01
-2.518447856396114834e-02
-9.466702589139815160e-02
-2.396671063007694280e-01
2.776581779583307541e-01
-1.471171649601429599e-01
4.341546351089152211e-01
5.617916484255115472e-01
-2.092938901572087562e-01
-3.078599239359671724e-01
3.098591854478248142e-01
-8.217068732943506593e-01
-3.112431934942994083e-01
-4.845853322382408512e-01
-1.597106303371138153e-02
-1.500398327774664642e-01
1.642084173103981692e+00
-5.807567902369006330e-01
5.883808158589615839e-02
2.724647818714914238e-01
4.929586562193342680e-01
-4.027114405788387863e-01
-1.302545148492118277e-01
2.074737505832332796e-01
-2.320344997689068878e-01
1.753790506143193192e-02
2.481358738236185899e-02
4.729299363447847515e-02
-5.063882864706635567e-02
-3.709398389694548714e-01
4.849925519067909141e-01
-4.285259837582840459e-01
6.491314596177543139e-01
3.252248872820676096e-02
-7.168946893664430997e-02
-1.196896996198170832e-01
2.053980281499607485e-01
2.826720617057683627e-01
5.324467413032927254e-01
6.129568269778780110e-01
1.658601014577264221e-01
5.762370835669190505e-01
3.571974533878695679e-01
3.502298550300745328e-01
5.195589355047842972e-02
3.922943982759007908e-01
-6.224885349259884348e-01
3.667590765821361620e-02
1.988507853431104866e-01
-3.006925097268163261e-01
3.406115832571751101e-01
2.515932842598235797e-01
6.147126135148935772e-02
-3.328835635813671145e-01
2.507363206647672538e-01
-7.380660370362553957e-01
-2.305513504596963525e-02
3.320682657178691821e-01
7.453868581910987057e-02
-9.198025301380642615e-02
-1.409309311701491263e-01
-5.631142721646606453e-02
-3.124309705971540785e-01
4.878628413699768185e-01
-4.665812610176239272e-01
-1.612676495758294248e-01
2.991533316245288954e-01
-2.443219574415163020e-01
2.855768441292837689e+00
