-7.229300883781548297e-05
1.732190120310338937e-03
1.482258914605179322e-03
1.709864545667280958e-04
1.227641793098955669e-03
1.906548044083486524e-03
2.691706810450704684e-03
1.590338714356519202e-03
7.690640499249283080e-04
1.210296212326224339e-03
1.185153094679117398e-03
9.357452401996107236e-04
1.608144905855313223e-03
1.863465259565346994e-03
1.248942557496920654e-03
1.321704691146871440e-03
9.439348998933567774e-04
1.559002504698488167e-03
1.816491818751432910e-03
4.205508016273060428e-04
7.137534242633094021e-04
2.828627661958719766e-05
3.473422634676431951e-03
3.780272797956651704e-04
2.451295960275738737e-03
6.830983139401723995e-04
3.408879538631272039e-03
1.491089746972740085e-03
1.007387256368607979e-03
1.803662481451385633e-03
4.857326849674139017e-04
1.196535893184254296e-03
2.139082907945031274e-03
1.631854413253577916e-03
2.148957952523254233e-03
8.646921518428537417e-04
1.778576079340345954e-03
1.662710288940633541e-03
2.010726102670388257e-03
2.446529627937607206e-04
8.627282902346897946e-04
7.613480011942039315e-04
1.555113189047732658e-03
2.443908954358632981e-04
4.988737018996473914e-04
1.714687901517035831e-03
1.630126868922990606e-03
1.331523964495341054e-03
8.489036290514408471e-04
1.655304912682067746e-04
9.864247434480122052e-04
2.536671601507294385e-03
1.903869639754808248e-03
1.668943325860347375e-03
1.213812877869284088e-03
-1.896725596241270913e-04
1.369700808345755954e-03
1.102099371102203918e-03
1.589578048458211964e-03
2.435188442314766000e-03
7.514133729411524984e-04
2.392515165531454002e-03
1.444352562488617408e-03
1.391463054558455311e-03
2.186002549321518652e-03
1.936217332460696185e-03
1.548573776673800497e-03
-1.269829695988837243e-04
3.022858816904485258e-04
2.579076775731574921e-03
1.232171000106543088e-04
2.945475279633957507e-04
2.774528102159247271e-03
1.466091483012177659e-03
2.553167983831700853e-03
7.249681907603949902e-04
1.294262295886044632e-03
2.635679634653403328e-03
7.406884555411935057e-04
2.051947151675725511e-03
1.079577661372276356e-03
2.394054287771049238e-03
1.348886090125087393e-03
8.655381916609434156e-04
1.080822864393063583e-03
9.365361611816509996e-04
1.478281674317016197e-03
1.750692081182808179e-03
2.824810582352861761e-03
9.243612527334591151e-04
3.854733587280189701e-04
-1.306048233143437907e-03
1.660317242736647535e-03
1.085721110898272114e-03
1.230664908135713134e-03
1.519994136306359852e-03
1.428101478782988767e-04
7.096694012241155751e-04
1.146295971076410122e-03
1.405906730265096393e-03
3.115805766012513865e-04
6.870650837440447347e-04
2.224130945195313888e-03
2.801473211128302845e-03
2.318664442961196597e-03
3.435850260795481840e-03
2.211640987062903161e-03
1.104782111469151083e-03
6.631046299936248396e-04
3.283885311924518609e-03
3.400615782922956128e-03
2.393003268337085942e-03
1.949724858509044789e-03
1.802894324787816631e-03
4.926355573873516082e-05
1.262443937360330877e-03
1.978716877480147726e-03
1.462241854520381296e-03
8.169067066189692307e-04
1.452303570438474075e-03
1.403654604605479453e-03
6.986960510751720390e-04
1.985985684861939085e-04
-1.681831025894410644e-04
-4.165285853713526429e-03
-7.633816847212346150e-03
-1.064364377425552378e-02
-1.145894954178826482e-02
-1.408499907087106331e-02
-1.104479980385062940e-02
-7.259236638702808164e-03
-3.530619649759539173e-03
-1.576586446038947577e-03
-4.655857646127501445e-04
2.656445379020458690e-04
2.500985654657369279e-04
-4.489189524502973155e-04
2.165458766474016080e-03
5.113679974277334905e-04
2.295532788507442367e-03
8.922851290926971839e-04
2.035703705797990183e-03
1.968579489830527950e-03
3.171390448509856051e-03
1.967193734740279362e-03
1.164026505140161767e-03
1.835384843321176363e-03
4.679184056789983031e-05
-2.257803916138296368e-03
-5.491821719747843819e-03
-6.914406341802116669e-03
-1.500420776743834929e-02
-2.362166472490177804e-02
-3.325246523527897874e-02
-4.228973439350384306e-02
-4.622130334597850110e-02
-4.664668200536946363e-02
-4.200096741711055459e-02
-3.540992984128298049e-02
-2.635396844918180131e-02
-1.820766787911158244e-02
-9.545232697793434862e-03
-4.410947458846434070e-03
-3.420525764671564131e-03
-1.562899318797113680e-03
1.454591432473286870e-03
2.562833362171239217e-03
-5.669365503597406175e-04
1.111642565465095680e-03
1.442092340777593876e-04
-1.379949007976458772e-05
6.953856813794003552e-04
2.788182089803195531e-04
1.117163127083718125e-03
-2.407897551717784511e-04
-2.724208644181572332e-03
-5.535044114147499861e-03
-9.310072109102481355e-03
-1.590239298469275572e-02
-2.368453636326365089e-02
-2.620607289806181628e-02
-2.831390229393823676e-02
-2.543459247072391016e-02
-2.401732733131954969e-02
-2.564468208750534869e-02
-2.836143257872500087e-02
-3.003880552320621622e-02
-2.845996450795254540e-02
-2.584672708113093520e-02
-1.815925832449023780e-02
-1.210973123374223075e-02
-4.982957652675289346e-03
-2.791632480639484864e-03
3.072569161802634371e-04
1.878122262785305533e-03
2.462624908992151578e-03
1.557500495757770846e-03
2.124169647684402175e-03
1.078960154958342934e-03
2.491431287886989535e-03
4.520934479201440463e-04
1.022740435542908444e-03
-1.155346948001701249e-03
-4.507425080475181006e-03
-9.286751330635018703e-03
-1.355493777685908875e-02
-1.652107889028079854e-02
-1.165066357040426409e-02
-4.039980275040225277e-03
9.124475103787787339e-03
1.991174013221023650e-02
2.581818762475850126e-02
2.331427601890706872e-02
1.141652116477885615e-02
-5.276844278153547223e-03
-1.782427566084569814e-02
-2.319101958074600359e-02
-2.025917691878524607e-02
-1.540700844435466572e-02
-9.511555366854608853e-03
-5.216282060642773825e-03
1.372093556292271474e-05
9.043359780054044525e-04
7.870407006517309966e-04
1.814488739415080982e-03
-2.841047314997573897e-04
1.423023015098781206e-03
1.687626872058611317e-03
2.238725167645461806e-04
5.806055861536971012e-05
-3.344186750344545038e-03
-6.142603440080461608e-03
-8.287945805504456226e-03
-7.957594662022766593e-03
-2.439098712427074586e-03
8.947576425402321496e-03
1.899516969491820556e-02
2.724269029303693496e-02
3.239048579275491391e-02
3.533832268899291668e-02
3.279260996673181300e-02
2.431990749002102201e-02
8.534513319211199656e-03
-8.055387822354041424e-03
-1.702398604500669418e-02
-1.749623961069588299e-02
-1.639773791927037414e-02
-1.058558233337240743e-02
-5.945127989787271812e-03
-2.474975369604204799e-03
1.997844424666645954e-03
4.130528444291691609e-03
1.429741384467842543e-03
1.926189810050247826e-03
6.118600996426796189e-04
1.080169726847507710e-03
7.142024214582535406e-04
6.994732346980417521e-04
-2.397011531828054359e-03
-2.678627541707284329e-03
-1.259223089208807945e-03
4.751965085800466913e-03
1.290419468943449811e-02
1.960362322173105423e-02
1.991275925937292801e-02
1.721111686815684702e-02
1.599624454306830534e-02
1.730988713349257413e-02
2.088499687945878300e-02
2.197213573423438190e-02
1.124807391150725762e-02
-5.069032466496425048e-03
-1.248992922343553948e-02
-1.682326247469946232e-02
-1.643292590893975433e-02
-1.116784087134593297e-02
-5.051434936395850228e-03
-2.137302052433759803e-03
3.932784319867279623e-04
1.171765210587373670e-03
7.237433534949286405e-04
8.047093005996942209e-05
7.456126003168264032e-04
1.485707656317753356e-03
1.668551480158854189e-03
1.972023692044580761e-03
2.887160916868030010e-03
4.441639063511523128e-03
9.850449072095708580e-03
1.701176141423805036e-02
1.934564865859749599e-02
1.397802512173249544e-02
2.261330380476316015e-03
-4.540239990016571060e-03
-3.617749730971196297e-03
2.040490905061422347e-03
1.163972566876591598e-02
1.606840676011187657e-02
1.001696467592950307e-02
1.331049046927724458e-03
-8.444686763894298370e-03
-1.236208310202155554e-02
-1.207120565852608934e-02
-8.225888668795850941e-03
-2.731003085539830937e-03
-7.599708868537373690e-04
3.865989057596544952e-04
1.532425023042336722e-03
2.897981570253509772e-03
1.555478076917678068e-03
9.230097643337032342e-04
2.418482865350891648e-03
1.445942956675969537e-03
4.256427773895231879e-03
6.474929889811125751e-03
1.309237615337069567e-02
2.193841075794311299e-02
2.530337968554058695e-02
1.726321373725102012e-02
-3.990237454342654422e-03
-2.119713200982721590e-02
-2.259397604598686188e-02
-1.578144167985435706e-02
-5.596144087722076943e-03
6.925397716385252138e-03
1.636039257823157858e-02
1.618080740040827442e-02
8.506794491553292675e-03
-9.376364771466236909e-04
-5.251141232084274510e-03
-8.003881988083072843e-03
-4.155184735426075207e-03
-2.268875161069386186e-03
-6.844175642265739809e-05
7.613823888283416039e-04
2.101039829377841003e-03
1.297354305785460016e-03
1.949709925492054945e-03
1.729246952726064095e-03
2.698803432696978994e-03
4.313227801556976382e-03
5.140831257645785135e-03
1.163278948483825563e-02
2.101330002119819462e-02
3.059315319193070537e-02
3.126196896952965903e-02
1.205211387918235511e-02
-1.919745181186213040e-02
-3.612622298057760473e-02
-3.325988433405085987e-02
-2.331207617140810054e-02
-1.055749860444537766e-02
6.136916806036754775e-03
2.215107037270246451e-02
2.623239388036752856e-02
1.735046391034554894e-02
5.305592121808744982e-03
-1.132962668451036005e-03
-3.057771945790606783e-03
-3.142371755185903101e-04
3.707497081690848124e-04
9.403618484332078222e-04
4.240192479344249781e-04
9.296160362509081707e-04
2.003583541140521902e-03
2.005260084031862226e-03
2.499901538962455948e-03
1.109200597146824683e-03
4.723231579538968508e-03
1.041324241561606724e-02
1.574702481037187560e-02
2.804384476455220113e-02
4.113165125089310314e-02
3.713549633013985690e-02
1.434298049360902862e-02
-1.776180833239932033e-02
-3.519899075199137140e-02
-3.559837951385721316e-02
-2.353432254090223955e-02
-8.631841278106308288e-03
1.302922099948056710e-02
3.485022921591560824e-02
3.649991704999550751e-02
2.258663754940095844e-02
9.408158336982722775e-03
1.941484064888849984e-03
9.074497375024181359e-05
7.075344945623675188e-04
1.614337407998297884e-03
-3.900399464471484743e-04
2.548954387547045647e-03
2.190716183301724164e-03
4.778476825434551257e-04
9.464635119060225976e-04
1.684132065318369280e-03
1.731306066595708062e-03
3.463755312482585166e-03
9.773010399712020804e-03
1.784973600462742838e-02
2.877700463628665023e-02
4.404403056372603598e-02
4.342338112427057695e-02
2.426053033085293770e-02
-3.252213869368574418e-03
-2.102751240878512895e-02
-2.692059054649675529e-02
-2.063985416641860027e-02
-3.359610992018458552e-03
2.462650842873636073e-02
4.682217674786325751e-02
3.981884455643342619e-02
2.121314674618363094e-02
7.067645181599305909e-03
2.690014840204403134e-03
5.936267918681494872e-04
-5.551169311416175077e-04
1.522108985411003328e-03
1.243178446509463249e-03
2.652297122797004410e-03
1.125793103886862804e-03
6.127797226815473453e-04
-5.990581132139622626e-04
1.755120305443827770e-03
6.775629751508243899e-04
2.505565694523117365e-03
8.441976921954369092e-03
1.700282444186405201e-02
2.621227427190352469e-02
3.779226923483180317e-02
3.969804344969087018e-02
2.842851740994311802e-02
5.104771351243774652e-03
-1.470053574253750613e-02
-2.398700535883101573e-02
-1.991941498661554261e-02
2.870604635144104536e-03
3.435285958682581658e-02
5.003616505195437186e-02
3.530937048882620832e-02
1.298741002784869862e-02
3.139218201276016730e-03
6.178233759095978122e-04
8.479463939069465869e-04
2.082256105438530839e-04
6.252265662192419511e-04
1.806975391241071602e-03
7.820900836284273589e-04
2.436656940611659460e-03
1.150190529993165177e-03
6.027001606128058915e-04
1.562893976155464390e-04
8.331768294125132049e-04
2.767674345194401191e-03
6.495909449198465115e-03
8.963765109928798977e-03
1.673984982274679886e-02
2.264880534146376453e-02
2.255609282807610055e-02
1.196948364802846894e-02
-7.088492904427996961e-03
-2.467308257625184381e-02
-2.829039107348843909e-02
-1.355766180344394542e-02
1.337320183486218929e-02
3.739167263984961159e-02
3.989484431555549715e-02
2.201297257052970552e-02
5.996468623825163859e-03
1.000895716812936175e-03
-1.399240277599507563e-03
5.469605506325400874e-04
-3.901528305008897398e-04
5.503921032462613921e-04
1.480474799719631515e-03
1.162349474449043876e-03
1.326794697131676234e-03
2.317597831502941821e-03
5.123383901510506671e-04
2.761969883411955103e-03
2.511778651811374507e-04
2.402101575493734500e-03
3.230700170794250248e-03
3.362961756112262460e-03
2.878275230945008794e-03
1.507769594154368450e-03
-4.383474885010367125e-03
-1.883818511174339613e-02
-3.107981953302012268e-02
-3.553334179216524613e-02
-2.496879745420707564e-02
-1.649840619628807755e-03
2.328839878326416368e-02
3.238621560603653637e-02
2.492915520330865609e-02
9.827261138697564180e-03
-2.237936141462983140e-04
-1.342638995393687128e-03
-5.524985095378822514e-03
-2.847806846709942212e-03
6.612450405553261623e-05
4.429672982621625700e-05
7.095530308962123747e-04
1.087460160045153291e-03
2.665047048620803379e-03
1.829103923574189675e-03
9.214958149177480138e-04
1.136243473893229668e-03
2.815768610772655719e-03
1.529243655250321025e-03
-1.226290271572545807e-03
-1.826619608333079903e-03
-6.960716270240681867e-03
-1.701270377393880942e-02
-2.998734584909742984e-02
-4.148909202330797186e-02
-4.448322017588766247e-02
-3.379640162960445560e-02
-1.095759713463039485e-02
1.276194425074697429e-02
2.599307744145364085e-02
2.391447308946754308e-02
1.171769602457503438e-02
4.238032587879002290e-04
-6.354058969692856496e-03
-5.788144204968448739e-03
-4.354179199453063129e-03
-2.360753171136110214e-03
-1.101229753421141024e-03
2.738483493214699440e-03
1.327809157092744519e-03
1.228271037251457741e-03
2.228433850151049968e-03
2.997457414450002775e-03
8.524158988868721929e-04
2.246647887168053484e-03
5.794437197367086154e-04
3.397727683745004317e-03
-1.675010903967909639e-03
-7.099451922935741399e-03
-1.451227656320935172e-02
-2.962658632225467076e-02
-4.445554291811619485e-02
-4.837613056496151143e-02
-4.140094373191902100e-02
-2.280339533772654526e-02
3.179837719968856696e-03
2.119608610879997190e-02
2.254341690721434893e-02
1.131474814449424070e-02
1.080851732902190837e-03
-7.686676861013170409e-03
-7.949551285665882455e-03
-6.515358910697340196e-03
-5.958645935778467996e-03
-2.358034300454283586e-03
-1.762993425569125971e-03
1.494713105318294178e-03
6.062735438480323100e-04
2.109209731948758458e-03
-3.046143901180559568e-05
1.860277911565868603e-03
1.568330047606576283e-04
4.289382374440893795e-05
2.080001190154258384e-03
1.377769687431109745e-04
-4.268340945618299617e-03
-9.025569852812651006e-03
-2.123382227690769064e-02
-3.333741889759735122e-02
-4.716742207253828145e-02
-4.762022272194536138e-02
-3.722828976853156946e-02
-1.482004661299936646e-02
7.470623794591452552e-03
1.581919672261511770e-02
1.125584991718880240e-02
8.964396126886132370e-04
-5.588464196986426755e-03
-9.225937764281008299e-03
-1.092628555502153133e-02
-7.548107158187179581e-03
-4.664984000693614928e-03
-2.934116322939528052e-03
-1.246047053423901497e-03
1.282196675905254712e-03
1.879535884996316568e-03
2.921749023605077922e-03
1.338547550487098224e-03
6.436891970880133590e-04
2.393995409117956850e-03
6.876177564943343652e-04
1.772521268209112898e-03
2.027452696400226448e-03
-2.427133620066182149e-03
-1.186209912012999371e-02
-2.149580888189439251e-02
-3.289715102515918671e-02
-4.424892227266395001e-02
-4.598452037264506853e-02
-3.462214352436163850e-02
-1.968283254000337962e-02
-3.846942670368363581e-03
-1.167820079846066577e-03
-7.046662827436820861e-03
-9.710281579398370722e-03
-1.118265480767546491e-02
-1.183196574838791745e-02
-9.323682530672372168e-03
-5.966851517657906570e-03
-4.193878002937819968e-03
-1.945545528358906453e-03
2.350661614927603016e-04
2.080988008548444266e-03
2.865607223445006038e-03
1.017573727030856873e-03
5.573085330052604362e-04
1.182787148744189089e-03
2.193439850174837746e-04
1.249701205029165284e-03
7.953826981314566927e-04
1.674915562229696304e-03
-3.228726335919062870e-03
-6.897010758906934116e-03
-1.896089630286242403e-02
-3.009462524721472423e-02
-3.942573817688367621e-02
-4.401774638444813648e-02
-4.151447241048898673e-02
-3.427838237117571824e-02
-2.634184800275229943e-02
-2.517723900467669362e-02
-2.368338043529036319e-02
-1.751993152460755432e-02
-1.341591340197255053e-02
-8.726517436112416620e-03
-5.570572786451386850e-03
-2.637548019302395595e-03
9.971907242926592811e-04
-8.784971518948455802e-05
1.473254871038237861e-03
2.928280253709903466e-03
3.378428427595787063e-03
2.461440685561482218e-03
1.937446509435042114e-04
9.352768911903803573e-04
-1.528589151073310231e-04
2.383372017733603136e-03
-2.568923477485682695e-04
1.236065760371648841e-03
2.717239629597069991e-03
-3.279996927081837814e-03
-1.008229385799403605e-02
-1.904371041581656016e-02
-2.664861986975057204e-02
-3.242180973569274566e-02
-3.528963316517059329e-02
-3.369873291668237097e-02
-3.479421572799110823e-02
-3.070515346150171770e-02
-2.234335074987733524e-02
-1.146135896343369875e-02
-4.319359161677717267e-03
7.397275182230997684e-04
4.244094971248177708e-03
3.071158687451800828e-03
2.374785436209196719e-03
3.061397810784008498e-03
2.949488983961914661e-03
8.794188009522422222e-04
2.135096581519760253e-03
9.105041929564924408e-05
2.006234008702346538e-03
8.058583208522908164e-04
1.881192782822007584e-03
3.068806471470277627e-03
2.645992879002876351e-03
2.113894197491794896e-03
2.137727137792228439e-03
1.218412717331237259e-03
-1.751773250307248325e-03
-3.043384285983089313e-03
-4.255353175227176432e-03
-4.454150906614224269e-03
-4.199787706975894458e-03
-4.620648230533374277e-03
-3.345165693753478046e-03
-3.817648639258262085e-03
9.066282208441265493e-04
8.500559758830204815e-03
1.384265269529586125e-02
1.316014550193222478e-02
8.599539446769038226e-03
6.075305763557502410e-03
3.784383733920531658e-03
2.029819677751442189e-03
1.515429097679484721e-03
1.407697338763815899e-03
1.854257697260763881e-03
1.221570701271311151e-03
2.666933417304559201e-03
9.223369494425495913e-04
1.811118018878259215e-03
9.924703511437070642e-04
1.723832709324787721e-03
6.236012963413524934e-04
1.118301584853877064e-03
3.380102619560180349e-03
3.841776671226820525e-03
5.364908261663166658e-03
1.109835468029746718e-02
1.723189217823450567e-02
1.998355267329153181e-02
2.334096242881789074e-02
2.266501080115042310e-02
2.069129114680972811e-02
1.837098604705793975e-02
2.026478417331454771e-02
1.809045638342880041e-02
1.369360723272004983e-02
8.581849493175894988e-03
6.579413879914406196e-03
2.167186111886083063e-03
3.928655444673447884e-03
1.827712943056679189e-03
3.400471956473396433e-04
1.419657458632676058e-03
2.312196525612618403e-03
1.335234045914319686e-03
1.197639712880911979e-03
2.092566068542339470e-03
-3.365799091095773903e-05
1.411997401867413383e-03
3.495691520214750173e-03
5.931608497984943969e-04
1.335583152734836927e-03
2.659512041465427173e-03
9.097028988058076387e-04
4.084443451919246917e-03
5.500972129095599468e-03
7.313945571527612211e-03
8.163031810518431297e-03
8.329621278737103438e-03
7.325251478226502307e-03
7.480172107679986665e-03
6.447802387383883525e-03
5.604537674796397292e-03
5.691118068948178114e-03
2.609155127971767019e-03
3.961862103434701798e-03
2.546195383041832856e-03
4.611943005820215154e-04
1.112493602934843968e-03
-4.061608480810120205e-04
2.039172505116003831e-03
2.744866810800807889e-03
2.194622639442319646e-03
2.372438133915872032e-03
1.081513428931352334e-03
9.285638583434053378e-04
1.903520062748544929e-04
6.299234535326010210e-04
2.129412604136543975e-03
6.388208470487375876e-04
-3.769326577768347523e-04
1.221554219595690502e-03
1.260447344457989085e-03
1.736003709538998154e-03
2.041865165576879377e-03
2.230414759026509187e-03
1.088838731868369035e-03
3.278075164635712701e-03
7.481216011275964054e-04
2.366482781129417273e-03
1.628681949958148102e-04
3.093509112981255953e-05
3.005830412633742196e-04
1.571052439505434516e-03
2.869333862261606687e-03
1.762888498820463883e-03
2.600406330027971950e-03
9.915506405070301232e-04
8.311626042908084547e-04
1.692537431420503306e-03
1.846561194616580049e-03
1.399122745569208667e-02
