1.310061283473998028e-01
6.402300450095421702e-01
1.059173966314745474e+00
-1.225446819782673342e-02
5.124657112603050457e-01
1.621406055531646739e+00
1.054953568178408130e+00
-1.079995749686530226e+00
1.447032939680027441e+00
6.130937515400765314e-02
6.906574247005519140e-01
-9.299383309770219430e-01
-3.072760919250632217e-01
-4.895931037878587522e-01
1.108681501817696979e+00
6.859547942700734424e-01
-5.137574591199400853e-01
-7.829704445118285117e-01
1.063949164848707607e+00
1.085316462205569099e+00
1.583153329648927798e-01
-7.691068715515705922e-02
9.522532153181982872e-01
-2.637645504617562864e-01
-1.331620081163610969e+00
2.037262829055298818e-01
4.930594429059126371e-01
1.545520228679054586e+00
6.956339096781466447e-01
9.996390641674839095e-02
-2.198967248972191868e+00
-2.430861333553977044e+00
-4.241969198381501660e-01
5.358075762830217387e-02
1.313778429124232705e+00
-1.039371204114305058e+00
4.464762011578361500e-01
-1.211380054402382278e+00
7.495081354555702680e-01
2.054677433368861994e+00
7.498339175474681359e-03
1.112750269853240548e+00
6.335245765637402826e-01
2.786875674711041029e+00
-1.103550827035408632e+00
1.184893383183902582e+00
9.515462008171414743e-01
8.138108331301636689e-01
5.443932931011755683e-01
1.806551479247932690e+00
1.057217469875604943e+00
2.083956052635079104e+00
1.518016295062485921e-01
-7.582866823511262844e-01
-2.797131913378059220e-01
8.495388904936853613e-01
2.907437621633762737e-01
1.534452748472226125e+00
-1.242798743292176988e+00
1.194956389050463086e+00
1.445752202239805939e+00
-6.446523420578209596e-02
8.010900089519738809e-02
-1.922530184496286321e+00
4.167051237074165249e-01
1.454416152775701354e+00
1.899069839255856929e-01
-9.447798044635575820e-01
-8.379755657601826169e-01
1.609848962315866272e+00
6.141452713811894615e-01
4.568592049813329781e-01
2.342400063159544743e+00
1.329286269417361055e+00
2.046112061707554108e+00
-3.956244582885424799e-01
2.139829870367549347e+00
1.245955921217890117e+00
1.499000339760861111e+00
-2.069171106825293815e+00
9.297130946154226194e-01
-7.350313499030488584e-01
2.001043747859743149e+00
-5.529263719254287057e-01
8.378720958353056414e-01
6.077764969692247554e-01
-1.648136763890690748e+00
9.614143945389829193e-01
-4.009387622970582044e+00
1.542003727706790610e-02
-4.550956464719840833e-01
1.393103357564741962e-01
3.370646345185137061e-01
1.258781438869103209e+00
1.742365864200238867e+00
1.143477523237135696e+00
-4.106816004909368267e-01
-5.390063134661052802e-01
2.335724578929317286e+00
-4.437853174116419552e-01
1.719225401773097350e-01
3.578068324064714312e-01
-5.306985233962797921e-02
-4.994404567199182687e-01
5.469420351468874397e-01
-1.050362792560220804e+00
-1.703145598397659777e+00
1.190766154809867139e+00
4.645094946948464254e-01
1.289546138517470242e+00
6.680137574946535262e-01
-2.924566687772783488e-02
-6.417911770236265356e-01
-6.494125929301537425e-01
-7.118453955915918785e-01
-1.498293559880617520e+00
1.682938032189358335e+00
1.874630080483476458e-01
4.330062791184687288e-01
2.424554985422409992e+00
2.085966983269195385e+00
-1.038850927668365953e+00
4.253308570003941469e+00
-4.898844390147548689e-01
-1.018018914198844660e-01
-1.235614581873387019e+00
1.220751066904582627e-01
-2.346095290531287070e+00
-8.162611075992031173e-01
1.662004617328212364e+00
2.449652008215398080e+00
-9.866073857451470586e-01
2.527009449608361852e-02
-6.617561856528149100e-01
-2.319391169414115605e-01
4.371207551776464147e-03
-1.046885023757862632e+00
-2.773960682362641261e+00
7.917272009812386102e-01
5.620177849880212406e-01
1.470145072212638293e-01
5.781737667482227394e-01
-9.417994245021961142e-01
-2.241539600019641088e-01
6.136647052512945733e-01
-3.277698714926361667e+00
5.793087724510804781e-01
-6.578962137049160219e-01
-6.869427304824732294e-01
-9.253919761102726849e-01
2.731049754031902865e-02
1.154400797193048556e+00
7.970917341528335198e-01
-2.396036201078874939e+00
-1.978177446902413594e+00
1.220821907758001673e-01
-2.137296912047635722e+00
-9.226117520455255905e-01
-1.434904185555294864e+00
-1.823361771833565959e+00
-2.968330461095383122e+00
1.066640031688913304e+00
-1.077889431351491289e+00
9.488338217016771825e-01
7.028872194044497590e-01
2.264595293051649971e+00
5.018969158595975033e-01
-1.331435273573364775e+00
5.606956778383621609e-01
-8.216531527837665771e-02
-2.309025286865150628e-01
9.285675967356070704e-01
1.618922277294733703e-01
1.777509560628293572e+00
3.654958652550193698e-01
-1.551452041388372560e+00
1.456479052923098649e+00
-8.484957710349925186e-01
5.822839279544160807e-01
1.082441358373490647e+00
-1.849075163798620247e+00
-6.077692997897314875e-01
1.214867795118320659e+00
-8.839021759906239284e-01
1.139904145919569789e+00
7.075872048421616434e-01
6.905352425832000929e-01
3.968387342570497273e-02
-1.610990572848109315e+00
1.119012762891622159e-01
-7.831049607813267421e-01
-1.258240775070444961e+00
-9.753708486997879623e-01
1.355027094304876556e+00
2.119660691587272883e+00
1.145381122886487413e+00
1.312936703642193503e+00
-6.422756770479750577e-01
6.205764726076922200e-01
6.218622292438721333e-01
1.215718405560054727e+00
7.172731839276452748e-01
-5.510405377944614935e-01
-3.851389342625829992e-01
-2.993028077315990632e-01
-2.016737722112943665e+00
-1.324870037953553292e-01
1.209517741734751795e+00
1.572011939510135070e-01
-1.101978824755881714e+00
1.842930197127405467e+00
8.435470962429642006e-01
3.752498580657706917e+00
5.755978700757026223e-01
1.450393211818601369e+00
-1.444528776369765843e+00
-6.936502747226523657e-02
1.262197678130446699e-01
-2.678807793100571821e+00
-3.117511532856255485e+00
-4.418444755622243370e-01
1.232380972120002971e+00
-7.794608550658634893e-01
6.514255925343709341e-01
5.807374550672061986e-01
9.750724202232676774e-01
1.240690606677547908e-01
-4.406417998057884922e-01
1.379098577452068652e-01
-6.375196434963831260e-01
-1.553326276438556475e+00
-2.916367672610380879e+00
-2.170434139392964645e-01
-8.614141982025285138e-01
-1.104097741383580893e-03
-5.405733045735126030e-01
1.803283407637168656e+00
-1.601658691061680573e+00
1.138958178336558547e+00
1.175674360308035959e+00
4.378913887147942718e-01
-1.296726777810152387e-01
-4.979768579013724161e-02
-4.292264805404586436e-01
1.474852904134059006e+00
1.478398281645856738e+00
-2.598958430539053399e+00
1.033881212738482658e+00
-1.965224568318260645e-01
-2.107992687000341814e+00
-1.541147214455974801e+00
-1.442703170975882632e+00
-1.681379404770138253e+00
-1.208429761701448335e+00
1.340286607223877165e-02
3.607500106356300584e-01
8.002118422942007259e-01
5.202019629279267532e-01
-1.023430573904582808e+00
2.335551612958010337e-01
8.525381364149903218e-01
-3.498039811981255909e+00
-4.362551439009527271e-02
-1.823416163885528685e-01
-1.046126495885222329e+00
1.630003843809350039e+00
-3.225795159668826129e-01
2.644878314046438916e+00
-3.564054907580770371e-01
2.320295567156839933e+00
-1.794317538736275863e-01
3.298901898877920846e+00
-3.028740985359180016e+00
-5.817458152912372560e-01
-1.572144973473885932e+00
-2.602437468684982491e+00
-1.978945116748492383e+00
-6.440814422146327045e-01
-5.813937574002452369e-01
-3.606103806504750708e-01
-1.932854338697540753e+00
-2.442329754427710053e+00
1.326485919410121284e+00
9.602691182409506254e-01
-8.236719502126663706e-01
1.708457605125241363e+00
-1.339294360718418453e+00
-1.070076158404717592e+00
-6.134348850120109331e-01
-1.085629617750160758e+00
6.865263428113464739e-02
1.326404055073563182e+00
-1.421059096033636004e+00
1.322885872357857595e+00
-9.366601867639608170e-02
-3.524461555569657119e-03
1.952315047993011365e+00
-1.284353205117347851e-01
-1.725586300475111079e+00
-1.614565165290017257e+00
2.316101615521080903e-01
-7.271273533718398685e-01
-1.152266259654374014e+00
6.087568878850232457e-01
2.923630598058794550e-01
1.364896743914355337e+00
1.359695703256147969e-01
-3.678235634999709180e-01
-2.084541533088556109e-01
1.274588180290069150e+00
-1.599572615821719834e+00
2.111764161654893501e-01
1.143353807053722582e+00
-3.902222753015044954e-01
-1.671266361173103565e+00
-7.331034308750631334e-01
-3.112030363006848543e-01
1.749904515568383667e+00
-1.367111284257467863e-01
2.254686809729267605e+00
1.677583819917872976e+00
-1.773201938644650477e+00
1.645934588497547590e+00
1.305170924783838782e+00
3.450111504748889502e+00
4.608065873847670413e-01
4.360164669339645194e+00
1.580208129752614044e+00
1.738248146115370263e+00
-8.782106101804046938e-01
9.418992182486415898e-02
-7.846014499659187402e-01
-3.381980222836885819e+00
-5.789660756494826588e-01
6.960575742895445117e-01
-9.118600872357232601e-02
-4.526009052772139718e-01
8.076338752435748836e-01
-3.911782211240137641e-02
-1.287348703394834093e+00
7.542494320947590314e-01
-7.092203568476300735e-01
7.669170585422498965e-01
3.477513549984883046e+00
1.686372515450922371e+00
1.890824030300947367e+00
2.596473376534984112e+00
1.267354249438647218e-01
7.221922902436340719e-01
-3.076036294596168563e+00
1.475121635787937757e+00
-1.745883545146046156e+00
3.990293504772783884e+00
6.680524094127128221e-01
-2.102200650930922399e-01
1.170679026787158294e+00
1.700063860621958467e+00
3.969923224866319655e-01
-9.278930270238993083e-01
3.562338992544918703e+00
1.385163686999586231e-02
-1.518330680901077034e+00
2.269458836187943529e+00
-5.038909059125286083e-01
1.553035694502987063e+00
-3.032430655287802757e-01
-4.400061013781372266e-01
-5.199531163382337118e-01
5.317569310066739829e-01
1.013570696817897909e+00
2.860230240365209564e+00
1.603612901045524231e+00
1.828396242128452975e+00
1.781478446090490664e+00
2.676137062277764489e+00
5.593107694840816491e-01
-2.020631890461142444e+00
-2.264398324734253620e+00
6.255820486278671488e-01
1.302230520127620750e+00
1.758106938077719228e+00
5.137565182086819782e+00
1.084279473826680107e+00
2.503995013300903238e+00
8.334540164870742063e-02
-1.207657810776480156e+00
1.723273549896550572e+00
4.560065711712714409e-02
-2.204263505565667580e-01
-2.585333534607572314e-01
3.068282087184971196e+00
-1.583966093320161139e+00
-7.191390398378535442e-01
2.437838891215188264e-01
1.897527653884756083e+00
3.953644028576072111e-01
6.719784918133508977e-01
1.968681329303589411e+00
3.691821953995420014e+00
4.872703047838122248e-01
4.670079184928280780e-01
1.550996299880615492e+00
-7.203891829805676716e-02
-1.539635729967603783e+00
-2.845315112409358083e+00
-9.889385058676460893e-01
-3.243657828366951268e+00
1.117874427418863448e+00
4.167653528832576448e+00
1.113230659362787200e+00
1.380978762819724759e+00
1.711523693064189278e+00
3.369608318134067471e+00
2.224297046947235401e+00
2.283732931247887343e+00
2.246691212306995422e-01
-8.619994823089541791e-01
-4.564329401409950027e-01
1.247140656494053035e+00
1.785749227062195299e+00
5.793507983869964351e-01
4.185773075444351732e-01
2.118834601435169773e+00
2.447844606542362578e-01
5.478248666874576678e-01
1.047579044950187166e+00
3.150548106362978995e+00
1.974257566167187727e+00
2.612722644879515332e+00
2.695229647808397022e-01
2.327763245987027219e+00
-1.756793535269778994e+00
6.446360243289637193e-01
-3.061832530144711129e+00
-2.469261205142523785e+00
6.639753767865788081e-01
1.807882340590745596e+00
4.906578267223547840e+00
5.451356992640692400e-01
1.157933679623118772e+00
1.970802325464248828e+00
1.914698898596888021e+00
1.015180316222551005e+00
1.270208599585651577e+00
-2.017144143905596820e+00
-3.256145160226426305e-01
-5.972383555987523795e-01
1.866285530558057681e+00
-1.388457712054618765e-01
-6.073502883173774736e-01
-3.427315448067896342e-01
-8.258237446850587027e-01
1.083158297114396179e-01
2.274637932515351402e+00
1.751631325452280397e+00
1.984361874015355243e+00
-5.046549007464282699e-01
-7.844914290273667934e-01
-2.790909173217192674e+00
-9.606354582961478261e-01
-2.006686401782687756e+00
-2.010055961857350582e+00
-2.121810362760573998e+00
2.592755737294267782e+00
2.100962860483633066e-01
1.742937859464130046e+00
1.859999394889904734e+00
1.209319908996167259e+00
8.755132659383371152e-01
-1.881346063039202043e-01
6.849288330488991772e-01
1.302350675234579536e-01
-1.152781492314853162e+00
-4.042897559663413132e-01
-1.856030599455369690e-01
1.315165337215222108e+00
-7.557058269845283727e-01
8.478984143706627119e-01
3.777003364274401087e-01
-6.954526396211090089e-02
-1.599481662715644126e-01
-9.539937522453366681e-01
9.406389551381363345e-01
-2.381658774509628707e+00
3.272592960576969356e-01
-4.299600375195299917e-01
-5.257892242049488907e-01
-2.072162059317412375e+00
-3.417008635448265608e+00
-5.064739745286336081e+00
1.766052514993978195e-01
3.902111011097020299e+00
1.692031264596355555e+00
-1.254644024535934266e+00
7.095419397856053134e-01
1.962436772474494440e+00
2.257615089842956557e+00
1.671377491294611994e+00
1.533376445863527726e+00
2.095607195909071629e-01
-6.827405415287252088e-01
-1.436408067532882082e+00
1.362857996413362249e+00
1.665305239156466069e-02
-1.403023437743690649e-01
-1.467104812409870451e+00
7.308011912167234891e-01
7.618162815490727713e-01
1.258230872308943260e+00
1.446877160587276348e-02
-1.437478973203460741e+00
-2.071779103045806814e+00
5.208273172441755250e-01
-1.215785108397813064e+00
-9.693125225476000306e-01
-4.209833664876393655e+00
-8.712820990251201048e-01
-2.481809715045054432e+00
4.087415527363343903e-01
-1.733532757941560698e+00
1.551182146556474351e+00
2.862056781431099761e+00
-2.736654648843278581e-01
2.907632212442800568e-01
-2.015140255794457269e-01
-1.209308091947268959e+00
-5.487830819187755615e-01
-3.487371879658460294e+00
3.219041809431349987e-01
5.109010292137615705e-01
-7.280492430656079206e-01
7.747471728132013236e-02
7.905844617765729332e-01
-7.063539341153272089e-01
1.208965578582214873e+00
7.951699693217854914e-02
5.546144933569014945e-01
-1.397419278813074109e-02
6.758415191017042023e-02
-3.775591299603339390e+00
-1.186329579547142021e+00
-2.722588296151132070e+00
-1.263594068600579323e+00
-1.706453531713261862e+00
-2.494223516734755730e+00
2.314252769671372445e-01
2.559954144113891217e-01
-2.870141931820846981e+00
-1.180048317809003627e-01
-8.310897417647772345e-01
-8.196598927545185598e-01
-2.935457150284580541e-01
4.321950060512647074e-01
-2.158508368563949009e+00
-1.628841545412978098e+00
-1.741332812008397957e+00
8.702139365031639207e-01
-1.957755357432948984e-01
8.139904439238351275e-01
-1.451569218774888315e+00
-7.989382487942502387e-01
1.209265571215941915e+00
-6.999519108573646342e-01
6.584036987140732267e-01
2.413070644242902574e-02
-2.295715667638695556e-01
-1.838116972204124622e+00
-1.732435919848164252e+00
-2.594806737965759336e+00
-4.935137323296363121e+00
-1.220272007961621386e+00
-1.255461384425927918e+00
-4.681437634663305758e+00
-2.711435920698393787e+00
-5.143900307195264920e-01
8.355055299892905074e-01
-6.521582657206749234e-01
-2.762875653697972389e+00
-2.166214098752818340e-01
-2.029988240576424463e+00
7.097653353142320265e-01
-1.355081905122435648e+00
2.753307812994136294e-01
1.829424055192045317e+00
-3.109189964256025562e-01
1.139245124665607456e+00
1.172795289154515697e+00
-6.081470424302818367e-01
-1.192808235489247970e+00
2.222746820444169824e+00
-7.103648777563892347e-01
6.990702464232334545e-01
4.867968101467584074e-01
-1.591518915265996093e+00
1.324565774876039548e+00
-3.367618021231349790e+00
-1.782025514717993975e+00
-2.601232066930850628e+00
-1.457091461720628534e+00
-2.523623884324854405e+00
-6.871232977552417243e-01
-6.983203479946674674e-01
-2.938504913404074603e+00
-3.419073571994485139e+00
-2.090228908006844522e-01
-1.652320492440523703e+00
-9.718165010143268168e-01
8.023330127990565552e-01
-3.358166544791199914e+00
-1.701496311889939106e+00
-1.086060097899511412e+00
-8.255030979602472341e-01
-1.160590002346770788e-01
-3.338628092069271646e-03
1.465527447576055353e+00
2.559294123431651857e-01
-8.080248759430964656e-01
-8.015496069348486685e-01
1.028753763444667735e+00
1.182163225249650340e+00
-1.682719259911193699e-01
-2.195638365109104484e+00
-5.545635618912007070e-01
-2.821698289140890381e+00
1.002708942282631632e+00
-1.609252792386311137e+00
-2.315723316764372708e+00
-2.811490911927655434e-01
-2.985659231431332383e+00
-9.749441817533386345e-01
-3.796953746087027293e-01
-3.446826171013022577e+00
-1.992244337540623134e+00
-1.489898098116629432e+00
-1.353109980124067580e+00
-3.051775798141072915e+00
-5.380027410615380035e-01
-1.420738344267010289e+00
-5.121904267466721450e-01
-1.852445726446781515e+00
7.852231652347495539e-01
1.580296965381672969e+00
-3.284566591561535187e-01
-3.535855416171144183e-01
1.148939782836992496e+00
-6.317904306573376427e-01
1.337880231249096941e+00
-2.737541197880768884e+00
-7.869455045916708968e-01
8.602312236493139253e-01
3.272751298032323231e+00
1.388316947012982749e-01
-8.369157061641258055e-02
-1.831376493682066897e+00
8.111744916697435359e-01
-2.520594276481027407e+00
-1.839393119640649665e+00
-4.242007873882703173e+00
-2.084202889907897926e+00
-6.193406608177273176e-01
-1.761444044303687839e+00
-3.440650274990051827e+00
-1.401309609426737213e+00
-3.210198138186421524e+00
-2.330312579526964356e+00
3.223097612169859572e-01
-1.060781586176156255e+00
-5.657208566449143383e-01
1.676572980250215172e+00
-1.451789653508965827e+00
1.487175508373271393e+00
-2.271289307780521849e+00
1.270197442410075372e-01
-6.435456759165949503e-01
-5.786367989242935383e-01
1.988480060322177778e-01
9.438147994062663360e-01
-1.375655274559529628e-01
4.276420851879857432e-01
-1.868206769868702433e-01
3.625033026224761201e+00
-5.835578046009367442e-02
1.512107560951612584e+00
4.894107839769925028e-01
-6.842870220574954754e-01
-1.232363367428207068e+00
-2.513810189280214047e+00
-1.965953513773703865e+00
-6.242774736167862049e-01
4.061865095938477777e-01
-1.530072797698499298e-01
2.973581787340882632e-01
2.008850129635788573e+00
-6.340774630278077639e-01
-5.432563049851465431e-01
-2.667412148828305907e-01
5.173293008372035207e-01
-4.729864635511568105e-01
1.484132427246227959e+00
1.452874703434889891e+00
1.361909458926211514e+00
1.424139142805361136e+00
-6.174198039448288711e-01
2.388938571438361969e+00
-3.830004891064865413e-01
1.988995713012921274e-01
1.297317184275584179e+00
7.720793297947275979e-01
-2.745040719536063989e+00
9.370659784168027251e-01
6.940570184638875650e-01
-2.116174262981985466e-01
1.224043547799804399e+00
-1.904994737559805029e-01
8.987778958643115601e-01
1.180059147809246589e+00
1.112524784888245577e+00
4.057896714958719904e-03
-3.048875808599245119e-01
-8.603739754385878458e-01
3.500724462879228893e-01
-6.549406756768941795e-01
1.257225603052117169e+00
2.104293845742967850e+00
-7.922959478107343134e-01
-6.824528674301425513e-01
7.959187303257317936e-01
-2.959195349318390900e+00
-1.198350587658544297e+00
-1.421528505622232652e+00
-4.805157554191154534e-01
-9.248437035937431272e-01
5.389391144762399222e+00
-1.843378105022298596e+00
5.234522061918199520e-02
6.136189157014844131e-01
1.366494539471146297e+00
-1.079513043275169615e+00
-2.472300476425531301e-01
9.373491555322149837e-01
-5.893964189682880939e-01
2.473285917425394331e-01
-3.477942258605898340e-01
-4.340876429850775153e-01
-5.042279717668005784e-02
-1.538600910600234961e+00
1.094490668853524973e+00
-1.473362267070177589e+00
1.947479663287813967e+00
-3.024068013932501575e-01
-2.665142984743448240e-01
-2.549868193830454044e-01
1.124737627652677485e+00
1.118755675650385584e+00
1.501575362879434827e+00
1.674966126279290979e+00
3.804268778771924264e-01
1.790371666724535293e+00
1.060372313826354773e+00
9.329160097093991411e-01
2.753353712837932621e-01
7.685523790581836323e-01
-1.774240664928608879e+00
2.482711455382140275e-01
6.571442418628683502e-01
-7.726906761396631351e-01
1.074488496033163987e+00
4.472464984937219445e-01
2.897889316331168641e-01
-1.052292311769447597e+00
7.056846877423246234e-01
-2.564093760162153401e+00
-3.496261747687680055e-01
1.268591772292120945e+00
2.043671285185784947e-01
-5.744228536971874854e-01
-3.868627410683890822e-01
-7.457016346785499961e-01
-8.367785486384917704e-01
1.854685055355857815e+00
-1.932265484086316265e+00
-7.180318275278032569e-01
9.172398326023352144e-01
-1.044065465243519064e+00
8.982666059939765191e+00
