-2.912481806486586944e+00
-6.086493317229411115e-01
2.158796343860974520e+00
-2.556334023290821822e+00
5.264320118252956426e-01
1.632538283315692729e+00
1.706750040163528492e+00
2.113051449882309640e+00
-3.623997992110487676e+00
-4.962323482138454867e-01
-7.449046050164093158e-01
-1.119400132798777037e+00
1.128727161709350391e+00
-4.180218332396449799e-01
1.847077809757636357e+00
8.829667405836139071e-01
-6.814212050672163734e-01
-1.352686768865238420e+00
3.061381843914160683e+00
4.781554425117069407e+00
-2.739330481018521279e+00
1.593984338994265393e+00
1.271538396782386782e+00
1.834977187716847924e+00
-6.914085675843948398e-01
1.826586850431892506e+00
4.353515449202233434e+00
1.291726394731061767e+00
-6.726100266985591825e-01
2.473058318558567503e-01
-7.070636544136897905e-01
-1.656299996546277242e+00
7.964356470123604703e-01
-1.250355664496672015e+00
1.556152389646098921e+00
1.785419602435664554e+00
9.146256420493744654e-01
-2.649086135838163436e-01
5.188509299717349865e-01
-8.387570150575115319e-03
-6.740487475649191429e-02
8.218152412428982867e-01
1.659158536918079907e+00
-1.204803633507294247e+00
-3.960044751226126647e-01
-4.016293043170676702e-01
1.618417225479259924e+00
-1.608419858821000581e+00
3.275700577621731391e+00
-6.814162776827424883e-01
9.320253882088060937e-01
5.852855103820958638e-01
2.098992205905647612e+00
7.535218429690090369e-01
-5.976457238044053932e-01
-9.459331331105327312e-01
8.155650999827103176e-01
-1.859352667697521166e+00
8.759632270505066653e-01
-5.479746396762565919e-01
2.302217175591478426e+00
3.118259799968240209e+00
-4.397774946870923185e-01
-1.868221731352444515e+00
-4.241290003457562352e-01
1.590873478682522935e+00
-1.577228299517383192e+00
-1.717736346238849077e+00
-5.884365273470691937e-01
2.713672989144499947e+00
6.326554279989777818e-01
-2.168745651669087060e+00
1.045016653100071968e+00
-4.525225905965488127e-01
3.853988407908399250e+00
-3.479935500404437998e-01
2.054511297712518836e+00
4.032632812680169820e+00
2.217315426594144989e-02
4.476522711427224799e+00
2.947406523010140944e+00
-4.436377994268812519e-01
3.153423673291926743e+00
-1.240927866835008553e+00
1.171663119860375302e+00
-6.214983968190650465e-01
-1.937467233662935495e+00
2.752177701508656593e+00
-2.125969637480206766e-03
1.865870624037710077e-02
-1.562360446282105853e-01
-2.673585661698463234e+00
-3.094496038779346869e-01
4.858021920131045945e+00
1.050327111311723849e+00
2.041348130067332178e+00
1.170857744562229685e+00
-1.532940670213425838e+00
4.105532273804116450e+00
7.064005852658237217e-01
-9.534391051064123115e-03
-2.900941420009536476e+00
-2.286596877386705806e+00
-4.598612985472030346e-01
1.689224472055023352e+00
-8.810531827219854062e-01
-4.432090569208046449e-01
3.326791638311920707e+00
9.245157627238705933e-01
4.645630091388741056e-01
2.740353960340815576e+00
4.150929574918966747e-01
1.267218263371485021e+00
2.532846659871970108e+00
-5.217272173072180941e+00
3.868175664005513159e+00
1.423779345655166395e+00
-8.546311434162116027e-01
-2.914086504007119827e-02
5.083834754955992574e-01
3.624358018641692603e+00
-9.004888624535826169e-01
1.335795112860751255e+00
-4.377531075795227933e-01
2.286024022973643655e-01
-5.684774112306351102e-01
-1.754844901718085604e+00
4.468393860485150304e-01
-2.316570727649571282e+00
-3.331537994438155792e+00
-9.513773649879634364e-01
1.333827148628799142e+00
4.632746280378388981e+00
-1.513995904608474330e+00
-1.387008809814961885e-01
-1.516937497689691827e-01
-3.571426045422538831e-01
-3.381244099945524439e+00
1.303874610767189468e+00
3.781581521675188906e+00
9.664927743376555691e-01
-1.832220271490208052e+00
5.704196976394551033e-01
-4.569389445650831050e-01
-1.241024680561505944e+00
-3.665591262963250330e+00
-1.678710625987620553e-01
2.136633916031441149e+00
1.961852805596317362e+00
-3.696285866379674712e+00
-4.818876673351030204e-01
1.412198637045224858e+00
-1.188261889178399422e-01
1.218503894721678416e+00
-2.762569773805862994e+00
-2.225277562719789048e-01
-4.819531503128656524e+00
-1.168715278991907525e+00
-1.097928491359809300e+00
-2.669189487601475452e+00
-3.489329215700148534e+00
1.985859803175455074e+00
1.861677712233312354e+00
3.301396074870030617e+00
-2.386977843730105242e+00
-1.145215502070018987e+00
1.822451071164327807e+00
4.816276004653403664e-01
-5.327626922072332682e-01
4.113382241238156545e-01
5.498988243865780001e-01
-6.270721890835664336e-01
8.812197383479490262e-03
1.363259511907158439e+00
-9.237375021887352933e-01
-2.636071969873779341e+00
8.369661573573896618e-01
-2.173976029244812924e-01
1.048137272213108595e+00
1.730896363127929938e+00
-2.159034205184815924e+00
-9.211553741529509010e-01
-9.454032753330241512e-01
1.587781957797937959e-01
-5.823673030241486304e-01
1.167549476784858209e+00
-1.121575320957425070e+00
2.184617457220673575e+00
-3.949763724942906062e+00
-5.996422614497486370e-01
-2.855441172310444031e+00
-2.085178925527478633e+00
4.563517634468242101e-02
7.827369048141904484e-01
-1.395319891737915041e+00
-6.196257511657514705e-01
1.675023695484876285e+00
9.274229820236375987e-01
1.180800224208839566e+00
1.541430509633968882e+00
-1.427580524963183439e+00
1.074944228328160056e+00
5.386437589648750413e-01
-1.853134202388953877e+00
-4.752864938536484618e-01
1.853058900102008355e+00
-8.213832118586743558e-01
1.617062793151406996e+00
5.977132550603505567e-01
4.225689386756831922e+00
4.420919465624917777e+00
2.162611161329113241e+00
4.008904982240707682e+00
3.334025227302197969e+00
2.864768127861455072e-01
-5.658881299820576194e-01
2.080772994403299603e-01
3.132055771860032256e-01
-1.612510228977061866e+00
-4.219838649419603627e+00
2.120651117556060505e-01
1.221550729403421354e+00
7.678311793708743060e-01
-7.632472565230854697e-03
-1.063093290546173408e+00
-5.034933641172314900e+00
-1.103467834210163590e+00
1.160788380959893118e+00
4.258427258686851014e-01
-1.348423004013289184e+00
-5.620203437141922942e-01
-1.278570294970567511e+00
1.639026106615437683e+00
-1.407454395262358604e+00
-3.132089342032290613e+00
2.604940554915168516e+00
-1.982578079230083778e+00
-2.045951976420020468e+00
-3.409301165476721907e-01
-3.397516535234174767e-02
3.036994756092200806e-02
-1.792626151384991040e+00
1.886394954925386447e+00
2.350196977311552082e+00
3.387669143542529238e+00
1.065309977452208789e+00
-7.619338581724542925e-01
-1.425022903642269023e+00
-5.639059319078616461e-01
-3.876598513093690634e+00
1.721510513893519390e+00
-1.980553432358083565e+00
2.134577988297797990e+00
-4.162533910732876485e+00
6.902174734427963809e-01
-1.005729018820644916e+00
-6.355326130783427452e-01
1.701650089588128967e-01
-1.269986739254518326e+00
-1.862347757161170847e+00
7.430030923759972650e-01
-2.396720007235070948e+00
2.216220544577427898e+00
4.385132794075059792e-02
1.638338563436687600e-01
1.268100720691887284e+00
3.348902219994558394e+00
1.408804427218809607e+00
2.102189429152560241e+00
5.407164695764840268e+00
1.654819131567759394e+00
-3.581231580653061020e+00
1.589827407555180205e-01
-2.161143156855436676e+00
-3.915604569273630098e+00
-2.816342236458043491e+00
-1.454779608445059047e+00
-3.177155091010380961e+00
-2.356357733780571007e+00
3.466861258109919797e-02
-9.654394067108728050e-01
-4.770375420947639000e+00
4.933029581834326160e-01
2.442163654932038686e+00
-1.354310866192020457e+00
-2.969050615136550886e-02
3.160390938760698987e+00
-2.383041344878588763e+00
-1.940179339775181200e+00
-1.157458103465667243e+00
-1.843741837161252395e-01
6.885918974558720151e-01
1.511923059960194493e+00
-7.965299030195683860e-01
4.852264100227774990e-01
1.312059766011042516e-01
1.516935054291240981e+00
1.676425637694751281e+00
-2.493628868974707924e+00
-4.375629833328655294e-01
-4.972156228168129188e-01
-4.969353238208555901e-01
-4.497134635505452005e-01
-2.190517970879458431e+00
2.344447905771999352e+00
-6.235021468355316232e-01
3.943851603809167106e+00
-1.232948818897317889e+00
-4.221675357696871300e-01
1.836118826118291025e+00
-1.133446942984245087e+00
5.411167958446900794e-01
5.593069053201562557e-01
1.884384386252204280e+00
-2.974013166493641336e+00
-6.792294178080865441e-01
2.258622913434243262e+00
2.643530888948714352e+00
1.522374600238384446e+00
3.408280375574626930e+00
5.092625851870203474e-02
1.612426279345646973e+00
-2.713458426085811670e+00
-4.575447360152750109e-01
4.917147899596225891e+00
1.095406972088010633e+00
5.311968464076191943e+00
-7.059784060828598884e-01
2.897018671230612519e+00
3.335613821958661740e-01
1.662486305786969432e+00
-2.969451270656472630e+00
-1.176037101083428515e+00
-2.590426393145094375e-01
2.210129623529699938e-01
-3.140339439719444847e+00
-1.597038655082644976e+00
-2.287657774416637646e-01
8.855293209336368987e-01
-2.328402509459129299e-01
8.193215815568521965e-01
-3.733735604174264200e-01
-1.211036625181318438e-01
3.720190583599919609e+00
-1.230774621111910272e-02
-1.110047263573985754e+00
4.854734745125560025e+00
1.887187348962411582e+00
5.837196503667082537e-01
-2.955787377119434733e+00
1.686068998587151757e+00
2.361593214024648724e+00
3.934140256543630532e+00
1.182348952923225394e+00
1.297971628182353454e+00
1.643351157275013463e+00
1.474807408454785085e+00
-3.660388846620480585e+00
1.171342200540280709e+00
9.490930771313821346e-01
1.000494648833240463e+00
-2.295221512659677832e-01
6.038954456867551279e-01
-1.446087101281462672e+00
1.631065184070327412e+00
2.523375689363506869e+00
-3.613995520709505804e+00
-2.646856058241930931e+00
1.731620713300300318e+00
1.754321928769331018e+00
3.129848958733784325e+00
1.670428243725651019e+00
1.427164685349223694e+00
4.752560209711629291e+00
9.792470672313817737e-01
1.714288839155459487e-01
-6.929522071107125036e+00
-5.349127010380646752e+00
-1.235396817327244712e+00
-8.983485374674263779e-01
4.767640244520631398e+00
5.702002973154429277e+00
1.081360985808911934e+00
5.771871799350640764e-01
2.379106934134441076e+00
-6.064578979936180447e-01
9.189442641268812384e-01
-1.111883775649361139e+00
-8.136912957621875719e-01
-1.129110987732661719e+00
4.574506622596659633e-01
1.740129867770100036e+00
-1.213346613208662328e+00
1.020561393951401996e+00
3.849621958646745501e+00
1.901002699866567447e+00
1.313259398402352174e+00
1.862638179780266245e+00
3.449341383334635580e+00
1.192207279980292967e+00
3.326491239102344455e+00
2.509291484213088896e+00
-3.549073983020013812e-02
-2.315008254887032102e-01
5.655344936697506708e-02
-1.009201657155550214e+00
-4.393012527767312214e+00
-9.412314177339319299e-01
2.723703419287762717e+00
1.228468180704439305e+00
3.858731106202879957e+00
3.325763056788650029e+00
1.106171181075265908e+00
5.229873764504104017e+00
3.051620983233326534e+00
1.888406201076230806e+00
7.571331212314528214e-01
-2.000388186567837678e+00
3.073613643385608718e+00
-2.855879817910980112e+00
3.082058213472555486e-01
4.005529725809542918e-01
2.037616035781844026e+00
-4.096886483506562704e-01
2.501048421708101266e+00
2.362270545870349903e+00
3.232361672490262183e+00
1.091625578408890629e+00
1.483000896023909831e+00
1.302225185186726808e+00
2.893248598608670619e-02
-3.154457819084563575e+00
-9.107554009762508507e-01
-3.587176096764864042e+00
-2.909321471400989623e+00
2.701189153498376072e+00
3.882520432059611171e+00
5.727031553274602338e+00
1.830029470610889719e+00
1.489686114991062293e+00
1.583207417073258627e+00
9.570997139173181845e-01
2.930126777034465224e+00
-5.045992696601340199e-01
-2.825467991592611305e+00
3.415567126466533487e+00
-1.078547745744675046e+00
4.466032454505116434e+00
-1.003873957301105069e+00
-1.447264208869616153e+00
1.222120346503215105e+00
-3.623723830272452151e+00
4.001768906742614873e-01
1.716348796187960657e+00
-5.009895135451712944e-01
2.894013819746026783e+00
1.463766072201370116e+00
2.029835199110063382e+00
-4.475287110181453976e-01
2.947446354974315730e-01
-4.357254962824846700e+00
-6.691085672360286729e+00
-1.776317295869972446e+00
1.999439241704806580e+00
6.382882079862023383e-02
3.808726956130460195e+00
-1.730491970479603792e+00
2.628925422132546985e-01
2.657995151105838616e+00
2.914900530209187490e+00
6.375560687549828298e-01
1.269866747988140698e+00
-4.224005117523062514e-01
1.975114995196044942e+00
-1.536143001399159491e+00
-6.549623273818736546e-01
-3.636106936492352615e-01
2.784396666048687963e-01
-4.569858049457509175e-02
-1.066294411372276318e+00
-4.224483729675033716e-01
5.434626107992220234e+00
4.751178425821453444e-01
-2.589964360761356943e+00
-2.285585067279367166e+00
1.299902143908243435e+00
-3.128024370294322232e+00
-2.535543235207347923e+00
-3.292309597993195780e+00
-6.523504428634723240e+00
-2.400450794566526547e+00
1.706562754208047483e+00
1.206543112107442584e+00
6.397252012685257228e-01
5.852976521552178957e-01
6.448244348485719923e-01
2.633869198954581936e+00
2.888781936929915029e-01
-1.345421644128309113e+00
-2.005689578359939329e+00
-1.708896586562216546e+00
-2.394271188005668183e+00
-2.956787008445579623e+00
3.340439546645184721e-01
6.394687341620833854e-01
-1.619535737621002669e+00
9.842615992237507827e-01
-9.019546582318251904e-01
3.164912476359202920e-01
-1.651595226910398617e+00
3.181097525494408756e-03
-2.606266526093443670e+00
-8.504353117059570977e-01
-3.072810176070689181e+00
-2.136100987662807427e+00
-4.220850185975948854e+00
1.681143438515285915e+00
-2.084383624883875186e+00
1.928097271891624942e+00
1.534685619647333965e+00
-7.054016763859097816e-01
1.245549667054603571e+00
-8.714905443506861804e-01
-2.570523750215003123e+00
1.510827202255947466e+00
-2.276462309554427410e+00
-8.956938336676114609e-01
7.522462088551077342e-01
2.785377479157714831e+00
7.540058245961683836e-01
-5.089824232756900990e-01
-1.039574375023912367e+00
2.120393245114138292e+00
-3.748858516630942384e-01
2.022053112630528560e+00
1.214343012324800908e+00
6.341207065727191283e-01
1.857384580137441565e+00
-2.746818862086372270e+00
-3.722445603049379326e+00
-4.558108239638685721e-01
-3.750177548329779231e+00
-7.844006025498826418e-01
-4.008931490600510017e+00
-4.273911949136040000e+00
-1.962434822247964838e+00
-6.010404981318365758e-01
-4.359459122586134328e+00
-2.424270786550072110e+00
-3.957156007583792157e+00
-2.346101937369133417e+00
1.292811313484750091e+00
2.853569424690487466e-01
-1.493720490745904073e+00
-2.281278882548777975e+00
-2.596750334406843663e+00
1.218594165224911263e+00
-2.078259845671784345e-01
1.609780365673328051e+00
-1.078693873304479967e+00
-1.061920738854551072e+00
1.308499496602581136e+00
-7.405779194420455402e-01
1.664493694499669552e+00
1.210783309779818878e-01
-7.084588421147047788e-01
-1.860219639222473687e+00
-3.416091121623881399e+00
-4.861876197542613021e+00
-2.868662375553768573e+00
-4.415480054583781566e+00
-2.928477915845361323e+00
-4.242956921659715164e+00
-1.485750534297563430e+00
1.560234758785588038e+00
2.930027815620551923e+00
3.506209882936826450e+00
-1.137954950934207288e+00
-1.303132007124611302e+00
-1.592484941503508056e+00
1.037368098938778738e-01
-1.812965905320899962e+00
-2.153928777032247499e+00
-2.330462835990272374e-01
-1.446597473746992879e+00
3.422910234274187946e+00
2.507897348705571350e+00
-5.924484146342192670e-01
-3.039070597697035581e+00
-5.860934696143086375e-01
-7.289513405252254774e-01
1.574033507245804417e-02
-1.321109184854033280e+00
-4.103831752578431136e+00
1.196125133763834336e+00
-3.718223133846753292e+00
-3.681369649971753422e+00
-4.564280542179335320e+00
-3.299626402808114811e+00
2.706886589310605884e-01
-5.617272866910183460e+00
-2.547313750068258997e+00
-3.258406328100345917e+00
-4.207043897111449660e+00
-1.347584905869847471e+00
-1.518222922637254113e+00
-7.495362434264961626e-01
-1.183306679661661365e+00
-6.936318995727627446e+00
-2.289166076922947823e+00
-2.247089448901638420e+00
-1.372150007203141175e+00
5.832182685140903100e-01
2.374846500559681939e+00
7.714496282640636027e-01
-1.646568227440747822e+00
-6.592437573782087279e-01
2.057174217381521508e+00
3.631000233639191332e+00
1.497303326406320911e+00
2.285932725157604484e+00
-3.495356629357950329e+00
1.137244337175894904e+00
-2.735500480499637010e+00
-1.403179393677975728e+00
8.618338786977530752e-02
-4.391327877888810960e+00
1.665788982071935820e+00
-2.623355631942788424e+00
-3.378675141360786949e+00
-7.806930717488976823e-01
-2.666227483240812379e+00
3.080580650377203189e-01
-3.486811651878017226e+00
-4.209998117289042163e+00
-3.828213216126304275e+00
-9.388886390214334909e-01
2.165212338703577100e+00
7.678476445790558547e-01
-1.294884203505191067e+00
-7.322105929523988754e-01
1.250251804267331401e+00
4.270473243160700649e-01
-6.001884286025120918e-01
1.188441411173701140e-01
-6.276953720932481051e-01
2.628697805155169931e+00
-1.722104399993261037e+00
7.825647653995195796e-01
1.250688412719685172e-01
1.156785638919925363e+00
9.699057076784705078e-01
1.239555896754466202e+00
-2.570008208264110916e+00
9.407793964239498097e-01
-3.843192435302011045e+00
-6.743043397489690838e-01
-3.471478679885828811e+00
-2.550106124591244416e+00
-3.762096242782183797e+00
-4.149757775691703898e+00
-2.441792524817429921e+00
-1.844319904412514033e+00
-2.817401417616646420e+00
-3.493762278468324656e+00
1.273313480124054431e+00
-1.020040075078068487e+00
-1.206365314894940255e+00
2.026630098198235252e+00
1.802402358636086888e+00
-1.888997589201443228e-01
2.241202195592306712e+00
2.717785480118586339e-01
1.481841506313856138e+00
-1.630722254123464277e+00
-2.168060007393625810e+00
9.910553733283542499e-01
-4.723093675517963663e-01
1.337897515070233023e+00
-4.262665407485064506e-01
2.376535507530928459e+00
2.073590380712138970e+00
5.936053595711675568e-01
1.263124639303816465e+00
-1.963944620957539078e+00
-2.412990836045233678e+00
-8.842404137871636705e-01
-4.508552336646473258e+00
-6.628783936059968740e-01
2.076727950659321920e+00
2.782658741271365130e-02
-4.786677860900901416e-01
-5.582810907175150827e-01
-2.254912238298697247e+00
-2.948829885829748143e+00
1.635439852861462484e-01
-8.024075575685364337e-01
-1.534405489623621131e-02
8.683734457510059457e-01
9.433812495154852984e-01
-2.753820899360143848e+00
2.886891927612859621e-01
-1.995616536831276377e+00
-1.044623686422138653e-01
1.920921073177765670e-01
3.175605218766548887e+00
1.618321953988267614e+00
-2.410799886069394660e-01
-7.565289178635377088e-01
5.797775023887851154e-01
-1.972356584627186882e+00
1.485925195846676816e+00
2.671990038964771053e+00
-1.737264535012595368e-01
1.086946496655752659e-01
-6.591101438934534595e-01
2.025538070600208407e+00
-2.225654284075377021e+00
1.727279167696284867e+00
-1.414931944544582487e+00
1.607503992391082104e+00
6.664003831730740401e-01
8.232305088292357631e-01
-2.653496735086677827e+00
-9.894282440625149985e-03
1.835885734834586502e+00
-3.981364323491278778e-01
-2.273688611722133324e+00
-1.910907722991878499e+00
-1.990990218814100654e+00
1.341116765268638877e+00
-2.513183159439623449e+00
4.514389363103939345e+00
4.117568282365424159e-01
1.330792324886921563e+00
-1.483538291504962636e+00
8.331968193096887798e-02
-7.504678165819081981e-01
-1.761975284314459822e+00
3.092752444413510715e-01
3.063356179085516273e-01
5.563883076020486040e-01
-1.627569994251550911e+00
1.663120214723445150e-02
1.860115876626093678e+00
1.615714778272241414e+00
-1.348425238811638283e-01
-3.638513735168137586e+00
-5.750047684127806980e-01
2.654210620138748755e+00
-8.799803715219142175e-01
-3.437911834363949204e+00
-8.522531652148196413e-02
9.127195747782409496e-01
-8.515550690924529598e-02
1.814813725875277894e+00
3.216587502366534679e+00
-5.688947195781757227e-01
2.801291403867432361e+00
-2.380380050875787745e-01
-2.156393923348559394e+00
6.066810746605150184e-01
-8.206268740125245709e-02
-2.413935912882497203e-01
-2.004136918738266132e-02
2.904246439411036218e-01
2.664076520122834690e+00
2.310219270254156854e-01
5.125428646748073636e-01
-1.093984020089313169e+00
2.583149482561131194e-01
7.840195337515978302e-01
1.522225439303034777e+00
1.257861674910444760e+00
-1.574926673000256461e+00
-1.765859799563762822e+00
-1.202723351338032820e-01
-7.443430642851955881e-01
-4.743994193181514385e-01
1.921845300384019239e+00
1.896516397032412593e+00
7.830050525475249490e-01
-3.750511135739736934e-01
4.843604121352683145e-01
1.492985290815209787e+01
