8.723567493245572855e-04
3.117647040282247890e-03
8.474011053950657353e-04
1.701739128443394014e-03
9.506781965260666274e-04
1.557697290493955961e-03
1.364093349120965894e-03
5.352632825997561382e-05
1.356971633454932824e-03
2.616856367833072898e-03
1.613904794850443266e-03
7.331347952341776397e-04
6.585397824739697105e-04
1.400653196661003855e-03
1.567031369605470991e-03
2.492169681967338745e-03
8.274638952592271732e-04
1.022430247182598562e-03
1.872973416489222232e-03
7.373468513346432412e-04
5.849311889034840154e-04
6.853616281120760226e-04
2.444730847040425207e-03
2.095023304633732413e-03
1.669745095795507851e-03
1.590369636018944439e-03
1.219925457159932048e-03
2.452856227821434247e-03
1.255325051234813978e-03
1.703672337922153626e-03
8.576035523298974439e-05
8.848383468445248767e-04
2.315666671315155453e-03
3.032862695689754386e-03
2.325465735566125455e-03
1.725460081881043941e-04
5.648284743073660272e-04
1.021355010960221712e-03
-6.591441213338087397e-04
1.241676734521362504e-03
1.249828293822042788e-03
1.901579060212822171e-03
2.103862402750800338e-03
1.423277818066696985e-03
1.003575433304281167e-03
9.823898897939548416e-04
2.253870081888174459e-03
1.909464121342998189e-03
3.210438320249117076e-03
6.279961032461681483e-04
9.235547109927168914e-04
3.458537678789103727e-03
1.942187777323316775e-03
3.267548277079075940e-04
1.490670002088501434e-05
3.622797513267493694e-04
1.376357388888378675e-03
7.017270259205582060e-04
-2.057672552873180695e-04
1.463488099521623783e-03
1.936860422565536482e-03
2.587731635201906931e-03
2.125144207452984296e-03
1.986700290195419008e-03
1.330813077323343609e-03
1.623230494549357007e-03
7.471700708383394434e-04
-5.028308933746390317e-04
4.529905830752641895e-04
2.093379312871592596e-03
-5.021545498507914073e-04
4.494261044151941589e-04
3.362057169804486337e-03
2.290658238478425045e-03
2.589086819524647788e-03
1.849655170476291466e-03
2.527303854478286579e-03
1.039822749318972030e-03
1.909770910159916434e-04
1.072840960751046463e-03
1.247998431440876460e-03
2.144877635875574746e-03
8.045727217783669267e-04
2.671866827695556145e-04
8.244197692053615786e-04
1.825938609821224591e-03
9.696510252384084533e-04
7.512247061892641728e-04
7.796125809899350379e-04
-6.662929320119677888e-04
2.490825134622586846e-04
-8.492457454418395404e-04
1.115603184491345545e-03
9.102905393561888485e-04
2.573491139327571849e-03
1.297744335897448292e-03
3.157587426672753554e-04
1.905371225483304225e-03
1.839397956147980175e-04
1.697755677752160177e-03
1.699319754049130127e-03
6.803138690985099457e-04
1.739704214311832723e-03
2.383119514752145372e-03
5.667819845733487738e-04
2.504215483642677296e-03
2.159326745323877743e-03
1.321608153794820678e-04
5.441949968247371348e-04
2.903497149505601584e-03
2.576339322651772460e-03
4.316057217542150948e-04
-4.840964562398437508e-04
7.122924210816694818e-05
9.772024451885617281e-04
1.769080903559799162e-03
2.313264169267801804e-03
1.779537597263149834e-03
1.399790049012315189e-03
2.555143182980344589e-03
1.713436039519031966e-03
5.714317275030358521e-04
4.681679543419067888e-04
-1.591475767162620070e-03
-3.848523776471081837e-03
-7.219952731193383585e-03
-8.879049756393919690e-03
-1.139646220551943263e-02
-1.233193690628100157e-02
-9.877969264113963671e-03
-7.765774542662444088e-03
-5.323776280694345053e-03
-1.981097313391583757e-03
-1.617128212722161078e-03
1.058855988833370910e-03
3.724754820375434945e-04
-1.085189965339759159e-03
1.766737028109587569e-03
1.674136051334778772e-04
3.784979707464639336e-03
9.468668036445343668e-04
1.257891121957910047e-03
9.889592629382655369e-04
3.176912504529912692e-03
7.647905647421230756e-04
8.603953400210996192e-04
2.020568629333641553e-03
-7.368552787307378364e-04
-1.477246081129579601e-03
-3.011924986324476979e-03
-6.116104646308388564e-03
-1.321314462726216193e-02
-2.178889934057941929e-02
-3.165759314146857767e-02
-4.135443447365015623e-02
-4.710620044970196402e-02
-4.748664453495317350e-02
-4.353833599498806162e-02
-3.664373605876132534e-02
-2.655216720842054276e-02
-1.959955491988539522e-02
-1.136612205592882688e-02
-7.351749792429007266e-03
-1.807285342984337601e-03
-1.456431078375711088e-03
2.228559347618269421e-03
1.028495302248543181e-03
-5.967770472880116637e-04
1.970550429873173628e-04
8.406875801832781664e-04
4.495006274703918100e-04
2.042613425559414077e-03
2.129085595178148264e-03
2.181331106594316602e-03
-7.299391004459664101e-04
-2.034741027103696091e-03
-4.946030033838285170e-03
-9.542010036992634725e-03
-1.662007472088599877e-02
-2.303134078684746996e-02
-2.764502850660807004e-02
-2.990533130213609420e-02
-2.638805803858399260e-02
-2.417270625668505729e-02
-2.288071742810005721e-02
-2.614025465442075882e-02
-2.819703173326464432e-02
-2.901398379733731783e-02
-2.472259615336192332e-02
-1.737479936424569937e-02
-1.356722029986704922e-02
-5.094578238502346992e-03
-3.751214594634995434e-03
1.961692215492215666e-04
3.054892630788476598e-03
-6.846976526837090073e-05
2.044726233316362073e-03
4.253792214592419301e-04
7.351256368774361982e-04
2.195307194037702646e-03
-1.359344451145788385e-04
1.984707058121490744e-03
-1.721996885550605011e-03
-6.279760150782167684e-03
-8.507936761443261539e-03
-1.412218860737162254e-02
-1.560369830146868253e-02
-1.341221273691536355e-02
-5.715536861830405012e-03
8.332275717864011388e-03
1.993122877314427652e-02
2.525849860397327146e-02
2.438069637706643394e-02
1.376370039593654768e-02
-2.929384817390856544e-03
-1.543152034806438352e-02
-2.029052877590170612e-02
-1.985548872014769248e-02
-1.704713227006760673e-02
-1.009643580338522029e-02
-4.926881078220023483e-03
-3.426884035591908485e-04
1.728144329241172554e-03
7.516009465989196376e-04
1.988840362645699460e-03
1.410251011547112828e-03
2.579843144258815463e-03
4.197344381813699894e-04
1.288230241127986302e-03
-8.086326979188363222e-05
-2.365131196088615315e-03
-5.791282391706048700e-03
-6.797535409692843401e-03
-8.353386081978391928e-03
-2.046539461050755297e-03
7.963100885374732596e-03
1.904056281879274587e-02
2.846019579279781761e-02
3.234382705289532561e-02
3.477718425776690769e-02
3.299005037348147484e-02
2.633208280689270514e-02
1.176690418064724360e-02
-4.452478521332502506e-03
-1.483810622034480338e-02
-1.711347339997410649e-02
-1.855397423029618229e-02
-1.063077079747133669e-02
-6.141011610136318244e-03
-2.955288848157962625e-03
1.446211444781033166e-03
2.035983356934870439e-03
1.809194881311227689e-04
2.297096754730960227e-03
1.318406583531939397e-03
2.361340520446466706e-03
1.207902718182751370e-04
7.254507420239310030e-04
-1.884265370391514753e-03
-3.580847432130568157e-03
-1.395709956809132544e-03
5.153592226153602164e-03
1.235472743073634180e-02
1.989944782073111915e-02
2.015612831095746349e-02
1.791530904157749224e-02
1.605210926462774523e-02
1.705760561624999547e-02
1.886177386787047869e-02
2.047553481912699896e-02
1.288780624112246739e-02
-1.311641611391027975e-03
-1.277913517881571967e-02
-1.710191178392306277e-02
-1.797247151527782416e-02
-1.214920175537546367e-02
-5.422330699069414714e-03
-2.145206918996138065e-03
4.391079698398775650e-04
5.276347213247108148e-04
3.181298695566066813e-04
9.368747182946441168e-04
2.513716721927615927e-05
7.529752667134949513e-04
-6.156655906112963551e-04
1.335009669913414087e-03
2.908566665484347332e-03
5.942091508657044475e-03
1.053621138893420968e-02
1.779108161741954977e-02
2.018924036245103165e-02
1.378626090500502388e-02
2.804440534151185580e-03
-4.123905150801754523e-03
-3.113594550624445689e-03
8.064407018114069054e-04
9.170172212873129586e-03
1.311854691643803660e-02
1.148334015262671669e-02
2.929375212889937571e-03
-8.422193507907205570e-03
-1.346857127552643016e-02
-1.143377659235369354e-02
-7.203773786315890125e-03
-2.122146072160643882e-03
-1.492154638987228457e-03
6.894049285243836981e-04
1.517189512101312912e-03
1.411395506852109946e-03
1.575992121612865195e-03
7.754743128113040498e-04
1.079504477426644670e-03
1.257423248429593438e-03
3.650467868018996646e-03
5.644257431212725863e-03
1.411469866957527908e-02
2.212460382173679976e-02
2.649027782674327064e-02
1.663711035987286771e-02
-3.874451829767191265e-03
-2.164931400268469905e-02
-2.372328499407467747e-02
-1.596302434609232768e-02
-5.641473487967956987e-03
4.756303677059068452e-03
1.447129080776254038e-02
1.542475090778292965e-02
1.064270613380809832e-02
4.212301481180519259e-04
-4.975734151696165931e-03
-8.553151569696538364e-03
-3.156965995636861009e-03
-4.122238477644296802e-03
1.981126779320384584e-04
1.490881498807376153e-03
1.404818776281954252e-03
2.098204622932653158e-03
8.610271426856642768e-04
1.401547360864775727e-03
2.861511771351313727e-03
3.319895062692760929e-03
4.977716920655470348e-03
1.130065321342687938e-02
2.151526253637115957e-02
3.314720260364854842e-02
3.291661058931926592e-02
1.314954702071454741e-02
-1.902858887730075887e-02
-3.453113286492339590e-02
-3.236649647455849127e-02
-2.145467541173839629e-02
-1.069298775301071730e-02
4.959452529899815477e-03
2.115382413227126848e-02
2.548966283259545412e-02
1.880355397756690999e-02
7.249978432461561158e-03
-4.679469066282302358e-04
-3.935399480688289535e-03
2.325052711162911578e-04
-1.457307512491229709e-03
5.973643476419346300e-04
1.034128689101566868e-03
1.374767341306547741e-03
3.337780959599558712e-04
1.937399502377856134e-03
3.253944979702948909e-03
2.535503187768255954e-03
3.195728409245340851e-03
9.206790608504664478e-03
1.680072423496770453e-02
2.864122394398344040e-02
4.176589019223722610e-02
3.992194566772874070e-02
1.687393419095952959e-02
-1.566819301051180363e-02
-3.370403050424586322e-02
-3.284154147498007104e-02
-2.208693349013177154e-02
-7.588202390373306218e-03
1.312201451419109377e-02
3.526995250673305854e-02
3.838051254282769803e-02
2.597937334546242261e-02
1.007353209137724047e-02
1.680233977855041892e-03
1.167629749919541068e-03
5.011695362173295299e-04
3.201357421009656985e-03
-8.247221897273266863e-04
1.637456629819316950e-03
1.986434748191502273e-03
1.314624602756585443e-03
6.924066913224986072e-04
2.160724918517257197e-03
1.730882410214357918e-03
3.613436084972403064e-03
8.320137578981418383e-03
1.858215084450024271e-02
2.736772130714769033e-02
4.227147051805304340e-02
4.329183399423604250e-02
2.635191808627110679e-02
-2.898906287815611652e-04
-1.978727844965323668e-02
-2.477955778542298079e-02
-2.011848701855410010e-02
-4.082100505143963949e-03
2.586938505726961782e-02
4.768997700308084953e-02
4.007212498225041358e-02
2.396366818278081179e-02
9.593385300050544587e-03
3.308365851928365270e-03
1.448445377471367342e-03
-2.503641135780355301e-04
-5.099072487562358066e-05
1.386989409453714137e-03
2.637044296086988107e-03
1.444383546969686596e-03
1.145612577701722893e-03
-1.032257781041571217e-06
3.830537999813583448e-04
2.108044570510528466e-03
1.849221032606604117e-03
8.099545120885889501e-03
1.770384839635841256e-02
2.661977078880815861e-02
3.748726874804555326e-02
3.898441622521503502e-02
2.861030725356611057e-02
5.247543482654242440e-03
-1.563984069909638355e-02
-2.565233661777437460e-02
-2.195610952878108979e-02
2.248739063896357422e-03
3.589770771714192316e-02
5.056159228522088406e-02
3.718739889769663576e-02
1.641290750254445138e-02
6.350482636319754876e-03
8.917223399368853472e-04
2.782660579171267103e-03
6.811107330828705198e-05
1.582558320965570496e-03
2.537109951905820292e-03
1.527321870996447162e-03
1.612897441881613837e-03
1.418303191160371485e-03
1.198750349766723126e-03
5.881795384226137660e-04
1.185630552636896765e-03
2.821243106879996795e-03
7.142934458564318551e-03
1.006406720418481955e-02
1.578620231486975098e-02
2.127035570717992694e-02
2.065587566431880198e-02
9.773869305180747993e-03
-1.008706244786687634e-02
-2.607862565402488744e-02
-3.003456403312704248e-02
-1.535443553926351540e-02
1.287629016346473511e-02
3.779493727467924530e-02
4.010230325207518598e-02
2.316226661276992241e-02
7.996483886244326600e-03
3.710829251621890982e-03
2.494004394992397808e-04
1.788374631495476331e-05
2.257364575752126732e-04
5.586097410563770202e-05
9.408488068862009635e-04
9.817794139592556611e-04
2.632928818500174847e-03
2.246809801038629744e-03
5.358706251894811623e-04
2.257223856964261748e-03
3.169861594560608267e-04
1.751289273200052482e-03
2.449991868274251864e-03
4.399443401763941837e-03
4.512637953736754401e-03
2.178667595455056373e-03
-5.801041757261917071e-03
-1.995621765048959106e-02
-3.391903342891222639e-02
-3.757410986588978485e-02
-2.512843259787481479e-02
-2.792905848763674835e-03
2.226559235675612536e-02
3.160527585147943075e-02
2.469645269826259426e-02
9.174337880221277233e-03
8.701588109182067151e-04
-7.447114811038650856e-04
-3.552107622728767518e-03
-1.103171188321607887e-03
1.321208153856641551e-03
-1.291561861017347145e-03
1.272897411044270500e-03
1.955259149478000280e-03
1.886846379432527464e-03
2.129259690694537688e-03
3.680440156121277898e-04
8.741226289060907966e-04
1.465579971499111249e-03
2.294153938668234017e-03
-4.593492578406542732e-04
-1.280664146174635048e-03
-6.284364789201898026e-03
-1.639758962888623189e-02
-3.041084374973335863e-02
-4.241086313562148630e-02
-4.559997200894617964e-02
-3.426117204681412148e-02
-1.216461316840225688e-02
1.197490615348294901e-02
2.350499329179589481e-02
2.233932998822470845e-02
1.042217785490115109e-02
2.808629779323229526e-04
-3.324131989457750243e-03
-3.972240264025393708e-03
-3.808984678374774824e-03
-7.974967280633490528e-04
-4.337457180600421736e-04
2.870029309214348640e-03
9.468058102151742476e-04
9.961615381136167818e-04
1.711291296251291061e-03
1.213381035337128327e-03
1.525332207604632173e-03
1.503038297146944797e-03
2.151143075887097713e-03
2.237757783241847622e-03
-2.248767457570850174e-03
-6.619772516418828169e-03
-1.499297346213319601e-02
-3.117016449197693509e-02
-4.439635163889601999e-02
-4.864042800640705488e-02
-4.226582406964003030e-02
-2.214958361179024046e-02
3.552446000431263868e-03
1.975347643639816311e-02
2.043661226901390821e-02
9.427150690732169838e-03
-7.939348093951125026e-04
-6.638215626908005804e-03
-7.136807252530123769e-03
-4.781383803967407566e-03
-6.620272061395338428e-03
-1.973780758798548800e-03
-5.503407921227102722e-04
1.532859581024763372e-03
3.559662501106026795e-04
1.959897634411896222e-03
-1.190488696125033068e-04
1.748839632498905760e-03
1.278570287293920782e-03
4.773572697207598635e-04
9.608441420423294820e-04
1.243504638870923922e-03
-1.000862400849756315e-03
-9.381378000492398769e-03
-2.166475135995998835e-02
-3.476803556004934986e-02
-4.668781347390352221e-02
-4.536993881557354474e-02
-3.365936635736461319e-02
-1.472920058173010291e-02
6.994547971772028562e-03
1.408940798994089139e-02
9.980279261894068818e-03
5.862123969257493393e-04
-8.653800478692380560e-03
-9.554053478535344882e-03
-1.012430061974704636e-02
-5.674827713426994907e-03
-4.050182994953215564e-03
-2.376511408404159004e-03
3.019264877726328270e-04
2.812775273919925802e-03
1.542943464289923744e-03
1.780514354718049823e-03
8.283446290229717944e-04
1.240554655782700327e-03
3.885855587279050602e-03
8.571256199090473028e-04
1.001608053583434533e-03
2.287424078303768125e-03
-3.222593596247556261e-03
-1.178711126032512893e-02
-2.400168136328546808e-02
-3.444366362903437256e-02
-4.304341228989964213e-02
-4.299000674329869764e-02
-3.324742567734420562e-02
-1.686805065900918998e-02
-4.697352650780626561e-03
-3.008243853892946656e-03
-8.580726624679407485e-03
-1.184927441400015699e-02
-1.152199224939556496e-02
-1.194747607826967400e-02
-7.393688859465845538e-03
-4.733555378402883214e-03
-4.470029431696768106e-03
-1.016362667056621132e-03
-4.363886922480713352e-05
3.187817991024345394e-03
2.823101353047771309e-03
1.493613129469935179e-03
6.815591093192853792e-04
1.358130596033290576e-03
6.889161402651797087e-04
5.044564255476181088e-04
1.176856714581196945e-03
1.700290357868103558e-03
-2.607783661354900334e-03
-7.273608182082081167e-03
-1.947450752501345486e-02
-2.831085789957195689e-02
-3.817856503170436594e-02
-4.324410528756519878e-02
-3.949515246875401342e-02
-3.348578216789558498e-02
-2.549917916775035556e-02
-2.549269723160507359e-02
-2.407415359620094022e-02
-1.861340298748614605e-02
-1.341415497068703007e-02
-7.699421781187227448e-03
-3.544936484955641884e-03
-7.334173075263410776e-04
-1.189707162096367984e-04
1.845419799006727099e-04
1.137594906749835825e-03
2.548348606822048966e-03
2.503744814899280888e-03
2.266710383889751490e-03
1.122645499755298365e-03
1.372576395975330134e-03
-8.899034973195796630e-04
1.950326031141628612e-03
3.838484016917493636e-04
3.819689377708489295e-04
1.459860895934328136e-03
-2.788419931142376625e-03
-1.234096457577316119e-02
-1.730154085763921726e-02
-2.551946874782679703e-02
-3.097982453252461077e-02
-3.573496384202562437e-02
-3.381726400904210006e-02
-3.463035115697035010e-02
-2.935230962779889971e-02
-2.019421416152822335e-02
-1.179176873498294191e-02
-4.336532769740688437e-03
1.128839706850137204e-03
4.270919686424286960e-03
3.771541543299719666e-03
3.400299546230641737e-03
6.662264611241603546e-04
2.179294899208278607e-03
2.596496680228969726e-03
1.342348925491639207e-03
1.888665499255579245e-03
1.746293323883165187e-03
1.931738807677579016e-03
3.089781839165460856e-03
2.819253824013278047e-03
1.955186982911683285e-03
2.097093628304463105e-03
2.041321508942704407e-03
1.572919922129871473e-03
-1.917890523342333990e-04
-1.435841696286002580e-03
-2.491824659681373018e-03
-2.349947003441651278e-03
-3.942979390233957229e-03
-5.494952682267987762e-03
-4.128986990709589307e-03
-5.300416911050319022e-03
-8.091649194374216179e-04
5.115614755124310402e-03
1.256543250297795233e-02
1.130372381308611049e-02
7.575121180407478651e-03
6.304744119373896331e-03
3.402607764631246541e-03
2.843441126001461806e-03
1.679295059168436346e-03
1.009126557887389227e-03
-2.313335096220017870e-04
3.162518859758900371e-03
1.633231697474919796e-03
1.124882275752495065e-03
3.226696901146225167e-03
4.824930995339086386e-04
2.956639019480175774e-03
9.566142131997128206e-04
2.285025184920002478e-03
4.342035009218384901e-03
3.935184700253203938e-03
6.826465905236021869e-03
1.243676710271495595e-02
1.769067657272552566e-02
1.926110953232857553e-02
2.283488854559340836e-02
2.123048757994319691e-02
1.844178064538299147e-02
1.826772879346101608e-02
1.889490296217168422e-02
1.676146930693185252e-02
1.249125910242962316e-02
9.873261886518089336e-03
5.416449888522308076e-03
3.709184539811766386e-03
3.595660554886445041e-03
1.339949006145452638e-03
8.157816203406293570e-04
2.125477078591802085e-03
2.391106862591907672e-03
1.616611291384751183e-03
1.814861743796169699e-03
2.319765132528862396e-04
3.138803491223089671e-04
2.036156666546468531e-03
1.932017988446477078e-03
-5.532706021546329256e-04
7.964512628611794326e-04
2.282183837654482798e-03
2.636273336217867524e-03
2.989467917352205475e-03
5.322874449263643656e-03
6.761303245301076952e-03
8.323307441315460145e-03
7.066764372203037173e-03
5.974031580491688878e-03
7.124109309067757495e-03
4.689497925784178421e-03
5.928359761141765299e-03
5.511866393502201991e-03
3.278782755095891680e-03
4.659387471909367563e-03
1.349125992969270457e-03
9.306064798608022987e-04
2.644254696823274825e-03
3.224060617088201990e-04
2.735965262831957946e-03
1.309683819770814887e-03
1.021598817026588175e-03
1.377038834091573287e-03
1.059286962904672008e-03
1.911700024350650303e-03
-2.311358635144462696e-04
1.740375126932933733e-03
3.216499195983943751e-03
-3.775214263239440489e-04
3.391733082242184057e-04
7.801232654301864817e-04
1.540037809010542328e-03
1.209184762685191128e-03
1.735284173692221979e-03
2.014365711114828646e-03
3.640777395844828801e-04
2.876841467107336958e-03
-7.045080595064406393e-04
1.778567212228690346e-03
-3.261976903196523196e-04
1.890829512319252030e-03
2.454782543767174922e-03
1.468571071208680558e-03
2.926847400455757746e-03
-9.535731303048499850e-05
2.407668805793253264e-03
1.012425572356776731e-03
1.024159952100991760e-03
1.142438126942294310e-03
1.497623914145073233e-03
1.335387866595036561e-02
