-2.385641861301133648e+00
-4.131678442338772572e-01
4.262277926864295186e-01
-2.130122839068566698e+00
1.367075638250373704e+00
2.575521624909201002e+00
3.471401932982182803e+00
2.899039389583661031e+00
6.518984688073647948e-01
-1.746756657726551643e+00
1.377025319916787227e+00
1.078360536923641949e-01
1.148106442004271477e+00
2.040878611489983285e+00
1.011448704768464824e+00
1.539582811238821680e+00
-1.279574144529613822e+00
1.321503353915562118e-01
1.092748540003718238e+00
5.449357432290798942e-01
1.142883727473965161e+00
4.574357470341173793e-01
2.610535968567031961e+00
1.642687055353875047e+00
1.806973238918101687e+00
9.734855550961304393e-01
6.562467122211801396e-01
1.928784818946937873e+00
-4.948953783938719875e-01
1.644127183531795877e+00
3.153218788200571887e-01
-7.024699932443724260e-01
-1.356348225066972946e+00
1.219099972249635400e+00
-1.279771454319301061e+00
1.641033420784751673e+00
-1.540321074333383722e+00
-4.259803996924583558e+00
-1.060114582089570989e+00
4.551102142552499591e-02
9.394977432024418373e-01
-3.564919711453358731e-01
-4.461064302937304826e-01
-7.731111462000184176e-01
1.067629607266977754e+00
-7.735613393782893310e-02
2.681797066361801818e+00
2.082502697465930808e-01
1.307328278950482980e+00
3.357049889522806918e+00
4.007871831118858807e-01
2.339086739221408529e+00
2.459152568729130905e+00
1.633616066654900889e+00
1.345760423084456647e+00
-1.426062481814694693e-01
1.234627605471768419e+00
-1.828737165937715625e+00
7.737051064549261836e-01
-1.494289056891543732e-01
-1.042015062864415587e+00
2.610381105814786551e+00
-1.365592353135902215e+00
-1.252776425152248851e+00
-1.045091755589315496e-01
5.571034723117558318e-01
-3.044569076488761739e-01
-5.046526796054850994e-01
-4.698935294031461596e-02
4.569192723542246370e-01
3.998563819631680005e-02
-3.852292293484693708e+00
3.582707370472092201e+00
2.114820540070220467e+00
1.392620062587386798e+00
-8.279975872669614878e-01
8.796701624675600240e-01
1.718177032253920267e+00
1.185357074356204743e+00
2.886106225392641278e+00
1.546889580225847105e+00
-1.251580875302245488e+00
-7.496771614742824275e-01
-2.331110062352843126e+00
-1.082703921917634593e-01
-1.096012785757900954e+00
-4.604259305502888644e+00
-1.036999342351686781e+00
-8.963605784295590739e-01
-2.195225423589607150e+00
7.151211202271780254e-02
-1.951254939026437984e+00
7.856715604817354759e-01
3.746913868954579119e+00
3.198183245684574683e+00
-2.146251208113703512e+00
-1.859912783423353311e+00
3.951542374508087985e-01
3.290254754583101793e-01
1.967871732382397765e+00
-1.780867636543387533e+00
6.890061476359152781e-01
-1.958436861728677592e+00
6.180476390809791498e-01
9.060722600826687234e-02
6.022850573017193287e-01
-1.472114866374038433e+00
1.718524324849286078e+00
1.458588418462144487e+00
-3.770901529672880059e+00
1.547508183809397142e+00
-1.576436907276559829e+00
1.687861233701511088e+00
-2.290491306651809111e+00
-2.109146390194759579e+00
1.911194823259766196e+00
1.524190115491729003e+00
-2.148369823082273644e+00
1.115821008689847016e+00
1.615543707350035163e+00
1.355491858156143259e+00
-6.297265229777087026e-01
1.736867694755002578e+00
-1.991080361389489517e-01
-6.830846210569052612e-01
-3.050160079589411932e+00
-3.610940767842654164e+00
-2.990276269894647676e+00
1.441011372303960814e-01
5.422154612481835390e-01
1.274579539959083352e+00
2.806311121238016515e+00
3.111906124582470845e+00
-2.111359900914011600e+00
1.185081901152886141e+00
-2.455865856848523932e-01
-6.065117394549970342e-01
1.242106336973533898e+00
-9.329276003594598743e-01
1.150080988476740229e+00
1.820675757434711439e+00
2.575095991532339479e+00
-2.162764111280869983e+00
8.765632579096848120e-01
1.229966857757643028e+00
-2.509500284154674965e+00
7.334320408234610289e-01
-1.709162439974505066e-01
-2.175519643160670036e+00
-2.830889349921875020e+00
6.172856980192722443e-01
1.712784114652829537e+00
-7.953172104324615077e-01
1.157285446595970463e-01
-2.586553685421804083e+00
-6.112955115482896495e-01
-3.219708939089903410e+00
-3.510463142291700422e-01
-4.516142833158750314e+00
-1.084571347898741100e+00
-5.082950101900868267e-01
-1.086121755641083375e+00
1.583298292991787370e+00
-2.342486220535413999e+00
-1.611946684322037582e+00
-7.483588157529732499e-01
9.371155448777817032e-01
1.888055515630551184e-01
-6.569440397879715565e-01
1.477717068145154578e+00
3.252600849654654791e+00
1.608663202096497269e+00
-1.120234345475908055e+00
1.610907522237173817e-01
-2.630952425530734828e-01
-1.134852484969502306e+00
3.759737842146119391e+00
1.915413365130151702e+00
-2.824484489974472989e+00
1.457891074522766228e+00
-3.260105640441534725e+00
-1.125800896405009022e+00
9.349358784985627446e-01
-1.541384762052506074e+00
6.501700818548790117e-01
5.389932334791295299e-01
-4.981478074742891615e-01
1.200580966089090484e+00
-2.986084908486917211e+00
-9.694355101471192615e-01
-5.334205512681179373e-01
-2.108930147458062676e-01
-2.527489965727092613e+00
3.265488354932294945e-01
1.279097654148635965e-01
4.387609950488238764e-01
-1.147359834977776716e+00
9.446514859008475762e-01
-1.815058559279468131e+00
2.053206241291973377e+00
-1.405161544138386343e-01
5.784812592846396706e-01
1.559899400816298742e+00
9.810490045808031301e-01
-9.083190212388561058e-01
1.306955658986183932e+00
2.757405206902314165e-01
3.521571377096559541e+00
1.434526925514586271e+00
2.392645769130582245e+00
1.691378387003090955e+00
1.089246013766165033e+00
4.251204197226079451e+00
3.017532448945202672e-01
1.226988103375502570e+00
-9.062944474004882567e-01
3.789216761388997767e+00
-1.066202855344770217e+00
-1.474920317163232575e+00
-3.459345084403169235e+00
-7.211476691955645002e-01
2.575707723144149863e+00
-3.399319673332926062e+00
-4.205206966439901106e-01
1.806860635309586405e+00
-8.220130580860858238e-01
-6.933516368273519026e-01
9.979387666560749492e-01
-1.279445086306525425e+00
-1.381010389451581943e+00
-1.880819753103024849e+00
-2.735779374203725300e+00
7.535252032128356703e-01
-1.662400555392589407e-01
-1.565834183754173381e+00
1.094570703774568665e+00
9.104097248596351166e-01
-1.669496596072272965e+00
1.689721519119318449e+00
-8.688516783853847958e-01
4.633599496120778261e-01
-5.171083016899554741e-01
1.364959074962132535e+00
-1.135899671880501005e+00
7.153139429691457440e-01
3.245465756630460330e+00
-4.020858325617946427e+00
1.207005842624834013e+00
1.485973642870932032e+00
-2.326826373380264545e+00
1.082975619085273289e+00
2.205643896412374516e-01
2.263879179485134008e-01
-1.494661267832105844e-01
-1.845222851825560895e+00
-8.260147629072521758e-01
-2.236503101751817990e+00
6.476591979698276269e-01
2.605294211870546328e-01
-2.063356081315669943e+00
-9.935051791294434720e-01
-8.393501671530709807e-01
-1.200789896571309745e+00
2.341254495130173030e+00
8.522842382661967031e-01
1.663415294686364510e+00
1.903149314984191598e+00
3.974342624606134411e+00
6.820259901436221961e-01
1.884731204186548270e+00
1.730984716756127639e+00
2.131827292240656480e+00
-4.390146766805854694e-01
-1.535149301438611724e+00
-3.809543696186733497e-01
-2.074314844560134929e+00
9.845148489685320858e-02
8.656689181099981312e-01
-2.269321772579570240e+00
7.875890220049802659e-01
-1.066581728784541383e-01
-3.177384866565953647e+00
1.581906165420604138e+00
-3.671171928471467227e-02
2.157206617416118632e-01
1.036450735302647308e+00
-2.613245310942576838e-01
-5.239621468552773109e-01
1.139483358604874264e+00
-2.882500560372780463e-01
-2.972997657583871689e+00
4.448368042233483699e+00
2.460166449601976502e-01
9.686819634178491789e-01
7.410052098892303540e-01
1.592277500944114799e+00
-1.333541152689470044e+00
1.951303984666356017e-01
-1.276262976223477397e+00
-2.053594921859839495e+00
-1.993499707309615898e+00
-8.746363447838391425e-02
-6.270327357121252554e-01
-2.652412011440171025e+00
-2.772575431593973683e+00
1.932344287774759861e+00
4.665838581660315953e-01
8.496198888066074373e-01
-8.734892675191278100e-01
2.713327249916335782e-01
-9.151267361356938412e-01
4.076989957754307281e-01
2.423804167603990312e+00
2.339003415528523977e+00
-1.843574664806136854e+00
1.636941515015311321e-01
-2.405980236359415297e-02
1.722102016879593300e+00
8.035497314372042066e-01
-5.075922590137529333e-01
6.996358755540071916e-01
-2.918025076012921826e+00
-2.918891809921773994e+00
2.100915207250682926e+00
3.880318033014906298e+00
1.764297019228342256e+00
2.368118363324045461e+00
6.625358035836755866e-01
-1.160926682723732867e-01
1.417775416169105851e+00
1.877391443284866582e-02
-2.752440615321352535e+00
-6.409665318059681205e+00
-1.119998022611869093e+00
-1.995399255767174584e-01
-1.737922297999519028e+00
-2.275082399583372439e+00
1.763974492296825458e+00
-8.702111039218034527e-01
-1.686695703429373083e-01
-5.990579975796921364e-01
-2.455328173241732692e+00
-5.273334406917015160e-01
1.394137162253202833e+00
-1.671745490984817728e+00
-1.622778578267884519e+00
5.787880940089866755e+00
1.304775813491595438e+00
6.090088559969761839e-01
-1.074910598625277380e+00
2.207005725040750654e+00
8.111045974150283833e-01
4.414595441005452869e+00
5.756319480106541597e+00
2.699074077558062168e+00
2.696646815040512735e+00
9.721839079172406306e-01
-2.341254576511051955e+00
1.325306701254460595e+00
1.181629843255804113e+00
-1.062678652352085473e+00
-5.218324639748509464e-01
2.532300010870685902e+00
-9.663594585027601713e-01
1.710350548027226525e+00
2.146275832196519406e+00
8.577570934389847634e-01
9.942306345096612041e-01
3.021235504579781850e+00
2.247055994598031514e+00
3.462689955394416597e+00
1.309474056636221739e+00
3.352415279842549722e+00
4.374698120738250928e+00
2.555576291442735126e+00
-1.243231011894606386e+00
-4.614243170642399861e+00
-2.839639851410799665e+00
-1.064039506016293268e+00
-4.729012192764954770e-01
-2.542540307546103384e-01
8.095101067873768486e+00
-9.305751242541323576e-01
2.881983895668864371e+00
1.767936791322453294e+00
-4.466165940155384928e-01
9.729500277214384041e-02
-4.884486551187876002e-01
2.434865220846055944e+00
-4.853540278040407441e-01
1.584565635031535968e-01
1.090980182859431630e-01
-2.225322757680571750e-01
-2.870874352440254018e+00
2.460494520619871395e+00
1.237558164527650550e+00
1.403237049120785951e+00
2.836589469778232342e+00
4.697882130645870014e+00
2.846639013975605703e+00
8.450803067808229097e-01
7.404292788444732931e-01
-3.460788244393454560e-01
7.430488043436608292e-01
-3.095030841362903740e+00
-1.441022518165510746e+00
-3.662245329741514510e+00
3.265391033229161799e+00
2.363197797608307393e+00
2.023178388299510022e+00
2.735352501380770462e+00
3.555548589391024361e+00
2.463352793583331035e+00
2.000042915958804013e+00
3.489796471546979362e+00
2.183826647978732272e+00
6.257988099262622450e-01
-1.718768736397427166e-01
3.100355471221756698e+00
-6.563490777817675426e-01
6.016450859316986310e-01
4.505194956066344014e-01
2.047571300661381155e+00
-4.914690044427095783e-01
1.538788416740969556e+00
1.211580730445208642e+00
1.815732884749351683e+00
1.752082360407697159e+00
3.891660183925781169e+00
1.005814262968254713e+00
1.196234748369724876e+00
-1.062985445085389946e+00
-2.507787926175277349e+00
-5.426808183124907536e+00
-3.019407217784686903e+00
6.228865572072912471e-01
4.008570626881423848e+00
3.076259983686620458e+00
6.656105117445314523e-01
8.650956306805145379e-01
-3.454225879147008182e-01
6.471160240420128495e+00
3.001605472930072960e+00
1.603166129936989481e+00
-1.520331621249592979e+00
9.639003893981392679e-01
1.856775087734748420e+00
2.080657707985844151e+00
-6.611509408136422294e-01
-1.342878416248520113e+00
8.619407747268053033e-01
8.826141469843966636e-01
-1.701213345210111028e+00
6.643182770925640801e-01
2.335233791780983170e-01
3.397545967339207440e+00
-2.356171524237880566e-01
-7.316171061222975780e-01
-7.679091667524708953e-01
-9.696800159756497894e-01
-3.646572442648946755e+00
-3.319321579206713668e+00
-1.399858522145931206e+00
9.925997563152461067e-01
-6.413217012362416591e-01
2.997333087073298596e+00
3.300454003605075015e-01
-9.268266000483235678e-02
2.239880329351857213e+00
2.957193795145441229e+00
7.879988439380526399e-01
-9.588833655064441519e-01
-6.132921220852829425e-01
1.881207377648745460e+00
1.940062392499649180e+00
1.374648119151768766e+00
-1.052723518952181081e+00
-3.390531859600500741e-01
-3.284548997106949142e-01
-8.772254499241970427e-01
1.403642636833024149e+00
-3.635161876046906770e-01
6.321556662473544475e-02
-3.255424908102615422e-01
-3.332003778082141654e+00
2.164664120376238010e+00
-3.646386317680835099e+00
-3.052587454411133105e+00
-2.793632404578052064e+00
-4.573337678974297660e+00
-1.029018860928213375e+00
2.771959865613745411e+00
4.061092401563950460e+00
3.045086285401184534e-01
-1.462281572801017671e+00
2.716834354679619423e+00
2.281891974616620189e+00
7.844673452239998568e-01
-1.231162501179097424e+00
-1.728973668298730226e+00
3.481317645549729667e-01
-3.344484934201513160e-01
2.683702189540997374e-01
1.584585225897087446e-01
-9.936199491268867812e-01
-3.491563688594511827e+00
7.790806326692404360e-01
-2.163817074520705930e+00
1.295477728790098260e+00
-8.709021927229604332e-01
1.504238988236446861e+00
-2.485317744621192926e+00
1.884154690636255847e+00
-2.703933575198770534e+00
-3.743050518756510403e+00
-2.802203835506561713e+00
4.533758062116068355e-01
-2.365774722583439349e+00
2.496904402473164364e+00
-4.247946268703400863e-01
-1.791445572583306722e+00
2.750041791795715618e+00
-6.863997149467617742e-01
-1.793354298831554061e+00
2.772546263976121139e+00
1.973169853581915600e-01
-3.603453363782244817e-02
-1.565403084355979191e+00
-1.596269837837825722e+00
-1.345971684294997361e+00
-7.800654978697125763e-01
-6.583375346767669223e-01
6.795102673723464326e-01
1.820878179596696844e+00
-3.069565815526415498e-01
-2.223762787503698046e+00
-9.790842640797744467e-01
-9.400555220724585714e-01
-1.098451194422605637e+00
-2.648387825808549145e+00
-1.190446644377958663e+00
-4.902621921612063893e+00
1.060521934573462000e+00
-2.835706868440437400e+00
-5.667534197914292804e+00
-1.433467134066418902e+00
1.564628337033322769e-01
-2.552201802416674825e-01
6.827382039573216821e-02
-4.329536181284075802e+00
4.416950712810097657e-01
-7.366435317291201157e-01
-2.783623065280877107e+00
6.616644554931320199e-01
-1.941691947991196709e+00
-2.683749201472659607e+00
1.874813480202366101e-01
5.881080435647236815e-01
1.326197617525682437e+00
2.184925498517987119e+00
-7.929511145279902751e-01
4.597813073268772754e-01
-1.954046401619403017e+00
-8.434972763960215669e-01
9.942475688897902675e-01
-1.668285159556070374e+00
-2.805378339918455310e+00
-1.979918303986937023e+00
-4.381375789794237363e+00
-4.392433251549381801e+00
-3.230968959619762160e+00
-1.619574670711244391e+00
-3.982891834937067888e+00
-5.085627974853383471e+00
-6.751838831420996501e-01
-2.245504439033121802e+00
2.004669164227256495e+00
-2.856188241687838580e+00
-4.012904642543039802e-01
1.546466306026879345e-01
-9.981708049567353802e-01
-3.019184457889124040e+00
-1.520155091858553346e-02
-9.521970750946257001e-01
-1.932422604178897774e-01
1.783609425586871966e+00
1.010031086327541239e+00
3.072990439406930729e+00
1.478211606711639647e-01
-2.054165141490901458e+00
1.368398900559229414e+00
-8.453788713163264967e-01
-8.481930102994104104e-01
-2.965754096328645062e+00
-2.717238907177889295e+00
-2.450002780922078960e-01
-3.296862068255471456e+00
7.291036721177113211e-01
-2.804407768416360192e+00
6.787842371003388608e-01
-3.162261310572333173e+00
1.369188513190668643e-01
-3.611715419438478403e+00
-1.087599951935382059e+00
4.418238056990715923e-01
7.867761053412447581e-01
-1.806255973999002062e+00
-4.187894438317933399e-01
-5.662555536258468969e+00
-3.126213194797473616e+00
7.753054644913923710e-01
2.256656982786016744e-02
1.146246413171421313e-01
3.134071683624760851e+00
1.704067570577875168e+00
-9.139120382614488447e-01
-2.629490033060194243e+00
-5.664424443844989776e-01
-8.679920496394472051e-01
2.418144466195998987e+00
2.331310121601914087e+00
-1.632712672369059037e+00
5.254395978541178680e-01
-2.135966421623114453e+00
-1.639893886172649085e+00
-2.300994939484362956e+00
-3.393692649078464463e+00
-1.551137854071019229e+00
-2.052255522306993818e+00
-2.326021169786444798e+00
-3.836755660980667226e+00
-3.963226443030579027e+00
-1.813783399461445511e-01
-2.714075101262663825e+00
-2.299279304675802660e+00
-4.417659737763811378e+00
-1.981233742185844582e+00
5.307902159286913280e-02
-1.478342149378047976e+00
-2.216757102323858142e+00
-1.994247222109211348e+00
7.392110222614887149e-01
1.135234978558104402e+00
-2.035500988421457880e+00
1.319292005628574405e+00
-1.870213474994644631e+00
3.513323881742533850e+00
-2.712168292875090092e+00
-1.151321686202683381e+00
-6.543160276948132292e-01
8.317897832484534293e-01
1.935672788315003556e+00
-1.863557727443261536e+00
-1.439580842063096444e+00
2.403088747419174220e-01
-3.436168803746122435e+00
-5.127856820259635739e+00
-6.396360162476359079e+00
-1.611680667128017053e+00
-2.141618902033513461e+00
-3.442366447575614163e+00
-2.720635078563470532e+00
-1.421456782791726381e+00
-3.840704437509493641e+00
-4.055952161478862728e+00
-1.026012455518200001e-01
-2.047112235627965848e+00
1.784520852156513904e+00
-1.409389605049706784e-01
-1.410836996209855032e+00
2.662672306278255352e+00
-3.636453333163969237e-01
4.538656491611603450e-01
-1.701021928130575622e+00
5.346960158859160872e-01
7.975953190785576297e-01
4.468580878416725244e-01
2.904501387023341596e+00
-1.080463052326032347e+00
1.058439522021688672e+00
1.633835969338163663e+00
-1.626093674960606084e+00
2.927672150572915299e+00
2.184998291972071627e+00
-1.518729940383507060e+00
-1.158554203524846837e+00
-1.316925107153955388e+00
-3.513704011037260155e+00
-1.233675964677287684e+00
6.289907915141257355e-01
2.056474861364638862e+00
-1.434129894624154522e+00
1.446775252792654731e+00
1.153233085153888116e+00
-6.698073122281844594e-01
-3.283708195701646737e+00
7.812680019220009653e-01
-2.719817449008757881e-01
1.210594247919056565e+00
2.034302533320570205e+00
4.462741156708958101e+00
2.280442952029849923e+00
-6.005878962066657500e-01
1.818485445076968077e+00
-3.945649854729439965e-01
3.825180776317470777e+00
3.000646799219133243e+00
1.594884816822817131e+00
-4.170316737425310283e-01
-9.393257279292753781e-01
1.570723321278613360e+00
-1.865223543254886096e-01
3.724651128922541687e+00
-1.400909609339130890e+00
6.210000791767654738e-01
5.769643668359735189e-01
-1.194497626694298376e+00
8.288771608558739290e-01
-1.625739452674923369e+00
-1.300541886412482917e+00
2.704335259956723192e+00
7.982256435688365181e-01
2.982117929104439735e+00
3.352027882795979297e-01
-7.259880751077433247e-01
-5.233736467329117570e-01
7.722971322484914469e-02
-3.000192357592782466e-01
2.468282524537181111e+00
-1.641403232773199106e+00
1.588056686602936862e+00
8.116779239501344112e-02
2.537891224900258091e+00
-1.984580027521892776e+00
1.264036899915848666e+00
-2.203319119755482891e+00
1.740851656584243567e+00
-4.152681607894821991e-01
6.878460388753289134e-01
2.398444829562040415e+00
-2.026238684401507062e-01
3.111418713143073722e-01
-4.421941550862416026e-01
5.775092306544368226e-01
1.608309251221618497e-01
-1.281343851181522053e+00
2.886199347239766788e-01
6.579701047654188395e-01
3.170452034756328086e+00
1.064503124080236507e+00
-1.102124925828608770e+00
-2.614219524293853514e+00
-3.247611052199214088e-01
9.790597589764575837e-01
-2.656511954289461630e-01
4.129480938136349089e+00
6.824937537409015986e-01
9.756066997514470929e-01
2.617806738638907005e-01
-2.137553412744280790e-01
-1.301244358849441562e+00
5.081289655059322286e-01
-2.983449808434245343e-01
-8.868760532498267679e-01
5.114424789630357404e-01
2.836005690126922385e+00
-3.291857755256658358e+00
1.263407207197091875e+00
2.626022955180496443e-01
-2.182806111935869264e+00
-3.933632848461833253e-01
-5.132371415985524932e-01
-3.215787057729619036e+00
7.917337554370511565e-01
9.896237971528014654e-01
-4.048348054568446930e-01
5.719025429833404228e-01
2.617551576535464442e+00
-1.414191394149019176e+00
1.509231119697469481e+00
-1.508521246826196316e-01
6.582290726721056195e-01
1.084511717173317624e+00
3.422572414986448930e+00
1.273718897863397181e+01
