-2.834851779799984345e-02
3.275732162044150270e-02
-1.084964435936091286e-02
-1.593894325749515770e-02
5.394895628313475106e-02
5.084077794076100748e-02
4.178391231715510717e-02
4.585575659804104476e-02
-1.415768125058969838e-02
3.863461101641931655e-02
1.821711885514070914e-02
5.550525796457823902e-03
2.148159227355075224e-02
6.493576806621464970e-02
6.125744651801778590e-04
7.379036925849841166e-02
6.164933237972720567e-03
1.658477741263065380e-02
5.837920503745144124e-02
2.838093628885510200e-02
3.106797647949772340e-02
4.534264431384498091e-03
7.345722504419475996e-02
2.461771980923564349e-02
6.673623091825640896e-02
-3.767471814179809610e-03
3.950099389734720856e-02
4.241083202863384083e-02
2.652979003752654538e-02
3.237523318539670819e-02
1.868575978885558819e-02
3.073846449478603512e-02
1.471285873557325215e-02
8.505251959440292969e-03
2.077673297402755914e-02
4.633161865621165248e-02
2.742523256855982847e-02
-4.356767271226144600e-02
-1.600830744008712933e-02
3.329624217309274953e-03
2.431608349713293427e-02
-1.188832960554090344e-02
6.348321892395420232e-03
7.332877106005504519e-03
8.625147125476245388e-03
2.256295624965409027e-03
5.825978064094269882e-02
6.859711705420359906e-02
1.494119427966155919e-02
2.341563597392309903e-02
4.612491375065472937e-02
8.211809968439652552e-02
4.188896866833770327e-02
1.760894964503738336e-02
2.258425157380752890e-02
1.638768698491489817e-02
3.267393505913587098e-02
-4.362554916070981482e-03
1.205274444019043857e-02
1.930504082609706476e-02
2.083592144222604775e-03
3.171427925623136052e-02
3.458168512909978037e-02
2.804460717756472685e-03
2.249003403937122059e-02
3.180108907760909737e-02
2.131410655361140605e-02
-3.676235367540737781e-03
2.379219559274923373e-02
5.340542619747939979e-02
5.604823556521178196e-03
-3.220298618618943481e-02
4.640090338260114550e-02
5.061711154982349165e-02
2.395522048909822996e-02
1.077836759510459111e-02
2.392592101460907020e-02
7.332170241419330714e-02
4.765753254391930094e-02
3.869276349542011967e-02
5.914936262739921291e-02
2.113645345055573457e-02
1.918937557741573138e-02
-1.027138136366255276e-02
-7.959360571990812747e-03
2.095894562470232425e-02
-4.099932038521305472e-02
-7.556937339597507783e-03
8.646215568250280661e-03
-3.515430803794512837e-02
3.152474979852029624e-02
4.793618190656576822e-03
3.833307272862632176e-02
8.353597778883263547e-02
7.478006000072953685e-02
4.203762323705911678e-04
-5.920417059958502440e-03
-9.464197207221181768e-03
4.469519549574751949e-02
1.286735574888016494e-02
-1.323668928298648260e-02
2.176671882540624423e-02
1.358204121233770253e-02
2.039141588361586752e-02
1.103828646437400585e-02
1.844922328657141661e-02
-1.271236491700424758e-03
2.065244877126374071e-02
4.059193427611151178e-02
2.815327231657035328e-02
5.331043629570419301e-02
5.520685228522850818e-02
4.646777993667663281e-02
-8.295695952135622581e-03
-2.470045806202758945e-02
3.048627258734273524e-02
5.060282847804691009e-02
-2.734552564554688925e-02
1.945532647457168599e-02
2.743335600319641090e-02
3.278797163106214607e-02
-3.429733577460935320e-03
4.572026900913950948e-02
4.850612624102077224e-04
-2.395729587807711447e-02
-8.868653977652043996e-02
-1.025982855926933918e-01
-9.459302923841646227e-02
-3.018309145388876208e-02
-5.347724026409442222e-02
-2.846339861579022523e-02
-1.863444891387031760e-02
3.717274540292968971e-02
-8.416203621145625091e-03
3.211823648622871841e-02
2.125539659550343061e-02
-9.956514773160528298e-03
2.260993737279147833e-02
-1.823639891468067237e-02
6.865815900338469169e-02
4.797121979498897987e-02
5.944025973782134792e-02
-7.531516600569073024e-03
2.506383442537996054e-02
2.977684264287542432e-02
-7.904453100647230654e-03
1.366211621337596986e-02
3.641773509144655314e-03
-4.537491647015415297e-02
-3.587092437902417164e-02
-1.152742138020797398e-02
-6.017620081655646047e-02
-7.608286098819858068e-02
-1.191607702691551696e-01
-2.111104139326470674e-01
-2.434228458298857423e-01
-2.272030841968932791e-01
-1.795959633983269521e-01
-1.978750114986626285e-01
-1.503303013445212166e-01
-9.796645535659065374e-02
-5.389324033815249410e-02
-3.024146528408759235e-02
-2.123671718299454531e-02
1.113044243507125587e-02
2.834754274727743772e-02
7.946172225626474406e-02
-3.999971452218834683e-02
2.586979395317069025e-02
-7.585220753661438102e-03
2.599373286568279831e-02
2.514015874552734398e-02
-7.339478431430405264e-03
1.352071765738265159e-03
1.988703578219311058e-03
-2.782908717158631348e-02
1.684205314042141674e-02
-2.253704234369414104e-03
-9.267524509539827593e-02
-8.318324422609570112e-02
-1.381037631287027612e-01
-1.024869655598622253e-01
-6.939016244860193861e-02
-6.982674051315822250e-02
-4.345227883944678855e-03
-4.867166366548210388e-02
-5.124273205813895116e-02
-6.700026199524278248e-02
-1.485108595490211014e-01
-9.591176539831776371e-02
-6.939216688080140916e-02
-5.616278371592896973e-02
-6.900697258307611492e-02
4.915018373671473789e-02
3.338826016504412714e-02
2.421748675179451540e-02
5.882390872853299549e-04
1.214802026728593193e-02
-2.731762627264943538e-03
4.068906259413133247e-02
2.306247393139550239e-02
5.030239357280064799e-02
2.495814921615834361e-02
-4.423529705922397276e-02
-8.303121626919587883e-02
-5.729115679317967058e-02
-6.225876927132405897e-02
-8.597413161368935505e-03
3.341800059524070027e-02
8.828565712290872836e-02
1.457201882200072074e-01
2.015829513265722517e-01
2.125245867831523361e-01
1.284101077052409168e-01
6.187616089734790381e-02
-2.761677378620344681e-02
-7.608207734481449436e-02
-1.442132298695422421e-01
-1.140992327471606060e-01
-1.727310596440407298e-01
-6.214281145229115511e-02
-1.584557362198206433e-03
-3.426950918289498743e-02
-1.224981220649036529e-02
4.324734765456816898e-02
-1.716882658696981465e-02
1.593743435676786904e-02
4.571743578585259898e-02
-1.735041134546547875e-02
-2.938554567304243678e-02
-4.934807359909554325e-02
-9.627282571410479550e-02
-3.159519183904412054e-02
-4.272000232507892209e-02
-5.429662106846689512e-02
4.144720641609613704e-02
5.662344113213237107e-02
9.068008402132522738e-02
1.306577469906421984e-01
1.594369327992372909e-01
1.091251809950065932e-01
7.592227748057926717e-02
3.247672048600504929e-02
-1.658161066685955379e-02
-1.928752747803874623e-02
-5.157907105610661652e-02
-1.754404385429236823e-01
-4.953377285942139885e-02
-4.271813683323932853e-02
-6.700830735475850342e-02
1.909361034644989699e-02
2.853131079938034387e-02
-1.546886554528946120e-02
3.056035719136025036e-02
-3.540038058425890033e-02
5.070695327231259514e-03
-3.364713087118297030e-02
-5.391697523698005950e-03
-3.220166729701293834e-02
-5.576243488111511104e-02
-5.333959713287311083e-02
-2.779025076790263282e-02
-3.147876208783324369e-03
6.405186591212791436e-02
1.062385672289721805e-01
7.974069408631127842e-02
9.739161639391361036e-02
1.390455808601099297e-01
8.548937796605822481e-02
8.840607056381727391e-02
6.657170936489616164e-02
-1.680602767172054840e-02
-2.353705130522895997e-02
-1.034861402240860179e-01
-1.275895450747015769e-01
-1.355965869562667792e-01
-7.713112486485024233e-02
-2.151538577724036033e-02
-3.886190826288563917e-03
6.660764321615563616e-03
-3.424779645676297862e-02
-3.144392613987066071e-02
3.972602323772971705e-02
1.041701091963643036e-02
-1.580187852768678847e-02
1.833277779818102797e-03
-1.719713301132646741e-02
-3.175078035784664309e-03
1.132251556342314669e-02
-4.088682046250638469e-03
3.480652372408420819e-02
1.821030118941466547e-01
7.650081489809364144e-02
2.026850067318192519e-02
7.105107502181038119e-04
4.230915796769314091e-02
5.675940673021768329e-02
1.153646308657206715e-01
5.982352977545818407e-02
1.823055288172482140e-05
-1.566495729993622882e-02
-8.660715334012196454e-02
-6.880884007339625741e-02
-1.308913071672374862e-01
-1.014169849562234910e-01
-3.264116469047706470e-02
7.119107749434372412e-02
7.100487318662111400e-03
1.724659216639696374e-02
2.290974351777665813e-02
-1.648427986518617499e-03
3.339400918854406458e-02
4.552357805757206721e-02
4.266839503472949491e-02
-8.687203345378081282e-03
1.891830859561119058e-02
2.626777827386612280e-02
1.656069775011495895e-02
1.076270750572341089e-01
1.068196695981813854e-01
-3.932087073787486620e-02
-1.228533983184940254e-01
-7.142263656210552647e-02
8.759091594316656404e-02
1.677307539858821361e-01
1.823457673548259106e-01
1.466492675775091792e-01
7.613705025128683634e-02
3.484317812542953724e-03
1.474463784517436420e-02
-9.382559672023439712e-02
-7.775149965804237229e-02
-1.288105918945170458e-01
-7.080222017344111121e-03
4.228097194577862608e-03
3.201914714934307651e-03
6.743436582047434777e-03
5.408882347490966136e-02
-7.938630066068461805e-03
2.222234451739830974e-02
4.813729449211547051e-02
2.908779924554967186e-02
6.507523732177901421e-02
9.603808282132901553e-02
1.821601421506147817e-02
9.404021459233416480e-02
1.938977021033578829e-01
2.066555052671429846e-02
-1.478941305227721437e-01
-1.387059582413004144e-01
-8.336587694620098757e-03
6.893265643846260837e-02
2.266005201706361993e-01
2.981983215815473542e-01
1.735640857940035919e-01
1.211166569647962460e-01
6.397963124075484176e-02
-3.712400192837001650e-02
4.510092026468588873e-03
-1.358043675927202328e-02
-4.534166446764840985e-02
6.402221023391001416e-03
1.521526531732432692e-02
2.225819165232903116e-02
1.928490554942627333e-02
5.094938179374277482e-02
3.755536574066593858e-02
4.359231762537412597e-02
9.352924543190936635e-02
1.034259860441854167e-01
1.307073858672752331e-01
1.756252569465024671e-01
2.060592906328012341e-01
1.978895138063427039e-01
1.371860353063247828e-01
-3.587130919815804952e-02
-1.868673587181909068e-01
-1.680634098028649381e-01
-4.042867457733984732e-02
3.997108210601688083e-02
2.112781097308902012e-01
3.416823889727566010e-01
2.217078457758948351e-01
1.703375053985670406e-01
1.283694785025839280e-01
3.924861148089004576e-02
2.609092722916990861e-02
7.204040140244418605e-03
6.150217921819386979e-02
-3.553561820153758322e-02
2.898241466607323277e-02
3.007022496059789940e-02
3.408626755705152639e-02
-3.114380957386855830e-02
2.109109139007386835e-02
3.329418012525316856e-02
6.675411361839922453e-02
1.265022978814645538e-01
2.035772680185062022e-01
1.944636789887503880e-01
1.826766728130603257e-01
1.844328713110059970e-01
9.425965915559179897e-02
-4.899506655293302260e-02
-1.788261835043481740e-01
-1.886310902105977072e-01
-1.323460553462852685e-01
4.438307241298800054e-02
2.367084214266219067e-01
3.350594757352253206e-01
2.296309959778069787e-01
2.095707049916388232e-01
9.954378815702624728e-02
9.051744216972498758e-02
9.519092140301473048e-02
1.026432993029429905e-02
4.452669062318229121e-02
1.877050994992012639e-02
1.887365120030103267e-03
9.267414110810899813e-04
3.214852877688047228e-02
-2.112326252060718265e-02
4.824858272739223491e-02
2.634213856524649303e-02
5.605892396718609866e-02
1.130246939108064813e-01
1.758962496757970062e-01
1.803935171521352521e-01
1.908666266959949398e-01
1.732490710580475157e-01
9.785405528709818779e-02
-7.965402160260215414e-02
-2.615182829921087748e-01
-3.195632835090740920e-01
-2.046197366831844777e-01
6.239446328221980032e-02
2.572785808144478215e-01
3.114271145831949417e-01
2.416866198029505586e-01
1.444520920937157338e-01
1.338202732457523803e-01
1.530669861339944704e-01
9.106059225419145531e-02
1.725748208578092163e-02
1.678804878109294799e-03
6.170600725097356160e-02
5.563248894968018249e-02
5.564687836989797715e-02
1.044003389631117940e-02
-3.150656235164331354e-02
1.063129145590816426e-03
5.430798059521367571e-02
-7.178476055136075000e-03
9.266260519712735122e-02
1.034333341562036213e-01
1.612230439997920650e-01
9.372765154183929082e-02
3.540736249341155939e-02
-3.975809178750111528e-02
-1.058241285168899370e-01
-2.340722544790770354e-01
-3.047397817538624598e-01
-1.653999530135384644e-01
1.200445682575311535e-01
2.260133060506994973e-01
2.026881763002597869e-01
1.303723378567840097e-01
1.140414607785392442e-01
1.205328234956403732e-01
4.242938381755813337e-02
2.920998198392792469e-02
8.343574534142068552e-03
1.653552762583794522e-02
4.478007369704715274e-02
1.481925823198600341e-02
5.312809823912450352e-02
1.005228267390785579e-02
5.474173777060006114e-04
4.395226967113493796e-03
3.090179001527895188e-03
1.617900989895349612e-02
2.706188857606060816e-02
5.878459888662870836e-02
2.335964797200602849e-02
-3.399422706711830583e-02
-9.287643268468358596e-03
-1.494882952386636654e-01
-2.123540994283414640e-01
-2.677327403927818317e-01
-2.438797430112895070e-01
-4.426242256036269640e-02
1.837397254409762204e-01
1.734436236563441369e-01
1.039488318379298282e-01
5.978825739887853874e-02
7.905655361626971744e-02
5.637449634528422793e-02
6.942807818149090635e-03
3.303944184635894312e-04
-1.862783231155607302e-02
-2.793423435113601139e-02
2.074073883843049679e-02
2.045063002380220069e-02
3.340208204064037956e-02
-4.434058712916735465e-03
-4.631321146986099035e-02
3.470782449149067972e-02
8.349220977292945434e-03
7.414384374023073876e-02
1.016605642966406618e-02
-9.860819854508380555e-03
-7.693376334720579413e-02
-4.996903735971453681e-02
-1.651883607712780755e-01
-2.703256495578257312e-01
-2.800155026762256028e-01
-2.258040401661882690e-01
-1.477400820891783262e-01
1.089052376092461277e-01
1.030172173672977004e-01
6.390993604206221534e-02
6.390766210821570426e-02
-1.740522365025213777e-02
-1.462664653830853152e-02
2.008848785542011878e-02
-2.875124170672264945e-02
-2.878212570712152321e-02
-2.201149524059667004e-02
-1.008567269920752733e-02
2.736373440924321637e-02
1.216011750160303799e-03
3.316100153532503675e-02
4.199024292014635895e-02
2.844064639466298977e-02
2.987261752526671268e-02
-1.088807505408983210e-02
1.040662895992850757e-02
2.721453952693319179e-03
-8.760540651122671052e-02
-1.447079602443616386e-01
-1.918692232322988800e-01
-2.871977593981610011e-01
-1.941323935763764608e-01
-2.465956337119485087e-01
-2.502512373973385662e-01
-6.410143561974306070e-02
9.025427114671584483e-02
4.848283120851452910e-02
1.503683245452967082e-02
-7.775368471128576986e-02
-2.692495830844465407e-02
-3.409186733670963032e-02
-3.360896013408869176e-02
-5.304772097089736210e-02
-5.782354535806968204e-02
-2.880368860948177238e-03
1.197506143962349077e-02
3.178132297470682294e-02
3.890086238591034667e-02
8.962449390129837226e-03
-4.541876166793844607e-03
2.676891846471611200e-02
-7.104487617371690704e-03
2.429103378333146573e-02
1.194095099561847360e-02
-4.497775193736930355e-02
-1.044059373777369709e-01
-1.796958855585682746e-01
-2.827254888931123866e-01
-3.110673385524035939e-01
-2.328348885855685835e-01
-2.204322871477431001e-01
-1.465452504846558590e-01
-8.172620301988089975e-02
-3.087148547799478324e-02
-4.700058908532198793e-02
-1.605840784975858318e-02
-6.658963729860649383e-02
-9.121092107889312850e-02
-9.376079552844933385e-02
-5.502269206177683170e-02
-1.215005492698857659e-01
-4.359333423295358445e-02
1.679951122077730577e-02
4.839881416301335115e-02
1.704287112302902557e-02
-2.951402332735163746e-03
3.343600663870284484e-02
-1.860414263379830610e-02
1.112082144647533015e-02
-4.720975224512140300e-03
3.665264658382471480e-02
3.606805692013079906e-02
-8.153728424502433569e-02
-1.232410299177707919e-01
-1.413828346174182682e-01
-2.252090538260324015e-01
-1.931644462723978162e-01
-2.029183282506450692e-01
-1.587746595750731404e-01
-1.959133262735391900e-01
-1.286423862209617741e-01
-1.530485026604630205e-01
-1.222395774750815178e-01
-8.880527640814296630e-02
-9.837048148895687072e-02
-1.167087329413241531e-01
-1.196377752311072601e-01
-1.599856740159136814e-01
-1.205681187493960610e-01
-7.196689592792394202e-03
1.640541002834025944e-02
4.738386757430895768e-02
9.001304357368340725e-02
-1.783147543583638939e-03
4.182505168783476335e-03
2.259951441195883273e-02
8.115481325275605839e-03
1.510395078916039989e-02
6.151403695296533275e-02
2.777456351555459765e-02
-4.585308400765798070e-02
-8.414230095430822939e-03
-1.343036554231953894e-01
-1.228165436568436769e-01
-1.574829293945265440e-01
-1.773553447856205945e-01
-1.735120577313020163e-01
-2.550920415504384642e-01
-2.328557329044007307e-01
-2.668901942869211785e-01
-2.372197930548539113e-01
-1.666915860850431697e-01
-1.792344603087500932e-01
-1.613759554350928105e-01
-2.047270135739333585e-01
-9.194760617558840610e-02
-1.907500882074566681e-02
-2.857008358174257731e-02
-1.956483913739182762e-02
3.545870049048554379e-02
7.880429982372285508e-03
4.910718287374066932e-02
-3.642826958758180536e-03
5.239916244543382090e-02
-2.948503627928473342e-02
6.145728342938586164e-02
-6.136262196810642749e-02
2.675526148668546170e-02
1.512991730156958842e-02
2.741625022003677317e-02
3.771084823658056757e-03
-3.184145440763490320e-02
-2.645485378253936357e-02
-9.388438696632665781e-02
-1.958829392747963305e-01
-2.432545270872946697e-01
-3.063450380786076899e-01
-2.584791846761665957e-01
-2.239158272793919935e-01
-2.291673657014116072e-01
-1.604797020059432477e-01
-1.172785517709437064e-01
-9.471019294050544990e-02
-4.389566702070786530e-02
1.651400563427656357e-02
1.604917399269574496e-02
8.932351174758416945e-02
8.415369999622069816e-03
-6.894145809239107109e-03
3.308053539997646980e-02
3.778191277605107840e-02
2.192188295663100722e-02
2.227577253958207965e-02
2.963496130858212646e-02
2.163595975511529296e-02
5.998061556190477372e-02
8.990652889403794035e-02
2.762977653204166939e-02
4.317770505259325986e-02
9.921136759221864387e-02
1.061375184920662490e-01
8.815549875558646720e-02
4.317593738136693907e-03
-7.771125744013063219e-02
-8.781747017299507130e-02
-1.354873957593086542e-01
-1.383012343878644579e-01
-7.347887686579560040e-02
1.359931898456086599e-02
5.838836514769006614e-02
3.252818046462774976e-02
3.804528174312900302e-02
5.930985659795091208e-02
1.604873371666717605e-02
-1.971657880647835828e-02
2.632605164510149962e-02
-1.670089215986247932e-02
-8.802962202363829800e-03
5.272837404961683988e-02
3.628805744332694316e-02
5.775148052862131426e-02
4.455884836355762657e-03
4.867844224771634976e-02
2.834594412693518944e-02
5.513266345632533011e-02
8.137987317278312649e-02
8.701064492570914632e-02
9.416251156349533802e-02
1.180845563689796873e-01
1.507758782512935714e-01
1.477431366425541737e-01
1.711113881264089698e-01
9.243880331050817467e-02
1.133705761209152368e-01
8.916384136785898695e-02
1.048222367948284384e-01
9.165394540359475539e-02
1.112520904056853027e-01
3.334432020962613957e-02
8.845048306700767360e-02
3.518373710085070938e-02
5.216855244855776730e-02
3.324887994573573480e-02
-5.653048340553075250e-03
9.695111141092513721e-03
3.229126485970015142e-02
2.975549810130196510e-02
1.360995325176714114e-02
-4.090402927407942035e-02
1.873057681861223581e-02
5.193539707290248560e-03
9.571216188453011975e-02
1.749335017439023669e-04
2.913190068908385819e-02
3.095464512658011383e-02
2.465411443841340061e-02
2.061524677911685463e-02
3.305424816763709306e-02
4.741095860272244444e-02
5.692509985451879063e-03
3.579318060143456964e-02
1.536717468757014919e-02
5.524172000597457610e-02
2.197728803377239915e-02
3.932821787418296078e-02
2.443368389838976654e-02
7.512957109100026898e-02
4.580805315039929854e-02
4.689301594943440926e-02
4.890015423657802576e-03
1.804351659754548564e-03
1.120672786330257926e-03
4.516736382997566662e-02
3.437142592781785699e-03
2.443608163573502204e-02
4.583690646424107284e-02
6.034280716340234552e-02
2.792163001536373743e-03
-5.277385691926501227e-03
-2.662690877570924111e-02
4.960370029013241866e-02
4.264908909109571024e-03
-5.271769769512986252e-03
2.569896136499406208e-02
4.229171936762473466e-02
-4.229686452806225710e-02
1.968358116122453580e-02
4.052778672509254471e-02
4.374947483395170804e-03
2.617139577292854416e-02
3.832015400094507251e-02
5.038491846817779937e-03
1.611748072205794122e-02
1.826741124605547537e-02
5.812577735332753737e-02
2.775877129448598921e-02
4.825614481217106039e-02
7.050479091964473484e-03
1.629905595696315435e-02
1.021047856263294744e-02
-7.714526998289498137e-03
1.675169202095665860e-02
6.088944698920222692e-02
2.769269969560392841e-01
